-0.7176974470227081,-0.37686183533044304,0.7217590375426225,-0.11505723210765807,-0.8636957263703475,-0.8695181065619872,-0.1094877710190616,0.8827567353437953,-0.8455383169003485,-0.09330878169925293,-1.0128442494959835,0.0075134149883325585,0.7000888981082642,0.5560380682847176,0.11403550424227946,-0.8790481077890406,-0.8123807369293317,-0.7311015760337571,-0.17564935025432962,-0.5161759716508391,-0.5903841188185928,-0.9909583550349236,0.213582065036376,0.9635568941134355,1.0294531046721977,0.5577511543918038,0.3707808895268658,-0.5480031008535673,0.4796920728408491,-0.48191386913119755,0.923555791313738,0.7558825861109779,0.6242463997136596,-0.3849549055802064,-0.8232639770572963,-0.4768400435391107,-0.5024719760302745,0.17116519844865552,-0.14906270155225188,0.5539823979758116,-0.3749221741699611,0.3008161415453581,-0.8498646878548228,0.5845233697635985,0.5451671012902672,0.2971713201276609,0.2731959268483617,0.0678099958068985,-0.9096106583392887,-0.8739392699910302,0.9332670658299105,-0.7342015782083935,0.25676197479235885,-0.8188731933744999,0.2083637383456809,0.9577682558246814,-0.3653595551838815,-0.6918653971616415,0.9831593156971581,-0.3478767892704533,-0.9373077796350033,-0.8988411632015976,0.06868712413159117,-0.703791314078827,0.10067012914519835,-0.6422427691069201,0.550234941975632,0.027685455728390762,-0.6427764603200057,-0.5652347179320976,0.8685683564531586,-0.0765307111018736,-0.7345632443473491,0.4800689072559383,0.7098873717867749,0.5939934176816677,-0.6568641460568874,-0.9518568691542653,0.3937593092542697,0.8074081192196523,-0.16513258991703106,-0.021631382362646168,0.33543777240151473,0.4849391261848486,0.9816151399788575,0.13811303918920426,-0.3585018171205969,-0.28532635757022407,0.8021737013438013,-0.57327676791492,-0.018124713321748143,-0.6108029471709897,-0.2353301340125522,0.6678488017933473,-0.31388972806167614,0.7623027394163002,0.5592945292792828,0.36823256521586245,0.011193471362766827,0.5856104766042958,-0.6198070928508363,0.06021712964416914,0.8559751133936195,-0.24721845358600292,0.17369127979903576,0.26838400287749287,0.054076004631804064,-0.049149771318432345,0.6340161167288085,-0.5913552807267182,-0.9962704247186451,0.795138981543086,0.8127694631866953,-0.5732025444101263,-0.26027817703341216,-0.9027845952891167,-0.951215390173878,-0.5341114015129103,-0.253717967783335,0.040908156758334036,-0.2860549543815114,-0.01840315948595528,0.7192490865903234,-0.5828125690310468,-0.15122026856199655,-0.5546568574698671,0.9588827668068647,0.5819848097294564,-0.5130665119426605,-0.489038841789295,-0.7000037365134788,-0.609289034608036,0.04335201009152412,0.8945735053785069,0.22540385864315415,0.9057429407672088,0.20456176282104543,0.6956535531903127,0.5010200683620349,-0.2748974731562164,0.28494462365855666,-0.9905795673475526,-0.9935536833875311,-0.6360834411282454,0.02995855862304242,0.4324051624151426,-0.3918745097407499,0.26209827502128746,0.7850609092988827,0.3528411393750439,0.1469704617271379,0.9624975809960534,0.49870100664550265,-0.39035201158851285,-0.7724416856077556,-0.17591073155523507,0.10536629385249374,-0.2667774938368366,-0.7998708151092981,-0.924321223206773,-0.40005837314257553,0.5410024817966694,-0.5357285466380026,-0.8956488597822523,-0.30789569898437597,-0.9969370146494774,0.907042484701271,-0.07035630995510078,0.6766280671913945,0.9577925304883812,-0.8914819642481855,-0.5283317805881864,-0.6641498338965628,-0.7621339060190355,0.20030687865352914,0.32433714017509097,-0.17471044028843474,-0.49085534466116454,0.0655245336970327,0.03053464188653643,-0.9047485225404874,-0.6540698985199833,0.15815589955345666,0.9343759378839143,0.8123854343596859,0.7248568662984312,-0.6367629928524219,-0.2922554750449915,0.29609645067931467,0.20410915185197598,0.09601668395251606,0.9747216765051088,-0.1341596450749989,0.4206593257774127,-0.7777200486595532,0.45990133989096127,-0.8584886636130475,-0.9092952723030003,0.6571082142050901,0.15735634197093828,0.5116269266831197,0.027550737881980147,-0.8274925488305716,0.5270952391726458,-0.6945126990814177,-0.3419614623015148,0.3146130474423541,-0.23503856505014897,-0.5078192068431553,-0.49059154947417216,0.823090567748517,-0.15288600368611727,-0.6412616351447711,-0.726397625249972,-0.9861826321421441,0.10579389213757096,0.32390002447865673,-0.10718351734441067,0.7021324921807912,-0.7314225544251536,-0.6559438667255353,0.5432412085773626,-0.42769827194439203,-0.22434704046194787,-0.5395988160737477,-0.8294865422637292,0.632602877385299,0.6534805157392514,0.6703561249249697,-0.6084843437670295,0.9773791320223164,-0.5160290412019908,0.3696588285853146,-0.6858920018996055,-0.5219600184293063,-0.2862166029541533,-0.7207050413109362,0.25768804371563414,0.4029095505305784,0.6077503082569151,0.5822945181449342,0.1828392808953635,0.1723588252625226,0.36509988068356536,-0.24318363678425645,-0.47605333833729596,0.2472959870902105,-0.29120848094950347,0.5828858125648595,0.6267072679283764,0.03303805961017055,0.0008223698728833425,-0.2597882878105927,-0.7682337155345007,-0.9108171857695835,-0.8446579904801724,0.23856802563079957,-0.771975670468132,0.5594776380848567,-0.8469026248273188,-0.2906549529794435,-0.7997422779089417,-0.0046761295514327296,0.4153046765294511,-0.20431334731469555,0.5587041068543448,0.7320211975079262,0.3145886474352234,0.774260700495337,-0.6403590128524037,0.6501815412125653,-0.5942703779784179,-0.9091574004002301,0.564838869573118,0.8827355530605465,0.31762165542812776,-0.10775723103117002,-0.30591234382577726,-0.6916573884627162,-0.8598484376030014,-0.5924149205477317,-0.2880720269455302,-0.9524184583617487,0.5145962324549642,0.3232464940599422,1.0253016381231637,0.6828261394229941,0.17072768343732098,0.05803938813379602,0.7237103510962863,0.7229651467205198,0.8721076772163,0.6365815800474343,0.5034943881171628,0.9101301721809291,-0.5790503502325066,-0.04580774423661687,0.32752950500000727,0.7930004995477532,0.24892818994879204,-0.6510859923550687,-0.01859234212404043,0.6871510944825318,0.3161920461355946,0.7350268792765197,-0.9459049127623657,0.09622947905289644,0.510855600811253,0.6066768609845528,-0.8581455891661208,-0.4784016985663367,-0.7384763120570518,-0.723331875810726,-0.2544184442211593,0.4554587529226025,0.3015558535898656,-0.725370369631248,0.66510229512517,-0.6007433680844304,-0.865779034233856,0.7588994570848817,-0.2217793312401353,0.20081558227460253,0.7335553610036697,-0.35920213493221687,0.5780924790677267,0.02579180469552779,-0.0803849458898673,-0.94933827983099,0.261736949976523,-0.7787992449601784,-0.4705000082169913,-1.1537073267226592,-1.083639703914685,-0.8377621541913877,-0.5698108897871296,-0.7384524894317362,0.2979146445638917,-0.04304581157265198,0.5453126054593623,-0.5683466421701816,-0.8205274156276444,0.21035488538727531,1.1324443882479465,0.6855000968360339,-0.030588190857238438,0.5993092445358775,-0.9422027439419488,-0.32214855171060075,-0.5745839510872305,-0.20038760545071754,-0.9796020744646181,0.1481264721695029,0.1756282862237683,1.0690463188056611,-0.9002326791776634,0.28970312223133365,0.9354115563419381,-0.3510216451109266,-0.8598887510530719,-0.27731504524555617,0.41087001199731865,-0.6735975094577371,0.5055584901306426,0.050823847113553186,0.3411063601692308,0.13323124141113327,1.1254361263426589,0.1856498953202236,0.02403665323622812,0.9285518914258017,0.3711437078662749,-0.2897310959739041,1.0775002947630983,1.1326075094101005,0.8646694220588109,-0.252167151252604,0.6538367141722274,-0.6108034072413259,0.11936423391884173,-1.0324495626679964,-0.08224081270839906,-0.6376843743080204,0.31645018619839893,1.0552303112528094,0.2946025915934802,-1.0685973854868693,0.6345166474368954,0.8334502838977745,0.9208976026074019,0.23723507354168616,-0.8551648774086558,-1.1018103507221428,-0.6405875912691286,-0.47269918218243423,0.5080762179749696,0.38975845025748906,0.11400988643153645,-0.5668201785963063,-0.6498862795762456,0.708254987326579,-0.6925655775554822,-0.45266053407488677,0.3856517932834734,0.45562882485118666,-0.22081139405970734,-0.4853608288487916,0.1795438404778466,0.7919038647498021,-0.6354943462127854,-0.05522313260953348,0.5738666713297211,-0.560560810331137,0.7248934220472608,-0.4992344111600183,-0.9925876712269895,0.19448804369268918,-0.00600170507065343,-0.6470619639299894,-0.5816761522575176,0.8114081699271913,-0.535508468140504,0.7099560254115926,0.3076569542291163,-0.6424964761763019,0.2952014220374952,0.06989593431886724,0.40827905317278584,0.6159663250521805,-0.22766107515732378,-0.07840651793755363,-0.6161767647108987,-0.8705241756222764,-0.6118650503162147,0.12674835077911617,-0.36189986927296125,-0.19188027639884048,0.27960676990541955,0.5781857404933903,-0.11748220992853302,0.35578989455954874,-0.7772204439389253,0.09634776795674772,0.8080436775299068,-0.22505809512895542,0.37746071472154663,-0.5706649962692356,-0.23151066441450496,-0.282285604768249,0.3746471042428204,-0.44599484859247124,0.1776081170255135,0.5845457171332447,0.7041014793591343,-0.4170660422081719,0.04114929083662191,0.9391187060348478,0.5699570672754524,-0.448243652653002,0.10213555052490406,-0.2827933068610755,0.8062532400992254,0.1307535418554393,-1.3138806785640467,0.49994116207061584,-0.08956125141123164,0.07395041889997025,0.784577499021647,0.7198533487970421,-0.927805344302858,-0.031838856018707715,-0.07281773201987761,0.0936594984082981,0.6575911202597613,-0.0039310295766995015,-0.32307347622035626,0.4375079406319532,-0.19732511632451896,-0.3067079569897147,0.33573197137467814,0.4312262691197891,0.5272234677364291,0.4894818931840004,0.5042945285390005,0.5223572993458242,-0.2626770203605029,-0.8266123777580893,-0.31817698289840063,0.13094420738353074,0.6637112835046105,-0.056683270589482006,0.3117578008832665,-0.5776558707426946,0.20357355926879114,0.15321172225537152,0.41234704385436804,-0.013210462589802458,-0.8675626422395402,-0.15221598838871603,0.008140270964246646,-0.64986349803345,-0.6520358780697391,-0.35628746937100386,-0.4880099750400446,0.03751143858104225,-0.6439795703866658,0.5141856556949493,-0.18337166748549855,-0.1420132980791597,0.26456692832729506,-0.39372081161099154,-0.07682772794604562,0.3180241378527626,-1.0232211900832733,0.2636328005516589,-0.7263612501584502,0.9335296495495268,0.0811351197923117,-0.6404022850064474,-0.16791551313478548,0.9388444818104584,-0.5465615410096653,-1.1311717605079095,-0.66839422826274,-0.265825619493223,-0.9793486859195252,0.5631574126262572,-0.8212672985295038,-0.5897425448547133,-0.43076630163448315,-0.41751601620059675,0.6111749188396699,-0.11688379235831009,-0.5531677294903711,0.28378351726998874,-0.6081639050776787,-0.24505305506766203,-0.6691301339849186,0.13114116846088836,-1.0346442013213315,-0.8315747868199576,0.4393590685464115,0.31118189482144154,-0.5749491978923961,0.7195798922488483,0.38823443019634596,-0.2871807678303674,0.7217767707109608,-0.8370953570772734,0.32823548153902105,0.6866768458678422,-0.3860203965062699,0.696968253943567,-0.7641236969892007,-0.11096153653719491,-0.46612319677148983,-0.47045920536379465,0.8550910069581706,-0.35087007845653373,-0.1149657829702233,-0.15577202487290026,-0.12037436778599778,-0.7294891519210371,-0.9850731544763208,0.29589229326003563,-0.2796637510460083,-0.06627599243992555,0.18916621947541604,0.7232291485916087,-0.9673984382102304,-0.1987388580671839,-0.7695398253811049,-1.184621174822853,0.3335217350632262,0.6366666943978062,-1.1386960855083845,0.9503330800154218,0.8675685978083935,0.1534847886274423,-0.56685531063864,0.7563693550706959,0.47711557149566614,0.08362804604203908,0.9941162276374632,0.7813001315657706,0.22293302615026966,1.088806585385856,0.016759119598231096,-0.019820801459340367,-0.18325186754084424,-0.7304363941702351,-0.41417727384461467,-1.1569455318320558,0.3534463338751172,0.566796729062225,0.44517711242863406,-0.10934931395111132,-0.9342298019284982,-0.16900368738789104,0.11591038154296389,-0.06068544812584789,0.383838220502529,-1.1968024476224932,0.3596891962891522,0.8715085596875852,0.5642032255166964,-0.3107176477433967,-0.3308023240362223,0.4737333883764547,-0.16883768676911637,-0.7923176509477876,-0.1449369802873403,-0.5060237132199464,0.3469825249022722,0.4907420825439875,0.4552878363561515,-0.5916790517477475,-0.748736197233613,-0.6954610658375607,-0.022555740373030195,0.568811271303445,-0.5772935167460799,-0.5791885007902559,0.07194643973650297,-0.4958450913851665,0.23125702246983418,0.5648676277933529,0.49510646560471283,0.10233074887968334,0.5699465508870675,-0.41041395126235897,-0.3801664379486715,0.2824813294929872,0.04393070224616227,0.3345742613110358,-0.17751227910257084,0.5308037351529993,-0.1325438743579817,-0.1888470722125804,1.0546190478404063,0.8618034738072556,0.19634395679424532,0.2648613866277869,0.5358554770791966,-0.0658552502557585,0.04662227280354546,-0.8661019492092518,-0.21990980795658535,0.49267866319406617,-0.21898546042736833,-0.7620298814577655,-1.1289446815454505,0.5518040049615227,-0.787256033585365,0.7145265967129784,-1.0043124071878515,-0.9054910544993827,-0.1311034326642041,-0.30434408120837936,0.24287641823038722,0.6601186727523898,-0.7976396119342037,-0.9083555437557133,0.2555112270455241,-0.6390604049088865,0.4375564681421555,0.9976868618725547,0.9879806711205363,0.1293702938424819,-0.49305102990005045,1.0384009577578388,0.15707437145738565,-0.1689574095171881,0.6111049711476784,0.06241820820564226,-0.3257556392147485,-0.023138005516474765,-0.3333554291806962,-0.307963862607056,0.42759915444021673,0.6353145859488905,-0.7109018957604654,-0.45559455921263636,-0.006980273262113588,-0.40629171500243977,-0.4630245007557271,0.7408214096274772,-0.1291069369986237,0.027490277028187137,-0.5970850731255258,-0.2860577627675194,-0.8202228642740588,0.018445434579155363,-0.8932384777178232,0.8310501964078947,-0.7887196223840163,0.9762218632726235,-0.3227307456951332,-0.8965546803701508,-0.26787029763823883,0.29353694620773674,-0.22811217225814906,0.28641540312344904,0.45190829439906693,0.14997235567708397,0.7827233689137312,-0.39146581052824075,0.9157507454283984,-1.1206002275371514,-0.37236824497540055,-0.4274165186854253,0.43797986100144526,-0.8685368003395166,0.09092833541097942,-0.03155646389829161,-0.7238863332038258,-0.5412381778225628,-0.7415941842707289,0.04530666188145553,-0.4783354268228321,0.8057885418161265,-1.0776632959489862,-0.20651084961045652,0.5545901946173584,0.34569791111041115,0.40379951819390175,0.08358620142421902,0.025497474711480225,-1.0400075401007334,-0.4951140033060449,-0.022093519212298126,0.11293737855360812,0.2095033180226404,-0.23364059802553358,0.534561552813001,0.17623496617170822,0.29971340071314545,-0.5589009836281476,-0.7517638071859514,-0.6650601245645329,-0.25532327672863764,-0.5074293638628873,0.0846949127992058,0.9009523291593735,0.09919213464818354,0.5394345900805261,-0.5601351865348932,-0.9109352479260567,0.24702215056003637,0.31699007353132913,-0.8310650522386457,-0.8240332569132248,-0.4592500381087973,0.7535429652566615,0.6861464059651202,-0.19557372437030038,-0.33555967458025315,0.5798730043643969,-0.1983906036659678,0.33028894452528584,-0.7320251063627905,0.4498547913406529,0.7089833430912377,-0.6730797533680244,0.4397975520592592,-0.34955090515369097,-0.3255425257036646,0.8520117583575395,-0.8732397922042529,-0.3749510939068254,-0.2436455508074923,0.3461695456269507,0.38125493707769326,1.000179938622591,-0.4187161429328299,0.11633720007649018,-0.27146865649423996,0.17724552798528026,0.08024463009320033,-0.8328255901814162,-0.8042652479541771,-0.34688418433915386,-0.0344793541879293,-0.29830674061409707,0.49634514809728536,0.6733493923052593,1.050361677750038,0.7012370881422729,0.02533780342504407,-0.4303530695477301,-0.9340575637568186,-0.8027111294892019,0.030467414515431224,0.2622976789816072,0.3296906966025609,0.9598982849008334,0.5960687803794851,0.5133618850211382,0.42903363865466765,0.8594623607378609,0.8038795063743271,-0.6349155575001755,-0.3675988806926979,-0.6528524856268273,-0.8012105365940592,0.6420925147051458,0.770211277207355,-1.0488638574305225,0.84287633884607,-0.20986029615610916,0.5448676299120067,0.8785397700176298,-0.7940415174143491,0.2612223944979297,0.21335892672650755,0.7658312047370696,0.4050669905455005,-0.25314982662251695,-0.10224967532431509,0.3803257989862024,-0.4689840791923249,-0.8016870404667059,0.05222336089657063,0.7366417815361315,-0.9340544658149932,-0.6261715220218604,0.009677791717114437,-0.40745730396866275,-0.49538152642288535,0.632603321726717,-0.6974826929774273,0.49576781639518064,-0.8339133951313525,0.8547454485583054,0.7030117256959973,-0.18191055822899047,-0.7686166791333746,-0.23988604597924068,-0.020730983060952283,0.1647621273216636,-0.9855760030439662,0.7162074324924921,0.27267541166535003,-0.3288424060612634,0.1167135754761741,0.17224399924457656,-0.440637060272896,-0.8158413125256437,0.8496037925569493,0.6563358451043455,-0.44606318250811006,-0.7551276291634865,0.7067755232591306,-0.8285771983244493,-0.014124398214285372,-0.4257775593110526,-0.8662955203278423,-0.6134117788710862,0.6481194876009096,0.3011103171034239,0.5998507467513963,-0.4662228813480629,-0.9560648726599217,-0.9051652488803844,-0.5250502479106586,0.42459015197378674,0.31940556549633486,-1.069423932399617,0.8149529149332067,-0.14499471438453823,0.7342681084192482,0.8649170668026802,0.3615596600945341,-0.11036628120222691,-0.380605213970147,0.3908473541313622,0.8374026382268553,0.808906565554821,0.10338594920882715,-0.11004446386045597,0.8161326786554343,-0.7230005943918661,0.27619617836887467,-0.02277829340204707,0.24573503586969211,-0.3309937973998788,-0.10032151794183736,-0.405465951731729,0.00937359515604224,-0.619411362944432,-0.2048804742818438,0.5388456478702056,0.6790829497312427,-0.484523537552475,-0.725086884112921,-0.8756456929309858,-0.26898521767165023,0.5514687546620145,0.868078452199641,0.3006805192744022,-0.9376912274175402,-0.6238139187153309,-0.2998060431349917,-0.7978004606445894,0.1743294897868399,-0.031386078759989514,0.5971131549235064,-0.01966392525611632,0.24458146869023276,-0.9426810391997075,0.6109904876876818,0.7990488925263071,0.8449723895378958,0.14114324104110915,0.08920268467172145,0.2781994455828287,-0.19236778352200573,-0.6732876921588377,0.30250195836252597,0.8721929395342084,0.5857835856056133,-0.37839984542139415,0.8376227740487437,0.07680294362395404,-0.19493571553145356,0.5577174697354946,0.713598061752594,0.6430871671852362,-0.6759059613467481,0.4171655242742152,0.9314091610574515,0.7257048537750508,-0.8738336464816373,0.9998400193179303,0.7840655497172376,-0.7800330947994063,-0.09649438708500588,-0.8683539738809387,-0.9002924014050746,-0.538415403783216,0.20716122102707252,-0.1556769748669762,0.09195211802297426,-0.1661348534731969,-0.45636673411037254,-0.7847711045992186,0.3595716435059447,0.7695836102007133,-0.7864195028369105,-0.823210540089086,-0.3068378437558078,0.01316981398152515,-0.19473392666092132,-0.24272533826256296,-0.6388626821511169,0.008487322253315064,0.03399135214657263,0.7486387699345458,-0.13148697588310582,-0.34303677464307514,0.3888197061651418,-0.8023459103554104,0.6649295694332301,0.10842026041970546,-0.21742007525403098,-0.5419836983909465,0.13413086431623614,-0.7926040239412699,0.05779280651591393,0.8575499592194953,0.17866163125163437,0.008331363356589135,0.08040183129636731,-0.6556790550487076,0.9981755159814861,-0.5127364669145664,-0.3952563637965564,0.29416177123545834,0.6183033858326895,-0.3087575887480438,0.07149981171714576,1.0019500173675946,-0.8780539044642418,0.7701399342174602,-0.7814325639117468,0.4893317200671617,0.3542507853957902,-0.48171104055862796,0.21313834994425304,0.5061313492510194,0.48833102469989753,0.2505572042133548,-0.5115557939925097,0.5343089524009481,-0.3534857145306367,-0.12727343279758574,0.9140910403840057,-0.5313182193461592,0.5283359201963049,0.25409754758629655,0.5823770631207532,0.6141429626667418,0.36776595575398074,-0.9395718315972159,-0.07907107714538042,-0.033872951452033284,0.6810237530578509,-0.24772286748590933,-0.45925478287956767,-0.5789011073553754,0.16597269002135073,0.34241147352400314,0.3838397989313149,-0.6572307991453508,0.9139358418141865,0.6897979616064394,-0.19717384279889316,0.4568161333332408,0.6664023934011807,-0.673663315204813,0.8064317523072126,0.9477558544785956,0.48661517152184675,0.2636589712596433,0.05306135168684145,-0.830746871559912,0.09663737563573771,-0.7483040754759149,-0.1573540392950692,0.49600894951022334,0.5655963988127453,-0.04569892532539033,0.6654400096351873,-0.36162593917419206,0.5980283242569124,0.25546701756318324,0.3798100078921349,-0.35357023838511004,0.9040358365120651,0.4518824379883044,0.6367941749185528,-0.2852183075407686,-0.9817018180886226,-0.7871836210668486,0.3440088982682452,0.8632590230793946,0.9924798264423726,0.4448220747422025,-0.3517056090467756,0.9796491844325683,0.4925868170520993,0.10785489762535727,-0.35238467709950916,0.574634741061856,0.25551652032074323,0.6646287106931965,-0.7738759373839688,-0.8510954645174735,0.22498421674695823,0.09776778068611724,-0.6093497403493082,0.6499139454651457,-0.5945178102276882,-0.29004237048547665,0.2681507135237049,-0.26474438181795934,-0.6170356145291438,-0.5166450246028662,-0.021646999902978248,0.43820839362820463,0.6474801519118711,-0.9586771786505768,0.8586122368320275,-0.5213251012489601,0.3704811178896059,0.4266806571285111,-0.825386303229614,0.2503041593927853,-0.64776702250395,0.6352118529800432,-0.4891999874278983,0.45445336839974004,0.7697845203355287,-0.45821141263435905,-0.9183931810941581,-0.3798829776875672,0.43539590025973496,0.2993873055559484,0.43238145511664605,0.38466606774210077,-0.06947397823608226,0.7821005694541259,0.9630911046791337,0.847237169463827,0.8872755356659578,-0.5109171615152295,0.5938550992905376,-0.4547950539286716,0.214805839222741,0.15853194464433917,-0.7828444766705303,-0.7906663942666139,0.7952374206446415,0.35150330113338346,0.9632521524377982,-0.3099583213113437,0.046909588361935706,-0.3392728762290984,-0.7337677250945132,0.47242477766911684,0.9819143793681699,0.3213125669786794,-0.9177218339732638,-0.23689192399870573,0.25327556914295224,0.3411028694279181,-0.9731592217087048,-0.005465682014417661,0.5540011620765102,-0.5373733069366593,0.06440843080064806,-0.4609817065005801,0.7765911622953259,0.7265996240146753,0.011301908352580714,0.9225317064956873,-0.7302507159419669,-0.9876340639390311,-0.22219756036602423,0.13239285831059222,-0.6374839971500168,0.4172850591901509,-0.524057756738012,0.6834399808724447,0.32338738950621204,-0.06292210783686047,-0.42819856743221374,0.3919958304501978,-0.36032748573891427,0.7548244013834093,0.7534052412767391,0.49116210858988074,-0.6449919781122282,0.04454316851141682,0.9280692625855422,-0.10278495035454083,0.8399060254200139,-0.1847168400936965,-0.4021805033266359,0.750388112510433,0.909380678384516,-0.6567229085389918,0.9502616366817358,-0.6350658105818867,0.9448527528671404,0.23934959536777956,0.6347141577845592,0.6264559879543616,0.3987247551908819,-0.9002106843625797,-0.41664241652534817,0.33723391150484305,0.9791082063349459,0.23030809583349487,0.194476471401539,-0.33870023470870736,-0.1301666049947423,0.9717072681488619,-0.8179190758877588,0.6352850898089126,0.41581738183135086,-0.3150487695682257,0.3129458655620511,0.5893790609153295,-0.09539037895071067,-0.7840995062549431,0.6554421598310324,-0.48367719499182804,-0.28722169324871333,0.448412972667772,0.046773657191446334,-0.3310438470959836,-0.13281946677860443,-0.16262407145660074,0.5795283843201443,-0.28726699440091275,0.8866805307289894,0.15196224391516294,-0.4620674276154138,0.33485723857850164,0.5414327520696868,-0.9153188732332461,-0.12604862886889878,0.05623993044367657,0.22973957527484215,0.6076268816889188,-0.2196579712477737,-0.8386720976282468,-0.5458222805660723,-0.18547801355724436,0.5811480233504669,0.22720028356258395,1.0057360214864308,0.4034793886614888,0.4008162758883457,1.0535498966926753,0.39516980681413305,-0.4890815406136995,0.175881847910527,-0.06112796913919525,0.2708786272893492,-0.4266135817052319,0.6922782727842612,-0.07412561473597214,-0.45717575984117403,-0.4596677705524369,-0.9213132359775243,-0.07307525369130793,0.02986538839621493,-0.7061968665808774,0.844182734814921,0.27609872913893513,0.15289107457692563,0.356933086610594,0.5877400815525117,0.6911087223245072,-0.31570239799410144,-0.08876916712059374,0.16945089316323553,0.23043962109546398,-0.4411912392060286,-0.03416718653719484,0.6094762312562991,-0.4500501149707061,-0.7053160418561687,-0.8577551440409034,0.5399422154603762,-0.19555914150838474,0.5324414854868894,-0.48817125851895116,0.9312029416009,-0.3674230549797034,0.21936158434547753,-0.13317101851416333,0.39452872514716075,0.6457198800698126,-0.7283141600669489,-0.1015685942049059,-0.507831033164276,-0.11651383299222902,0.9646668002561364,-0.31884896995554884,0.7749973338536966,-0.04708604847888603,1.009139647169382,0.401564248148234,-0.4419331300995795,0.26211862252126994,-0.8275341237950542,-0.4965454335048479,-0.12214531171924017,0.49378033134852745,-0.4963649898923804,-0.022501194701275,-0.9384632410528796,0.11854162385953972,0.13547260407152695,0.1679488424867478,0.563399980251065,-0.49513307043891247,-0.5051911276026193,0.41013850934641244,1.3161525624939432,0.7511235646833974,1.0576784293050339,0.5852570058939247,0.5096724778192344,0.2278804231070822,-0.6339770402839338,0.4485053372814827,0.1506031560306693,-0.18927794212302404,-0.3326582019569964,-0.24622776431027496,0.8107856836332057,-0.8322918344813204,-0.3484704977572493,-0.7290739508111685,0.37156129398602356,-0.12068241013938688,0.4268498257803406,-0.40710154739345494,-0.436364112324129,0.23639590083788148,-0.06471733624353525,0.6375667533169134,0.2626528432206625,-0.0709097722215686,0.5782870400598261,-0.5014897398385691,-0.6371571411481352,0.05390581354375085,-0.723622717460372,-0.33731038326359164,-0.3524116975760266,0.8900639212933109,0.4012773915143247,-0.4591022729947489,-0.6427265172224951,0.7859772657221846,0.537312340055315,-0.26795971157459664,0.9994052436776061,-0.6034977553529106,0.49550132168810934,0.17654117066718877,0.8688702930491774,0.5565062394897916,0.0943586426420746,0.4957459035879281,-0.006185755125935035,0.7275503491096615,-1.0013108883679027,-0.07381102940887506,0.16709384121592624,0.028337349417968914,0.9152175577866133,0.45342301436230553,0.9691906727911522,-0.03955798857773621,-0.7350675766492131,0.18560385957301753,-0.43729375693492933,-0.10790212935852075,0.5517786392166675,-0.8094872719974372,-0.4863280640757425,0.35653821317516077,-1.0394566609396343,-0.9466040803032144,0.7979341831830858,-0.16623122201830462,-0.25617894322774526,0.038159729875144405,-0.5513573786099074,0.48219725114744705,-0.5594478173356779,-0.818581215482736,0.6329238613047572,0.6201227545152286,0.6379234508814311,0.10945657086601278,0.4261183022577683,-0.1836931301327435,-0.33145653592671614,0.17947338468612734,-0.03792833941077887,0.3630187821036622,-0.7432735251084601,0.5630591794806992,0.25922756485109166,0.26147915383080267,-0.7412358525965299,-0.04501050703602006,0.008836377897245559,0.6590534429944616,0.00028972287222744095,-0.08543848780909442,0.6662313277634887,0.27103411475316125,-0.4107213211014582,-0.9943794416038756,0.6301977243720748,0.7705249665078395,-0.4714574567494397,0.08867518009575696,0.640916842796204,0.028345360585339426,0.27700468484850455,-0.43179833682286967,-0.6864931072484494,0.17835583432168572,0.8801622577554762,0.07498195655727337,-0.3987312799668272,0.9023498867669697,-0.6957818371639422,-0.9025078313607677,-0.13683779141910635,0.15098466220706408,-0.6322746105948281,-1.1030450761770654,-0.18773110672612703,0.21669326415611917,1.1907725613612445,-0.1526964635245295,0.32727465850792575,0.5041383678536916,-0.38202038195687404,-0.6535342257341505,-0.20203136473960814,-0.10956409873671101,-0.5139563092567035,0.6376174455267566,0.8356812472250532,0.3805945478521785,0.6187882170930888,0.2809916245990425,-0.5992747419104671,1.083383331657485,-0.8330108591486611,-0.04862897440381746,-0.9274395636726672,1.0478532334464714,-0.2523503238263659,0.6177089850026866,-0.5679123972442303,0.37688884103583636,0.11907343471509566,-0.5010255755033103,0.9668908059094348,-0.3406756714458314,0.6448631714979518,0.5073956175643684,-0.873070075882445,-0.40718615172011985,-0.6770717143947578,0.9751337031667546,0.37515805930354856,0.8752538100026716,-0.04333987024394785,-0.09999203214443203,-0.5609575692853818,-0.30903221995054503,-0.07113210425987357,-0.5035065736520954,0.7738806617495176,0.07983468198052358,-0.016171934967544977,-0.48573753471023595,-0.8829597035007306,-0.11438226287472107,-0.5003778143118603,0.48679347781713855,-0.729349243453529,-0.6530041458083442,-0.031729011760011694,-0.36699314598320165,0.8515647908683796,0.13262043808008375,-0.675636326720932,0.01203846986575367,0.24940311320131792,-0.9591808939862644,-0.08560040857570089,0.17611338211270686,-0.44232330363713246,-0.9043581868403485,0.049103608178208545,-0.6377137831418673,0.6418053846525335,0.7288858882587196,1.003373491299826,-0.7443486743921759,0.5108889599804449,0.8463404260257428,0.7883997481265899,0.48605855840983425,-0.3610428530573507,-0.10040465563627536,-0.21542315148844285,-0.34040798700697567,0.8554696246100714,0.36902550515634724,-0.010862654634856583,-0.9171755457132833,-0.19834010113397404,0.48174834167100766,-0.04519486638943403,-0.2307670949154691,0.11729162069246934,-0.5425431794363988,0.1801317458089727,0.2583729526772665,0.4664506260072226,0.027392385663395753,0.7937258634932227,0.7671036232777942,-1.0289448601203328,-0.7255693210880146,-0.952602466144811,-0.12055619989235247,-0.5186699557436688,0.9838064086047775,0.3546902007044604,-0.28242840029907806,0.7278703470476671,0.5867742578839105,0.7839594018288294,1.0261085499305391,0.7875420845370158,-0.30597440488710165,0.14831795630318942,0.6273733703585201,0.17288316817564475,-0.45897633932841614,-0.7077334332193004,0.49399255603948083,0.29260745044256675,0.4886645326017553,-0.39269043091772915,0.8733438783427747,-1.0526322382821818,-0.634934615253949,0.603605111274431,-1.1263801649325982,0.9897384484076446,-0.7021947842089673,-0.5386803703215444,0.5581991233138572,0.8998257131481014,-0.9998878675330476,-0.496447051253271,-0.7086211305183139,0.10447855285609246,0.004135246416403409,-0.4381373720134477,0.6501855638857468,0.30123133943392255,0.7026814963848239,-0.28645923507751164,1.0045818053480284,-1.2316913732502168,0.0722665691854264,0.5394278294014382,-0.756575538318807,0.2726263547601528,-0.5913641261648885,-0.4194771981500234,-0.3073410976645921,0.27305114591941976,-0.4202721200886416,-1.0754880593507572,-0.5567373441563279,-0.1301396130464654,0.5490692911143584,-0.26628206327028014,0.6744187272161527,0.6137784249509696,-0.38747801823065314,-0.4615980191056992,0.7502581155995237,0.17072320606401828,-0.0632010118810487,1.0322215432876383,0.7240370597313741,-0.28136354780670475,0.4494176223093182,-0.33179383231470133,-0.05317773754808752,-0.9347527969469099,0.7236097203208157,0.1840734323477955,0.32654430488862557,0.35277915337358534,-0.928879429229835,0.9269294074803279,-0.14868592513411094,0.08713025647109993,-0.22561811774675947,0.653901541089066,0.16950089235417215,0.6039526234519567,1.2742158387650702,-0.07517559356694388,-0.8415761347962442,-0.012541088920651467,-0.5512955392565173,-0.5533865973667994,-0.4004066886876592,0.7106956400710331,0.6866862561630844,0.06066785381766996,-0.8013835695343682,-0.44873530430292335,-0.6164913924991666,0.5402272548713262,-0.04309077849385835,-0.5648088764801387,-0.9823721432928285,-0.3419356999413159,-0.8999071054268327,0.10945807721573447,-0.572470952371767,0.007949921185164742,0.5096932625618945,-0.6624144683753552,0.4379186176669501,0.4759721588175254,0.3785024969201166,-0.046619116965242936,0.5520723521045643,1.2083334759789865,0.016667303274193468,-1.0534057461102513,-0.7283652974455641,0.8103974384191176,0.2227027713668741,0.5382649558173653,0.20983941969453848,-1.0961564916510889,-0.34463064579198943,-0.5530663299002551,0.1719304952442267,0.46618604908897116,-0.9798880236437801,-0.038345854961222156,-0.1263848552829249,-0.31501994144985074,-0.4692868328535433,-0.6930911010279999,0.3728476949555749,-0.47322723984939746,1.1928791670052576,0.8147065947129778,-0.2953698882861314,1.3023076746324214,-0.3497597840322225,0.5250356590336501,-0.7659967741184824,0.8664323191043692,0.05851633065427615,0.021120350889294363,-0.6360882700485129,-0.9284165926315617,-0.31692093652501113,0.9013402693959578,-0.7499407713342445,-1.116239122832176,0.7494792277075472,-0.25813037792651594,-0.5246190685361747,-0.5471376231861157,-0.5728596525212146,-0.2963729476583577,0.12804734745760687,1.01667708121774,-1.1624221879894778,-0.7773291623044641,-0.5302951930487037,-0.46297928054133963,-0.19122194808926196,0.00927834027447756,0.7034684434246504,-0.24639512050081402,-1.1339245549860322,-0.5519422402929912,-0.5578231782378991,0.9372873654548697,-0.5720305635668722,0.7711616512908253,-0.5878836300205851,0.9726044209950734,-1.0633527708928012,-0.11341815534971722,1.2890346488190532,-0.38049649061889756,-0.26090018489785355,0.784703169941228,0.8954549915195209,-0.8663949268051356,0.0028714120970997955,-0.8473781437759637,0.7940341051277794,-0.04245729925420701,0.6030721349270984,-0.22120571506408623,-0.8011086507659707,-0.349952688804674,0.9535949873623008,0.23192927605083105,-0.5454942309954801,-0.3748919212011822,0.9887494342643772,0.8141932662211246,-1.1320015062414612,0.21799122862603185,0.6246922811049068,0.7311355160323737,-0.07556465646215797,0.3502996050037248,0.5117597180473259,-0.22249733623587323,0.056336022003305355,-0.4463268277948683,1.3320754176632577,-0.171632088865948,-0.7826266964824046,0.23237274276113248,-0.6261377092210425,-0.8573077144451917,0.021815474851775797,0.6631686212630522,-0.2726553305306269,0.22112460824335287,0.09213890315321788,-0.3915557509811498,0.18811130303694973,0.9898862864740785,0.676829807379409,-0.23025779745269323,-0.7043234462218876,0.6266965323658577,-0.38363610537880144,0.4106942816625678,-1.1275920746878318,0.1913049204813815,0.4733939402474752,0.714822057608548,-0.8133652532644263,-0.1325707213406701,-0.8383677049923065,-0.7339484330342169,0.6158047133717288,0.8137993369623373,-0.19363215378862678,0.1943534457919525,0.798388926706116,-0.24337621069098556,-0.6680631468111036,-0.2991498204491285,-0.26190997973601055,0.4872777593050367,0.46602310530913593,0.44829751668288387,-0.38215140480944443,-0.5314493751787114,0.0892022759877831,-0.2959114806612213,0.43992075664847935,-0.8257234947865815,0.9662270708916912,-0.7640214293879666,0.39742900463088965,-0.1346356210702313,0.11633449211864845,-0.6390673547433215,0.7496407911764905,0.6688913724050246,0.0321520685504479,-0.3355367729110843,-0.7062532732639007,-0.5083577241219429,-0.6891112344780933,0.8053271423493059,0.3947159295053863,-0.36991770423798187,-0.28907644019707296,0.051338328677149804,0.7145812067151901,0.07849545819080672,0.2294321906866639,-0.06504485648021062,0.723134920321834,-0.008163818796690323,-0.1837566155574006,0.908571371315768,-1.0247503539224756,-0.7079007658641919,0.16570817763865153,-0.10479442812890989,0.7616130931719319,0.7196721261319726,-0.33286328699110596,0.8067583199557717,0.08582247753588403,0.11342039950424682,0.01770397315265977,0.40034236560024705,0.6533033130353334,-0.6015511935275705,-0.9711921563866549,0.23588580592988237,-0.5207905920333425,-0.20243740647721975,0.031175026465974674,0.1474964139560123,-0.7681052405932043,-0.02255788326809035,-0.09729922917414771,-0.8970881431757866,-0.5459428106664158,-0.5283951520852738,0.48171947858840475,-0.6270965705977694,0.060138947423973924,0.8040457232455158,-0.1493301715742463,-0.7592825629514337,-0.2809638859381967,-0.906834629960454,-0.2760659947077736,0.27815798720217494,0.12973927682447767,0.8912358940557666,0.2592928404378766,0.24280073556734846,0.2850734321657909,0.34268154551325264,0.6967432575996725,0.4945192043077674,0.09515189869285852,0.08613607110361937,-0.5400327431776779,0.5837866210688811,-0.2315361029061576,0.46897716009928864,-0.2590784582289611,0.5253700938669679,-0.12396922874044211,-0.21252696811810468,-0.5934166974472492,0.5531140478080584,0.01996756745524066,-0.7957702711474713,0.33755826500397235,-0.569554378758104,0.3701927413217988,0.7971088127303977,-0.9921517301000087,0.953141040479512,0.8398693504914009,0.4292414784438562,-0.27655318780217275,0.7868440366739172,-0.8660990419044559,0.7192794471255588,0.7166503812201781,-0.0904852604517824,-0.6708817558627138,0.3881030136927811,0.08461945605791796,0.32824110252689814,0.28053177299321413,-0.7938457780600305,0.828933723626993,-0.6852648555591525,0.6085750476765429,-0.2622666913617516,-0.3959468208058665,0.819801358136967,0.5049235109660312,0.09815387840761737,0.0835552811183768,0.01732825578688294,-0.5170242059786644,0.5155751073481344,0.568644681066342,-0.3280499975628713,0.39484073543012066,-0.22253012018585336,0.9513776440658576,0.35593804935115625,0.5259785207236538,0.7712233176613714,-0.4034769219761378,-0.8325032104170766,0.04869817742071505,-0.46444643499115956,0.5660317782493811,-0.1204028982093457,-0.42734976411031333,1.10393984166824,0.3937618432213579,-0.052837075192809585,0.613377766286153,-0.13528748600955132,0.7632560084122832,-0.019975127560958816,0.6840100623907591,0.6012129230598654,-0.23238155696100057,-0.7913113168892498,-0.4360779583492885,-0.8139585305659681,-0.4966737248531538,-0.5792039977411959,-0.6279502111002256,-0.5572612748233431,0.878414960094711,-0.7978877837309762,0.714022266084771,0.5178575518692417,0.6975175012332775,0.6220415980104821,-0.2653736071000418,-0.1778950098044615,-0.8021760326126929,0.8989922776138772,0.01946142399521359,-0.2642043714571907,-0.2306632260190323,-0.2917131749764472,-0.6079264985259639,-0.8895709531616907,0.22080677455075695,-0.3916358140998231,-0.4517962354090155,0.02641911381333123,0.8811832421087215,-0.2528541173966912,0.011941427129466295,0.4667123862795381,0.8765002277189957,0.9030004134014824,0.9141428581348067,0.4501426618176555,-0.13781692590419173,-0.2882804848450891,-0.9076722611354721,-0.09706874292751504,-0.40246334492758956,-0.8875117573681114,0.6270061491499395,-0.034498845639309314,-0.17020856715308,0.8100290518429546,0.8662755571661591,-0.6539546880005229,-0.9194625624998245,0.7785211135329319,-0.15895751474321212,-0.0544837262942982,0.32958706980117974,-0.3125645262949759,-0.8091344313228557,0.6431931317810602,-0.4167852433504277,0.301267657388478,-0.09302913490352215,-0.10826382520612804,0.719008170250176,0.21236894291681704,-0.14395885185174945,-0.8220101590331663,-0.6558572129394387,-0.13669357228743265,0.46038956584601626,-0.15059921177863692,-0.03739626265913264,0.35662945002276825,0.923990305979296,-0.7390662973890578,0.04616407909701592,0.19918140054387123,-0.12562524827851163,0.9928671159118851,0.7739518216096819,0.09645004966454218,0.8854130279956012,-0.6746188807006139,0.8481182127082056,0.9226923919409171,-0.6450294429175458,-0.6982242294274172,-0.0869758274204584,-0.19845877825931768,-0.6550734075759563,-0.08009034200737086,0.8929255369169784,0.35651368930046967,0.3217632386894278,-0.0760839444547623,0.8615021182944711,0.2139543877324901,-0.6968179464710382,0.16716014262471623,-0.7729104018971178,0.7179374788117636,0.5509516374365135,-0.5575518642081829,-0.6169921595257897,0.10296911479991477,0.2895700697104244,0.8927602779127954,-0.34105332380157183,-0.6868758100597305,0.5920302349478956,0.4234583392313276,0.1675959037648893,-0.4599882147166139,-0.01999805122638265,-0.8216966971314192,0.3057467642413083,0.10354824709107935,-0.4476208668495114,-0.22447213771698005,-0.1392063628392819,0.7033849287180531,-0.4945545804154008,-0.32211812492186676,0.20385072779140057,-0.37167806459137886,-0.9900051636151126,0.6245046609132552,0.2302534814479551,0.8105241023884924,0.6163894426090051,-0.39520546848456717,0.47294600920260255,0.36496892306329953,0.541594541053535,-0.0892141457189366,0.20277985506365814,0.7519007168251659,-0.28914365830348676,0.7389165848736277,0.5299530314087015,-0.8725700472139721,0.7715032838573042,-0.9751002372255704,0.5713981998098063,0.6429977330249637,0.14813034307382544,-0.7694347822338483,-0.37880473393061864,0.7913725405994727,0.02187322308578943,-0.36516881111082133,-0.2565040046717695,0.2414266517860657,0.019138245520231356,0.6416920831613502,-0.7301217900053052,0.6193902516016101,0.9492882611707301,-0.08050239688689342,-0.770753527349709,0.5677748580624999,0.7360134658936257,-0.5984812086537217,0.5523203400299044,-0.5333202211096335,0.44928312661414194,0.20668795773912074,-0.4360392889085438,0.8298900242135048,-0.8883120972468594,-0.7349437328024104,-0.7417236455147087,0.882580206529284,0.826961177520557,-0.20354048801931923,-0.0036910629487454383,-0.3852074200410023,-0.33446054897659616,0.8556180586100326,0.5188397396837896,-0.7798221556735871,0.24106146026822595,-0.4839816137688242,-0.10295351971435829,0.6467690637496135,-0.01356907785551087,-0.48236874784362116,-0.8564209023914897,0.05771261590571175,-0.1303385254579954,0.6283349078587306,0.6050597145023491,0.24223206654755036,0.7959112694272401,-0.028953402396840744,-0.5111726915668073,0.9033675270781578,-0.7059830124705819,-0.7124748154718938,-0.7779057722207623,-0.8480136138043144,-0.8212304076500314,0.6348570305353209,0.9531760367851447,-0.8807690447991856,-0.13082436133583308,-0.5815101661720476,-0.7053872679934985,0.37202044728071115,-0.4131722503066779,0.04375672839759259,0.9214514496007244,0.24254483268005367,0.7246517311961842,-0.30478259492579274,0.9526838700047413,-0.9098950033259212,-0.5818769595767794,0.9647199048989625,-0.6117355010103804,0.2217455892404534,0.04878060290299646,-0.6687003018477627,0.059059016942825115,-0.7689965459537088,0.6714179470038857,0.6103945599478504,-0.9627577473086437,0.12671841133775893,0.7585649716732044,0.2215334696263485,-0.6113581676379586,-0.9076079147619109,-0.5728109252411159,0.26795218658962694,0.3115075566443289,0.20080679992312891,0.504893288286099,0.33104496553705787,0.7557827741759464,0.6409050783487142,0.5963047899362304,-0.5073378964404286,0.4735685577779301,-0.5516562647621794,-0.9845944660208176,-0.5808707155524616,0.015423519121642706,-0.4048785396632087,0.10292984828087098,-0.5019554078309557,0.39089975649351627,-0.06763730923351075,0.3307718832646733,0.34374848978865286,0.6189367325707281,0.031191316285937052,-0.29964974715792253,-0.2322689925261741,1.0680111672969552,0.117853909339222,-0.7175822981927372,0.6055162438518921,-0.5085033992979159,0.4296167838751001,0.023924350103177176,-0.18961490762028663,0.5837298769141986,-0.45506791866864954,0.7278294842244805,0.5068108224732898,0.22672295244232807,-0.03066055404303282,-0.14893129772459474,0.1951806110540513,-0.3313373088454867,-0.16212193224950114,-0.8055603977169108,-0.5321678175526809,0.36732622756735145,-0.805971181088119,0.07806513590249069,0.6955660055126661,0.41762911070455355,-0.06508106776654739,0.27758041918355886,-0.6006103346933933,0.5668877725335248,-1.02298093483848,0.558054958467867,-0.3371002206444747,-0.46099511038299484,0.33691338544951716,-0.02726997121240866,0.45714476222851175,0.6210876580691317,-0.466554371426834,-0.6732849774682939,-0.46478281743598004,0.40993169527624695,-0.8822363506729145,-0.1048819728060309,-0.10356898249700874,0.694609910276979,-0.7523061493892813,0.5564975608230559,0.987052663502526,-0.05700159319214162,-0.22129859884278663,0.795642846422119,-0.38558577008424677,0.2041027406454252,-0.5158421806887757,0.4880970177256185,0.6571420480485809,-0.6536042231485911,-0.8445522554455057,-0.10316345325918355,0.7025917843219828,0.7111615961455506,-0.2431153535452433,-0.4545946827546888,-0.003556709599708687,-0.3305705157564814,-0.37554027218786146,-0.8021393847228551,-0.2724988929594754,0.35378090232925724,-0.32011266780010794,0.02151492490122843,-0.1262768549488032,-0.2425470257187112,0.7715167934308197,-0.02966916149101406,-0.5227556548255023,-0.760235175881519,-0.5233859139500785,-0.018820181199557466,-0.16596130150233918,0.4402328301367331,-0.5133441570400934,0.16876622872426275,-0.14482850934201474,1.0481233858495316,0.29358212563469527,0.04005982506403356,0.8920896685601655,-0.5489895007067601,0.47587272535061464,-0.0906437232722236,-0.4915394775990887,-0.9870666080127042,0.7743425303694977,0.18439079440476502,-0.19465211922732492,0.8241457174187088,0.25240648007252703,0.6507997118421611,0.6221329779802993,1.0245284648035553,-0.8764787360334926,-0.2841833882365811,0.6771733276877285,-0.6035350405567631,-0.0930772611148127,0.40881380735400946,-0.45396187609841104,-1.1337667042945705,-0.8678681918080091,0.6148551272712426,0.18926250816214346,-0.7991051570534782,0.008708161423909807,0.9194109544990645,-0.471454077828159,0.7080088722266084,0.17154401804713923,-1.01117870636724,0.20851051173949478,0.14480380349704297,-0.5112368108541109,-0.031054824514432696,0.6969705908519437,-0.24689122865680435,0.20649166082449696,1.1231936589749352,-0.4201762411687987,0.31962693250159185,-0.5802942430054915,0.9520063817144918,-0.2916843369786492,-0.061917659894186586,-0.30486273388582474,0.34977779984251756,-0.5910251504105749,-0.69559981383008,0.8598976822880776,0.18976487724979038,0.2122265948997139,-0.9592485031906713,-0.6945174146392783,0.01929397890722746,-0.8944520787049294,-0.5885934841003722,0.323054040296722,0.29354654599061686,0.7916907718276496,-0.6237282415219582,-0.4418891887736323,0.6090940135745482,0.49096464832886194,0.7722237884766403,0.02553726254405023,-0.33873378520992975,0.5979312316703679,-0.6499708653520222,0.44722375602259257,-0.14630394818978898,0.4646142796384076,0.9413154831184524,-0.9569676358697157,-0.07498056385009244,-0.050422595704370674,-0.7916277981700084,-0.7217159019280363,-0.7889228082542841,-0.5704436781779536,-0.8833442997313895,-0.008410962207229603,0.11162483703833957,0.6497982018014794,1.1692236260871374,-0.07156724203925934,0.3089039083979822,-0.5900456823280965,0.33189373851365356,-0.13662582894161462,-0.7077011897830529,0.8350434358050075,-0.6016735359205283,1.2264344620863243,-0.7363768929691954,0.8587868942905219,0.5799820789820751,0.6383250250135353,-0.31977942924840685,0.7848849485911998,1.1039288150428588,-1.051420878497571,0.6726386226512088,-0.4757599439569701,0.4683313185357385,-0.9499871909900005,0.8766469179216761,-0.07877271890736408,-0.4033478136156698,0.3152340299170124,-0.15814822139839932,-0.7302797198034869,-1.016345176914971,-0.4469413226433314,-0.3863966503548842,-0.3529662162994605,0.3871515998011944,0.852500169957903,-0.564605315587081,0.8554467230107811,-0.3079982792820407,-0.6443214698543517,0.20176148279944067,-0.05911690536343185,-0.7309292361904733,-0.37019540264257006,0.04517811739847145,0.5929943023186132,-0.8117090163499436,1.1036256003844067,0.9403684104397313,-0.6764331565091505,0.7920542474039994,-0.11806119708118673,0.46145403265464474,-0.2548969448454116,0.3067730100095528,-0.7185288696684673,0.03855803967579487,-0.5520197372404267,-0.975888391798533,-0.4918469100426911,0.48900714920234456,-0.25874751971865184,0.17957949758313704,-0.45812361102838334,-0.9172708842926868,-0.18434043118991328,-0.8488471597749313,-0.5960799902365324,-0.6262496579787752,0.07907126787059103,-0.0010897095944174236,-0.8286085945420525,-0.703010875205666,0.8163508250286886,-0.5074106044783241,0.3490213172659491,0.622748444628603,0.7759955440919367,0.7069020569879713,-0.9223379305313271,0.5951163116300209,-0.11454615813086323,0.004609613341815672,0.017301879930067442,-0.056747809295791415,0.2058184308863694,0.8161244775899991,0.31876819001049367,-0.8293565306606905,-0.4837135292045885,-0.2522440697035758,0.9293605668533379,-0.3325128771809784,0.024894152227850724,0.66811312392134,-0.7933800476581516,0.7447269396500446,0.9370098936456112,0.6239434476661966,-0.8699043053496841,0.9731353612920891,0.3089155630579217,-0.9536856561855694,0.5434694295552295,-1.0141664945414,-0.42414654435884136,0.39474562994101,0.0764726545482294,0.42831062151814064,0.8732197334636427,-0.0855708943841681,-1.1805545820958974,0.8792211728533812,1.1019340226104268,-0.6457163010262486,-0.19457621641565376,0.9661254730201817,0.5427283714453124,-0.43421909381103685,0.3254209503101043,-0.9209717373845157,-0.6659476802687341,-0.9154832823344338,0.5243068888541436,-0.7659446718410646,-0.476498751751103,0.3623258297387711,0.020831571406105153,-1.008864983923234,0.7990712637158598,1.1337103491764913,-0.22164617340442816,0.6701467940141342,-0.37305343585194434,0.5508414964003926,-0.6683284469494278,-0.0452617277166048,-0.2723803443465325,0.275496081322481,0.556426214965008,0.6427197267053417,-0.9614661364210874,0.9636332818762977,0.3541678216062515,0.407340683441015,-0.592423157285382,1.0578341353794718,-0.7870207072760721,-0.3369828651026719,-0.9641549168168956,-0.5209701043151233,0.040041269929181486,-0.5974715281352797,-0.41790450799005807,-0.7346748544191236,-0.5636168694602914,0.6097525897815343,0.3536455950745722,0.1068560969519447,-0.5356969257468168,0.22500474321747177,-1.2516314609237593,-0.7280863806107928,-0.07805506456681888,0.2977298201559103,-0.43398187911942976,0.8152238096259521,0.8812677243359079,0.15393884783986242,-0.9681526472294569,0.6601492755001571,0.7433164469244102,0.8629391935257968,-0.28680792631614604,-1.071648453098026,-0.410751818676536,-0.19265499472772651,0.5026721685722151,0.054580377388575074,-0.4477157920825699,0.16014237753096502,0.8787145774204834,0.57990011366273,0.5667788025108322,-0.18125385775728473,-0.712397446450597,0.045870663623376155,0.9854139356226118,-0.7302903732970046,0.7933087246618766,-0.31676721462033175,0.7389684503847547,-0.1442808045528041,-0.5256864223609808,0.28296413892300676,0.4534938869244798,-0.9778942435633645,1.011178403704927,-0.681918351082123,0.7483124259997146,-0.542583680770461,0.4486965664923231,0.010615174021864496,-0.6109845587738,-0.875281885201227,0.23515358869427697,-0.2645209669752771,0.4473321058987297,0.4844673539107728,0.29026934468233484,0.4816710790686107,-0.15142501598850733,-0.36945162032991,-0.880816244445006,-0.9896081998634911,-0.2591895713478948,-0.618293240099793,0.9489307002651101,-0.6767441282120679,0.6809132944422651,0.5597472197184946,0.6291012385914553,-0.04630618983096758,0.874928639683814,-0.9384845762430729,-0.6251730056083582,-0.5248668968043174,-0.2993052512042967,-0.4641097830263019,-0.38615915768697034,0.13930318679642364,-0.7633368052734252,0.8900064018815693,-0.13268102250598277,-0.6254131134915317,0.03480391313042814,0.9430778396571649,0.4880109145412874,-0.8803218935883728,-0.8761632413912253,-0.72283075032704,0.23114719486262345,0.34381426807880566,0.7100654296241768,0.3701539247140772,-0.6111372980373753,0.27524924537813933,-0.49014071612301174,-0.2572631336747333,0.7788305081829607,0.21291645880001245,-0.7788030885407293,-0.40964955241918116,-0.6377789697619359,0.4956566262285104,-1.0583184918147173,-0.39389174545259426,0.43632377333229566,-0.43869648964638036,-0.9196372785427088,-0.8378278363834443,0.49712530495764956,0.4870471519707569,-0.98609004756697,-0.7883664422739608,-0.588050976485459,0.02711327082007124,0.557187809449977,-0.8975824758944083,0.9332019545188216,0.5142067474409523,0.6236938838019085,-0.8264162333992511,-0.7823419409384773,-0.6069131854705196,0.2414848593142035,0.6036775486891024,-0.548295935085178,-0.6160893397285072,-0.767381663813148,-0.17094386757691912,1.043304405217716,0.4632723901935032,0.7736995985339958,0.2015784820360488,0.0632050355696653,-0.14971621140623617,-0.696239882675827,0.7823444944236475,-0.6855620774968709,-0.039244426489530464,-0.4517427129693928,0.7703327526201236,-1.24728256816459,0.4258629241103312,-0.47338703049788133,0.303115301087677,1.2810237792862889,-0.917922444922172,0.4094129660861019,0.48358696600664086,0.9444321629208462,-0.616003678368608,-0.1696992385083016,-0.49684223757892637,-1.009305148636298,0.575348406922346,-0.3355276154147471,-0.8676425507808727,-0.5358532309609063,-0.436476791426736,0.7501125010589841,-0.1857285664917786,0.009872047405528784,1.057041754655712,-0.3761065531852109,-0.5471541551826726,-0.004849737740223351,0.8568884104179129,-0.3842687266536789,0.5494743334522786,-0.03750333989213952,-0.8832212571494445,0.20271101330058763,-0.17957501175833246,-0.6745410226801055,0.8916359150066427,-0.11048784244201014,0.027588240863235396,-0.7334327048430435,-0.3176882481397123,-0.12070972370996608,-0.48246572816797345,0.4855174843070276,0.4142354607525374,-0.7338631875609524,0.5854132523256522,-0.6312433891683826,-0.5151076203763962,0.3669833471912005,1.099981358169445,0.4202401326720778,-0.672131469451314,-0.7831496708237656,0.328448833050942,0.06871651699685571,-0.6736390110174583,0.18027600659077161,0.12194144677327924,0.48140217219369114,-0.8731462849965091,0.5385586713980068,-0.7084271615136039,-0.19005094036233802,0.6813531877922179,-0.7294456640837713,0.3630746471358223,1.211896993677491,0.5395577998475731,-0.7026701717118518,0.07574680882237689,-0.5138290900287746,0.4700875295344544,0.5199549392816497,-0.4943751994816657,-0.9632288002387054,0.6514893467233122,-0.494437322894328,0.5406623092720488,1.3670628093541677,0.8031935109887414,0.10276643573103073,-0.5772196739431465,0.14599249449259233,-0.9939452977619886,0.020187708637602803,0.8215602189849298,-0.10529070745591049,-0.39107094377992374,0.44924832675659543,-0.5361156642552447,-1.088362677238737,0.3158810075284261,0.8205581747593998,0.9136287538439859,-0.16359982385488195,1.1232295819517681,0.8658683507799477,-0.08002633485176965,0.7688550500270236,0.6575125319334104,-0.682029652547918,0.719265078733022,-0.9130570495294112,-0.3818597763750251,-0.5006975031871891,0.18001787251571386,-0.3030531153582944,-0.02304517524375879,0.1487091227360067,0.9748473739907036,-0.03486642384572786,0.15976331778932568,0.2204455042827284,0.2682166851861547,-0.6434571700788395,0.210504824705063,0.6273019156733369,1.1159148853249998,-0.08659017763372633,0.17685950960451502,-0.5098952402055074,0.6751605102680996,0.09019210358085625,-0.7324296735643603,0.7809685657783348,0.7634076325330129,0.5330529548486587,-1.0662197678963357,0.4570724394642276,-1.0204966142356018,-0.5873435749145066,-0.23886344632007597,-0.08499095240708048,0.6040839250780032,-0.7236098152176927,-0.02571389545618558,0.1124481901374526,-0.5640299560697857,0.07462663194460654,0.678422627570673,0.8227475464869124,0.19488734178810763,0.37007136544379693,0.3623995639462706,0.5485294520986641,0.52621900918164,-0.10401939353008362,-0.6406376606867732,-1.0945179342135676,-0.6865076552793202,0.1985635467727366,0.048563712759565704,-0.8817464586623315,0.4604692582290893,0.07647062945572264,-0.0009039857208022406,0.3568617696009354,-0.8392835199122065,-0.7102679666499023,0.5631759790822377,0.34892144402514896,-0.4796638001159979,-0.7782172742528938,-0.5651617510208264,-0.18533906717024773,0.7037595835551902,-0.7486638240631537,-0.8916644441624377,0.9715778138792179,-0.9393286422258422,-0.7112123596272042,-1.073861082224793,0.22250625271325766,-0.44349209283216734,0.12271438109661711,0.49221720084386794,0.3250512178652085,1.1450032744654177,-0.1275155080185433,0.5358124755135408,0.550872614919783,0.15971403954339958,-0.11862972551502439,0.6960526170077409,-0.9587726267964638,-0.08940773370040733,0.8258739710045292,-0.9383691145722575,0.1693145218933119,-0.4722219033029551,-0.18042193673451626,-0.25610244991564907,-0.5082011761753855,0.10753395533793537,0.4722073730606917,0.6932749623328318,-0.8130134723713542,0.5889229767687979,0.47055518677424796,0.3715245453528045,0.10585754504980105,-0.05111585771096443,0.5192940736219169,-0.02954653967737059,0.11961585421747067,0.812778307256471,-0.9035969053956163,0.7408270134684297,-0.044050326157672175,-0.5954971067670557,-0.08064025094261452,-0.3384124278278861,-0.6714124630140684,-0.6261045667007223,0.010963058965703423,-0.3012094155372348,0.388433850067208,0.4770865759844511,0.09426665145903446,0.7413074245188219,0.7386742730401005,0.52836712007445,-0.44116247953969007,-0.16677589651776645,-1.084446263802523,-0.8878350846682976,-0.5486132531742277,-1.0364787891004676,-0.07310400753026859,-0.18074106612454335,-0.09928452834395633,-0.502103161959317,-0.318422481738499,-0.8973967368225223,0.29751121520631424,0.9445862917998005,0.2796325132461731,0.17614778223816285,0.4137329973959488,-0.2867524783056243,-0.23440380837559516,0.9766510387595818,-0.5472694948156981,-0.13400568528718207,0.5031168511628505,0.8416541149428383,-0.5048849815631654,0.1742162313085097,0.7283701393560315,0.4615440608230347,-0.4898637062864765,0.7441103888977233,0.0731735204269573,0.17710328510578335,-0.5098433636307987,0.1538122593552109,-0.4467228700461487,0.06163789243722421,-0.7220953820512158,0.6946536336553186,-0.3496639110654403,-0.0097757238162126,0.35751725317779887,-0.08684742746689768,-0.3836129237255669,0.10803330044640934,0.11984744655737577,-0.625025793435708,-0.3021695119609262,0.5814053774218584,0.21300721436476305,-0.7357631934398133,-0.39165235911162916,0.789733381583161,0.2929924845880637,-0.6384430960803935,0.46595395999392125,0.9028104760097071,0.35896367918935185,-0.3249070509727028,-0.28421548682467984,0.2950942495469614,0.775477233329762,-0.5007162799168462,-0.8947088921816979,0.29459420740768294,-0.05628186409695469,0.38699171756792383,0.824592997331091,-0.6584720348970079,0.862857537420352,-0.6781402047907276,-0.7048463462291993,-0.1572509488291694,0.8756868941747352,-0.6844540283733788,-0.44018242254611323,-0.603500514676381,-0.06482727960049732,0.3187354040815903,0.9999247628666239,0.4262677887041882,-0.28330050456342926,0.5810384843856179,-0.8943348832219689,0.6206101824189816,0.2443973752685273,-0.0451048347303039,0.707607694598021,-0.5131916710680625,-0.25717499859055554,0.5242593908107669,-0.8908779947323076,-0.1874690492420248,-0.7403771119224039,0.7357797395043861,0.9096916183598174,0.08503509197174863,-0.42448583544485197,-0.8695133415166065,-0.535658148302351,0.9636683865875864,0.8375984531090261,-0.7877000394944791,-0.5714806667151369,-0.23881049333556215,-0.10651271142170637,0.2527014020032068,0.8155018436968016,0.7304688337676415,0.4296022799169783,0.027220002005001742,-0.4487738666487615,-0.16876574338702066,-0.11940000504658577,0.878167968516897,0.15255432628887133,-0.9689935529179683,-0.7345250770432299,0.9133745603554846,-0.8880501281123714,-0.2694772882002443,0.57546050150202,-0.5509188074448172,-0.4431228326592813,0.5479181499144166,-0.41029499684864423,-0.07917012159950065,-0.6073939259557048,0.06628721107036717,0.8869666607735716,0.1196642874969629,0.7015271306065862,-0.562585629878136,-0.13562228198796933,-0.8876385398328683,-0.06824094320924634,0.07635294080528165,0.8411354549596346,0.14897610274527895,0.08453581755691397,-0.2767009121102608,0.7151800551777885,-0.4980679314847474,-0.6590559218748973,-0.9255130159636067,-0.6438911489245065,-0.43538862344492646,0.5647312569997125,-0.7253069661695866,0.9665501373291083,-0.5436595358159957,0.3648741681608414,-0.7197359559677861,-0.31740992470859974,0.49019168057597184,0.20643076788778814,-0.40801703287108126,-0.318502528302238,-0.5632589590549084,0.2087690497360335,-0.35090127897350754,-0.7928428538095929,0.36870042990214325,-0.5404292814621869,0.7814865990345667,0.31220814505868577,-0.3466503087478532,-0.3527565780788151,-0.3808379348305797,0.8810950261366435,-0.07477369804782619,-0.478242073402418,-0.6419170197253157,-0.6504046100649998,0.13703999283205492,0.3688202229489246,0.3927016234235936,0.49666749247351794,-0.7971903767560047,-0.7380493590930368,0.983007044153942,-0.7952240747119463,-0.21145822142896353,0.139675476580589,-0.705954800152311,0.35220018201472025,0.5014515303950986,-0.47703704950281045,-0.9121434239609103,0.3991742572196979,-0.3308516233912935,-0.4548096425843229,0.10417090516975458,-0.4675162790863421,0.05048680000675265,0.4816289027247036,-0.6590465360630275,0.6371661026029778,0.3164609238643077,-0.5391531853161384,-0.9644455894941932,-0.08371177939647834,-0.8701944390825218,0.6911964938521062,0.10355048633211084,0.8677963823748549,0.6561435574749186,-0.17658478927835164,0.01282655063087823,-0.7920496421628038,0.960177001897665,-0.6841363611471016,0.9062623741141107,0.45748318882418504,0.22142102659879637,-0.46245683487220957,-0.5334730657587663,-0.16208981927069788,0.12465125376069075,0.8322159332488523,0.3155264640785165,-0.4093787900686039,-0.6139251483461337,-0.9601683082309911,0.08131451718041571,0.4793795780439245,0.6633185851932577,0.9246195155711301,-0.5888555192179061,0.31094442112924714,-0.38737548416644896,-0.720635026996012,-0.4593942204379162,0.2626100195476877,-0.9687133747129768,-0.7750950246809871,0.601335319382408,0.8830729001432229,0.7815541316446388,-0.9168146896125016,-0.6960173321803558,0.3474859116662758,0.12934668303677493,0.5622023316999958,-0.22402984635740855,-0.8842336782320517,0.5676229653890568,-0.14701323383180476,0.6863272670015688,0.7869448346837947,-0.2802204512144801,-0.5624514409953063,0.1755205920034882,-0.46400323535605215,-0.9589802625683708,-0.31291843444419043,-0.1172947806720416,-0.7661381400162619,0.3610681930331928,-0.9075506709545929,-0.5148860742444146,-0.28528358437007656,0.12671008038451587,0.8634327653566408,0.07853066700289163,-0.10731306231476893,0.46600555619526585,0.4670618516240756,0.6916335626276888,-0.9223923426694268,-0.9116232189070432,0.21918975263583731,-0.3421283330167271,0.4237291797249882,-0.22545012276479948,-0.3665782262037778,-0.36520830737309895,0.09171496437450063,0.5506457978829054,0.28845540886753385,0.011876172310831603,0.5102083640231931,-0.923005401410589,-0.9154999646970545,0.2123207182017042,-0.44019803809779734,-0.5319838966148488,-0.24869762156454414,0.9487215520287586,0.43459848345311475,0.977110215015335,-0.5511140825705776,0.6498391337880798,0.45361577062761993,0.05892854871446601,-0.5615422630617511,-0.4751875641101021,-0.6110778556422014,-0.752698350517439,0.48594528987803454,-0.5256188887870937,0.7807416941935862,-0.4640648010828539,-0.8631345294819881,-0.2889527273331656,0.9138066102904266,0.1358181538522914,0.7474441633313142,-0.10449099471082772,-0.49657800272329194,-0.7519330224974394,-0.9644552774260418,0.4440035584874509,-0.4977049526055718,0.3777365572837455,0.28420551916219405,0.3700991989467461,0.9415552736400352,0.4018140654681039,0.9637744324581341,0.019849055023776666,0.23857050522531936,0.8855280295268143,0.31866166209288854,-0.7667344262386312,0.32260433015986145,0.20692312441366353,-0.0006681675045465645,-0.33266403553657853,-0.2644979234675857,0.6609694491431845,0.09216133031898094,-0.28679148207738886,-0.5732069250907206,-0.31310338073555755,0.5929345929428371,0.051091959000699086,0.5099784297760662,0.5264984736485989,0.8291272077446644,-0.6790573215667154,-0.05570519181908963,-1.2046933666054473,-0.6515406569163809,0.9554840889957072,0.4599924538932836,0.34547674848081694,-0.09530198607460658,0.5860097306393468,-0.6858793715124527,0.8675643068392813,-0.39750763360234004,0.6749903072845158,-0.26483241249391193,-0.3848206579360834,0.23552031741427285,-0.6924809597781123,-0.23905450165222378,-0.12962961596185,0.5044750121673496,0.06548108710301002,-0.23065734461156776,0.3408444741290944,0.6988310493239175,0.2591481618920408,-0.8950435393944068,-0.8982189949618481,-0.3415902052350436,0.5332957460554004,-0.08698548091755844,-0.8273343917338299,0.5376706237271182,0.13991790382912492,0.4734276374067066,-0.6610253068220331,-0.38868898277739833,-0.6972376101348511,-0.4598349265251042,-0.6233446718977849,-0.8708098663750073,0.6410944381880305,-0.1626138996326274,-0.598103178386636,-0.43030219684130316,0.4575559314492717,1.1621666618392892,-0.09008973323210161,0.4522625089575803,0.7960748226390673,-0.3531888916060801,0.40809109754761874,-0.7649855394213374,0.23114509738753752,0.17626205266585088,0.7035699896056054,0.8286643202935162,0.1791192979431013,-0.1710494252540906,-0.6957722952117779,0.3250176966965125,0.5180770465924415,-0.9401298253019542,0.20736627162255203,-0.30871019568526836,-0.49639586145276615,0.8858315517178232,0.006934391014418443,0.8580408255749356,0.6389549517586512,-0.7666645360414169,0.32718158196049413,0.09206893676585524,0.10734985931803377,0.7395217568534038,0.145502374154224,0.06917432220953913,-0.8507990849926675,-0.5673681486953169,-0.6374425190834233,-0.3516345819034962,0.02780243888559116,0.2565048400336359,0.7871050803861154,0.9160308781161937,-0.5980348206947814,-0.7472644320151736,-1.1836480386490384,-0.194570186736734,0.324660314529566,-0.408829191045035,0.1252778839486424,-0.7071715710304673,0.8381470082045268,1.143068871157969,0.207797603076136,-0.6869360578634602,-0.4056315402307031,0.1612174713968203,0.30078777501307813,0.31055689158221383,-0.37028644463015015,0.771169744901172,-0.454177796044629,0.16363060164849363,0.525435125776384,-0.7890965490761118,-0.552781269069713,0.7299510790936743,-0.5667894058880449,0.1559235754789907,1.275791376992783,0.8989204187046455,-0.45021918146344525,-0.7735334839786292,0.03614893091969751,0.14640031100125983,-0.9401102492135389,-0.44272911268367615,0.7057626908425937,0.4621670698159076,0.8949239514380835,-0.5285193083303688,0.3751475497008832,-0.4515414428383241,-0.5791370550689962,0.37779108332582284,-0.24412573182876274,-0.42865049652067994,-0.7145417431794037,-0.9828634566781158,-0.703481498784476,0.6662399726211082,-0.11545606186758507,-0.5259813767878184,-0.2948950131214084,0.28690417282278297,0.3290555804801738,-0.6476646919707661,-0.8105433105366248,-0.3227892452223555,0.6899507215691115,0.6677692421696818,0.278623871419187,0.5397029050627715,-0.1982898735122011,-0.7720488408843561,0.4888005600647588,-0.11307828485766885,1.2487344565374234,0.8655285837795731,-0.25205154056298806,-0.7334392776960047,0.4583524164982476,-0.6836652858647057,-0.20196327320471852,0.9490677895904885,-0.2101513388499865,-0.047957622769064095,0.7192620630822074,-1.0166481594163728,0.9329901057617725,0.9976161654212794,0.24678970410157067,-0.5642035666667301,-0.025470092628092834,-0.3212799638200221,-0.5791357808943055,-0.7244529506088474,-0.0003055254944185017,0.5966071239845114,0.7994115828142612,0.5475578708912562,-0.07529617435063933,0.7286412865438704,0.6139790685644486,-0.703194073354599,0.03222030343079956,0.9724970956966533,-0.11005994475206418,-0.5871913941702679,0.5508260091844919,-0.7304249063753793,-0.22128699925747766,-0.110096875050195,0.8360120252203289,0.39676527448884935,-0.5422531272997803,-0.6235406069780489,0.15773576572747028,0.6288856210404024,0.87225822540419,-0.034447276567858585,-0.9436832194648652,0.3746803089401072,1.0333575423982948,0.713351074370278,-0.6521318755374914,0.4308605190478647,0.4409418888777706,0.8705772550181432,0.49518568671552615,0.6386279627906563,-0.5032307729537199,0.006876055410460002,-0.27677654458089235,0.21595377952483608,-1.0025631243838422,0.491416703742098,0.5057232784536059,-0.6699083039345101,0.41073449880845164,-0.8237735108571657,0.4482842170314647,-0.32089791822412883,-0.8976066467646705,-0.39839362836663944,0.8015672804704734,-0.27155124223552496,0.7199588668482091,-0.4264554059369475,0.5637510870148994,-0.722572206394579,-0.5154219770591817,1.088535990135543,-0.37022592365097756,0.022224788178504293,0.3498032005699293,0.3610579046585828,-0.211156423270979,0.45832843900485937,-0.02984144202261238,-1.004295691023911,-0.5355168772538997,-0.5655781005422734,0.3454589937373186,0.7846882811109538,-0.9191227528552447,0.7413975831970162,-0.551782192958392,-0.26341279153354097,0.9811418525711347,0.4498328103991857,-0.17760359097528944,0.489019174135757,-0.6833906845125284,-0.7148489338734377,-0.3259381151401795,0.2779009365152282,-0.023109827074407868,-0.7091998280441099,-0.1974487549547013,-0.7597009798683533,0.6201562692302318,1.0608150869488777,0.5259245311832433,-0.2595275509360625,0.5384232112455805,0.07886646702352687,-0.1600111547532476,0.05181466097912693,0.6718944332570198,-0.13347433072099324,-0.9349560400384012,-0.5673284493634896,0.7477751922028116,-0.4833469977174627,-0.18597326883907123,-0.24924408259992312,0.30567704207329166,0.03527935407823574,0.8960103661475798,0.05194985028732752,0.6777536339170757,-0.24200447945786455,0.9254533261379152,-0.3108455426639289,-0.7822664011460841,0.6931638485125821,0.8835184557454081,-0.2516265869761467,0.9485328031117538,0.4470728012183855,-0.5641743077807833,-0.26035725412245775,0.8581160164714499,-0.6637640990037188,-1.1410539681601828,0.7280645485366863,-0.6647008097068331,0.9474335612383525,-0.39871449482460897,-0.31218019968006944,0.2402284125694724,-0.8552997267522835,-0.520131739544868,-0.7660942919667748,0.7084647707815089,0.6852335785516116,-1.0330253671098406,0.18382508252313257,0.09203545176309771,0.37486309053073774,0.5208019480115382,-1.1608148775369782,-0.0796494235073074,-0.8325318986419437,-0.5267550561500562,-0.9519042158884816,0.16367708153970842,-0.7143885203057075,-0.5519214731789427,0.24983222262277577,0.5340840572004774,-0.12487404284410732,0.17958652874428213,-0.10821797791427545,0.40979719121933833,0.5062896327238116,-0.15499773500995154,0.16688559572178238,-0.26916713786898017,-0.07937835695942458,0.16438584343706628,-0.11613782660089708,0.37818410841731076,-0.0728076761755641,-0.7298367910467166,0.006660181212685961,-0.5143239458462824,0.9538007522389736,-0.9209068498260118,1.0395834436698816,0.6212140860279686,0.5089925994037012,0.013848668502440074,0.615931525815482,0.3628932020657435,0.8371241120715485,-0.40335331172559835,-0.47543372090553115,0.9674387024180046,0.272140744111232,-0.44237294172649816,-0.5453270683857726,0.3476410645080583,0.22719124730807475,-0.3143977742530484,-0.3842817696019147,-0.17047683839163205,0.18904484108473485,0.7972488931738569,-0.8228737076570307,0.8999404438721046,0.6468728096386017,0.04317148401043686,0.836978691017848,0.33646549986849683,-0.7498771728903841,-0.36980428087920697,0.14217179562858268,-0.5749130407895677,-0.26895250759689415,0.31963313055653203,0.12123921327476521,0.1195097378494661,0.1949686534697208,-1.2377180876052063,-0.2629969321010905,0.8479649906027008,-0.5828349188583779,0.2147917674602045,0.7912686838994604,-1.0375064842796067,-0.10946997680735572,0.24393604055720847,-0.38623969683095233,-0.9014909103615153,0.25660363336691894,-1.0046214425679232,0.6553384475916453,1.1193501675066415,-0.11344186903768089,-1.0364320451134827,0.7234173447301777,-0.5093707807009465,0.7785147448237985,-1.2263127476019906,0.1896598530375314,0.5621971310212186,1.3596438696626192,-0.7166676106465522,-0.4468922217411204,0.18776451593282412,0.5578127773365256,0.6042290257045823,-0.28529022872791926,0.4502946260150457,0.30202811649209965,0.3182061545392796,0.08959917335209569,-0.12258633785625331,0.02526503985445314,0.3703018961211928,0.038450733388337044,-0.3340690040693489,-0.6546440952815379,-0.6127363280602706,0.4372138188165591,-1.1156937870053498,0.7960840527075912,0.7098581794138881,-0.6226145799401592,-0.4025271663998729,0.826773990302196,0.4870151734833839,-0.7125418135760055,-1.075856684268187,0.44162309702197283,-0.23704349825723386,0.43647728057299284,-0.07784755584527432,1.0874263218994311,-0.15146835694480396,-0.4705424810097283,0.624233413311228,-0.8811086886165791,0.8641776436791176,-0.8512089027107215,-0.4064206116910258,-0.9955399073493063,-0.17624430665733992,0.3601144343147284,-0.9024328257683796,-0.9339656429466363,0.4111462358113742,0.4700623770787464,-0.5888497650086612,0.8306599130017758,-0.6387930996084905,-0.26267501673270005,0.5055070962385526,-0.39496048817195306,0.423527804623089,-0.15216613407375718,-0.488765001509819,-0.06793246147458247,-0.6990383565649286,0.6096307775692231,-0.3503988840004605,0.46794875328661145,-0.3472314287892667,0.1442850867375294,-0.40638166130872894,-0.36927038167255166,0.0392033370848905,-0.13009359194551234,0.3967331738894767,-0.34053864094404096,-0.035473943174234246,-0.657317199227633,-0.08256122508569462,-1.0436558100810531,-0.7996125371372665,-0.7467918520786455,-0.27829342606722635,-0.12724325669810382,-0.0619090495645661,-0.4298164112568082,-0.10855433882463965,0.28076861044182755,-0.35305888694684806,-0.33348611410652035,-0.8241233399622847,-0.6163794865470658,0.5697760949415873,0.8525046726948595,-0.44890756602895443,0.336453991337569,0.19872951581144066,1.1160095803734165,0.45881862011681696,0.2681778795140439,-0.23805247100759078,-0.4955193337616539,-0.3106804558652004,-0.15526531673161653,-0.39726502743228626,0.3499843991761789,0.5684672920269508,0.03345254038070807,-1.0183283349904082,-0.9349108696659163,0.14510360970409722,-0.47860903409949035,0.2637969207207039,0.3958168243607853,-0.4909167011411057,0.08894271315296325,-0.2573647807086163,-0.33623128889446713,1.059822506291492,-0.3752786063895273,0.16407606993824822,-1.1635305735089823,-0.9310290608852537,0.24772814170211502,-0.4125333417184905,-0.01995296397965176,0.25383850980765627,-0.9596179700957777,-0.32096045213682234,-0.12844200259807192,0.882685914733579,-0.35135887111276515,1.1977686170564663,0.4019755773644001,0.6771406455150581,0.5750193301482637,-0.6422306135203162,0.5431101216585839,0.7703886840424213,-0.5813817046148727,-0.6036588373574431,-0.8353603561368204,1.0864243501672797,0.4242655191303587,-0.2629610339811742,-0.08512681688532975,0.38920640098895587,0.3927811562681178,-0.19338538383727474,0.6917826463867517,-0.000941451564974984,0.39253435198680225,0.46614983273016314,-0.5539362899058115,0.1516092844431685,0.021286377853507496,0.7855218672120787,-0.8899789805917787,-0.4996072242361073,-1.037509077388211,-0.262652693297173,1.0149926234773408,-0.07020885272548823,0.18287018553714465,0.6202922934329843,0.10527121213882237,0.37293778543446454,0.7856520970777231,0.13084908629016131,0.6580730224123984,0.6122084745228962,0.6918040486354806,0.18633124892259803,0.17914197066009988,0.503289600174836,-0.4309612176526362,-0.0019733988978095046,0.7868272769937442,0.32914149180414254,0.8339423044191979,0.4995945450313464,-0.4023013579675605,0.05433392109943821,0.9263587435481602,-0.16881560725162972,0.07982924397760159,-0.49037721657612987,0.842102777046529,0.06885729558077285,0.28982196424588735,0.26455168113819083,0.594816854120387,0.506243008696672,-0.4759601354358912,-0.007920000040620472,0.39995048167610886,0.8008068590991789,-0.4863910711610114,0.8263126172286762,-0.34926521431125496,-0.8777960560307133,0.8684999569427126,0.8592176638120623,-0.08190680730051536,0.41741978437779853,-0.3546725544826509,-0.6976518196213235,0.05422022437793036,-0.9605368713666921,-0.713046797225191,0.8534644307798448,-0.20044268312488556,-0.26523048114767417,0.8315964400960854,-0.5506696613141269,0.9789358369475036,-0.13027475648582676,0.48452911800526893,-1.1423807105916812,0.19049833776846342,0.18339944747245965,0.020976541132547433,-0.7386236746973448,-0.1645670903641437,-0.7585784762169242,-0.45961460362069834,0.7304694553061165,0.41526617155998213,-0.04979090144840574,-0.43521119771747235,-0.4052166978075786,0.3570415683881989,-0.34478722712231274,-0.2963668045150533,-0.34832652449674084,-0.09695380268849652,-0.03245715085359004,0.5864332754672184,0.6923317370626113,0.6403039211546027,-0.21712463031477355,0.4242280156630214,-0.8685492168277048,0.9774224387635218,0.14954623231153782,-0.8394637786733049,-0.32619749942893905,0.799682983147875,0.7462835871416209,0.3775620611988648,-0.7212260717179263,0.6433604244883302,-0.22780788832397228,-0.01942541307894986,0.6275385687112182,-0.708835810230123,0.10219466568132579,0.013915420708590665,-0.26608599849280024,-0.5690141852800753,0.5778081703327164,0.7988976676235265,-0.23467654659511203,-0.8807138846875797,-0.013863534537671963,-0.6025680311088449,0.7563917647691978,-0.3611181235308375,-0.6330498192194676,-0.5038451206487367,-0.019389112574026517,-0.6623023668507901,0.981953945950915,0.9071475342411834,-0.844612800585998,1.000186976417923,0.0692524742943637,-0.3852578317550375,-0.32031448987392425,0.09878034369898085,-0.7535345567844455,-0.4351655923872082,0.9141332867028512,-0.7854072794351168,-0.13561197004687764,-0.2528665747772446,-0.7445101505659996,0.9694209190379083,0.7016800581187196,-0.509770387342316,0.2764645834680356,-0.2504521560504009,-0.21300574625356888,-0.06466311779022205,0.8908690516560437,0.32326490588010154,-0.8879378312659261,-0.17661389006307154,-0.8463252518405087,-0.7676990296729554,0.0023427178161027347,0.812346886468959,-0.8442578741916058,-0.3511000615015194,0.3701278905447054,-0.6389319111184566,0.9149019313249587,0.29201345898739745,-0.44372394140313276,0.6018542019882183,-0.6860814216905055,-0.6176309177317025,-0.285635083131414,0.22432748417028225,-0.7113466171495915,-0.8185657756240349,0.5895051620543564,-0.7455677619139714,0.5987157817023008,-0.3553180144035794,-0.97716975458385,0.7552146457156447,-0.682281190855914,-0.018095132627042435,-0.6383104637272443,-0.08324463303116661,-0.42406056037725215,0.9000215822411788,-0.17566472550824522,0.23345610608295364,0.0972837594489675,0.24603760056504398,-0.3654872094785029,-0.18360207172984944,-0.5409646614811527,-0.2772757825959009,0.8480999189172103,-0.9801426030392151,0.921690410397598,-0.015041402018387773,0.09079512194039041,-0.6217405875717719,-0.3583437983823947,0.03832531456695021,-0.3683826385708131,0.15359490587796198,0.6560705451235924,-0.7729163277955979,-0.360352652579663,0.0941941462369067,-0.5556190189325334,0.6711034372165186,0.8345445942962586,0.48845258115631873,0.18991592454061212,0.089341080049254,-0.2125529499759442,-0.9847015045276801,-0.7362664536525096,0.568284376761272,0.849080661368379,-0.9101365246356261,0.6124922019269883,0.0754240315188861,0.6874521832817475,0.5106742022909259,-0.03589511809108825,-0.839431861964733,0.5097288754544866,0.6454038320649444,-0.8769768102685305,-0.6474622908023795,0.28841678601967424,-0.2231360223591714,-0.4956634098213406,-0.9770688628676252,-0.321582709193339,0.5688791370933175,-0.7365496290779507,0.3690848703508136,0.3895147397671812,-0.09146933144927516,0.4877923151104935,0.574144751992131,-0.8411266961818376,0.9284308154547882,-0.33062497016981096,0.33762288989651035,0.4157092457032914,-0.7841772636529616,-0.849788555167069,-0.9779540340499739,0.06765548548900546,-0.040392413718906006,0.5777049038722979,0.29870848488342894,0.8792801451778869,0.9113835329775712,-0.4550557286578927,-0.22432510699085628,0.19898156450254145,0.5699322941632812,0.4165748850287976,0.8842032957397641,-0.9256656811318016,0.2365006417611657,0.24074024065006316,0.7278510333628585,0.09758940897228863,-0.10769530774000668,-0.2650218038971819,-0.6147646296696914,-0.0442696751494851,0.18907192912769943,-0.191491396719091,0.13993295602884204,-0.14918521044117083,-0.6918832057127122,-0.598528964181555,-0.14782093590418754,0.7522651963721714,0.5196884665618777,-0.8903634333621511,-0.6147690324550013,0.4281700933819883,-0.8665400836782979,-0.8357390315028237,0.8368080971683136,-0.13800264564249765,0.6219113604223023,-0.536771073671148,0.22872145644877073,-0.16045458431336512,-0.30712598775060274,0.4998368300701246,0.7689413845944351,-0.7062028334213148,0.00035140489161156196,0.4660854049615648,0.022513206651288087,-0.29193443663851926,0.06481619159919916,-0.2452748192325176,0.6477118602759144,0.4658600487591553,-0.842792433787088,-0.35755837597036844,-0.3611932876367223,0.0072821475454947215,-0.07971393908960422,-0.7305757882190528,-0.6963610736324046,-0.6238435459965298,-0.007960500662253855,-0.6471799324404655,-0.9189505586220963,-0.9750155226818218,0.35456559405532984,0.5210290814589774,0.5739828595215125,-0.017937426558454667,-0.31498223477371146,0.94830177002007,0.08194005163305995,-0.9686828776242835,-0.00022791973518993325,-0.5535860776651761,0.7952325882749441,-0.010817764421158503,-0.16338955337252165,-0.6361201384662217,0.9640283912844542,-0.9478611704323648,-0.530358528194791,0.6735179007791507,-0.6540503695903775,0.19757954394855395,0.10034186171995553,0.6604466264209026,0.16887993476912647,0.08495171153923317,-1.0309976027161005,-0.9093651911602909,-0.29898832970048866,0.4710365404856175,0.37979330574402154,0.5442488053691644,-0.1473656079799089,-0.8411251009943405,0.1236189536467474,0.8649762306050073,0.6904832996076667,-0.6502704948422726,-0.3488394800585587,0.2395254907682428,-0.8069412303387311,-0.8184065038193703,0.7478249546272125,0.09211865091697846,-0.5374793345217622,0.789812831115543,0.49469391492787557,-0.6429471406954153,-0.4987200802369268,0.010746066592183464,-0.6184930813655565,-0.5911256329817389,-0.8039908457510485,-0.9193083488767521,-0.947957299567601,0.26533678196097643,-0.4807001077484918,-0.06064353272908489,-0.6717449678650145,-0.39838344705627626,0.8602135775191894,-0.6482527098463855,-0.7019167198146761,-0.2020322500244811,0.9038730212891387,-1.1488143102135635,-0.4444576709650779,0.9552100394495713,-0.6867592160000315,0.5644391184017049,-0.7946593284150351,0.010105782707319226,0.6684823709130829,0.7914088649791635,-0.8898575401710392,-0.03856429345973289,-0.7631100033587921,0.39019680187982186,0.41620192570053677,0.737662912500496,0.5964586369223474,0.35272010339327625,0.39872544976924285,-0.749991896658883,0.2277933103083347,-0.4250323853034819,-0.6159236161633713,0.026724253626543217,0.6555467384693991,1.0330202790340846,-0.29391997929970554,-0.3240296480483106,0.7069136398328832,0.6397254299540303,-0.29594658128495277,-0.9532351409229411,0.23580491972137016,-0.44437316535403815,-0.08418704771195905,-0.567994628282996,-0.5635584244710352,0.8232766714775367,-0.9713751046576113,0.7173092386517211,1.042055048130565,0.5361574763405053,-0.06276302207477805,-0.06506197296807689,-0.97015954014374,-0.7832442341720927,-0.168716497585246,-0.9399987472442747,-0.44704939829214285,-0.6190603808658154,-0.19161996095347625,-0.06758980936672872,-0.3400444673355397,0.5207228835667438,0.1818215482504512,-0.5918791086722942,0.14034993611900226,0.9318152662317365,-0.2393520986687958,0.3279212150309125,-0.7901693729028463,0.8680936675948695,0.3790160203502779,-0.43398172137036917,-0.9788751473830078,0.11834529775007525,0.46228266776098387,-0.2604796842247923,0.6519993489689024,0.5697413721878372,0.15936450630767407,0.8820692755009292,0.4093333844158208,-0.014633125930491576,-0.6422216605688131,-0.6774476407124096,0.061919345725264974,0.39538863517079187,0.060566806034133606,1.1080146543983826,-0.5188416824657728,-0.4036840884952204,0.7048529616620672,0.3028504959252902,0.633544428195814,-0.43442825218215936,0.5230436478949696,0.14770046005170634,0.6661152520051768,-0.6612408982841906,0.11127504268755255,-1.028336151328851,0.4972390665339078,-0.05636180941898313,-0.8122373604398168,0.32257143260437504,-0.7258160785653,0.9861480081215113,-1.3760114194329909,-0.5225469088411695,0.8674802836117063,0.6165764266954763,-0.8709690971088859,-0.8906302785344364,0.3580835102990099,-0.25071069341347735,-0.9242523421798764,-0.6100365390522826,-0.44725707012519006,1.314812653107345,0.06464486605873969,0.3277742322927817,0.10022140646018621,1.0918731391493508,0.09288884575917224,-1.195514735199508,1.1044583486716681,0.9551466584099847,-0.006476097672140311,0.7592173053327768,0.2139335233174355,-0.6967095014097332,0.3666807862818741,0.05708204845221442,0.7485549090672077,0.19343199099323977,0.018117426686556755,0.2348673937486128,0.2167266869532527,0.5592080788742186,-0.21941243444868233,0.2483889804677969,0.973950434287319,1.0972798746744128,0.6100202369164016,-0.7106229359643277,-0.04544242640185016,-0.1055923591204064,0.8272925970834263,-0.28473032387006275,0.28274930125636905,-0.8545328077193541,-0.4745352803201897,0.24697914874197005,0.2640850651867765,-0.3519311126476533,-0.7394022547917629,-0.20045627351771284,0.10622462642720183,-0.015964839921307348,-0.6811178228276427,-0.03468903385883671,0.010867736603442472,0.18225169166990748,-0.6504311859689773,0.8593458847586805,-0.7828333149111911,0.8003308169284228,0.41009466653925275,-0.5818565855490886,0.30079978958693465,-0.760284763296655,0.001769035877312448,-0.22247223464040952,-0.8917425719589624,0.5337173919552277,-0.024494566942290023,-1.0174090025143245,-0.011504379088835026,0.08910124883181093,-0.42933102264083756,0.015619812609760175,-0.6729621919482034,0.4865056601033745,-0.6960920090234805,-0.46057178166019486,0.3818906517465242,0.9478109050690021,-0.7648967028845582,-0.8313897448869224,-0.5849944495452607,-1.2275047706218298,-0.32906239089969763,-0.80586882639358,0.49784609835416593,-0.34625143474400144,0.6159091366041775,0.8668526546625082,0.4500105662366428,-0.7519453970581665,-0.16449900151989352,0.4511542982840732,0.5504728459001298,-0.5865816708040403,0.1271266853990275,0.39150336451990003,0.6093242115922735,0.005584593758514655,0.045448880995041685,-0.6287476038358836,0.33502312462961564,-0.6662431301784507,0.1769442886886316,-0.6161556222995858,-0.12879836758726199,-0.7703227623146436,-0.7510675874787814,1.6744955383088551,-0.5323613256867408,0.0779182336877618,0.5148880987545288,0.0255346821505123,0.3434213020748663,0.5571191912383245,0.2952367676062899,0.7016580649004409,0.34892635289994295,-0.8437384249153322,0.33918411924147934,-0.27946785574043537,0.6723725706921121,0.8086926926876065,-0.47482328570287186,0.5859500129170617,0.24315766937188077,-0.8264309402408704,0.1843190208682932,-0.7230451958568247,-0.8778578743205152,-0.08570704086360473,-0.08006573659642738,0.8309533732688409,-0.5810550486506754,0.6293804149669511,1.0734359582751674,-0.04749980008969739,-0.010376299022783277,0.6442845810706022,-0.8677267719167898,-0.6371901436493395,0.5062763960775846,0.4227684842590798,0.3553281502784307,-0.09769632542776736,-0.7171275482980497,-0.049287342835797075,0.9533275468076193,0.7938052545216813,-0.5729106422830198,0.1857936798830656,0.14890212588198132,0.8205762118002441,0.6767115578067519,0.6743576501042505,0.21389442382314047,-0.39403558258754845,-0.8505247782387485,-0.6014088033592156,-0.23410997042604106,1.0046151922863455,0.002579712759991467,0.044607174961826764,-0.08666986951212848,-0.570133906717618,-0.6093523421349415,0.1641233220383316,0.13708093369541316,1.0574132413060786,-0.8788762946782168,-0.020733711458390945,-0.29987994692006614,0.3827856728173962,0.6835492393134805,0.22299845345449235,0.8167327446339188,0.431249559683394,-0.010805606334865782,0.3252582367017188,-0.6700465558047957,-0.3904270286029258,-0.2723187013379876,0.42963741294966756,0.2762220840389395,-0.5988444735478242,-0.9922391150133576,-0.1847374323527604,0.9667762775892544,-0.5697440564154657,-0.6785291214320086,0.903506859436465,-0.6279468532889033,-0.5759593282209278,-0.5001950301487166,0.626444012805556,0.7101301173680571,0.45789776284128686,0.7694379605908084,0.9966160722084346,0.24646377640907677,-0.01627421688622935,0.070158216266878,0.6193109007268914,0.38013830611928673,0.26248909252550967,0.9752955729847784,-0.2575062223623154,-0.9050539388925312,0.5254422111955581,-0.524781244538325,0.7153775000508207,-0.7120419157422688,-0.031836673276406685,-0.05830850753604716,-0.37998385018562875,0.7731641344105761,-1.3395394388034767,-0.5402163887423597,-0.014392906551985898,0.74565464907323,-0.14183575335627713,-0.2627649750121032,0.5526273784082844,0.530924639446159,1.0531249403237193,-0.35068000997321047,0.18328062254092978,0.38023948766002613,-0.18770248116367036,0.5703663331470543,0.3885595874078923,-0.6083714533693989,-0.3069005650135505,-0.9386981461018531,0.600297298038342,-0.2631785930490008,0.7670680880856952,-1.1188049937003484,1.000545098432973,0.20425633494249937,0.4638229494802729,-0.3205225765897354,-0.23799653360287912,-0.5568225113952799,-0.625818254382575,0.6619108416705387,-1.110699280364393,-0.6477457350696989,0.33904596178678686,0.02370522669515057,0.05418377267463438,0.061064504066474457,0.22991861134968702,0.06745125802700118,-0.6884369706153384,0.3165605927616527,-0.8894812416882567,0.5010180065069957,0.30069370617691316,-1.234340740469504,0.7468350187310608,-0.36210098041454813,-0.3240922994959109,0.022019403379054975,0.2918802057777049,0.5735185127640675,0.49583756280558317,-0.6835072495152449,-0.3301541175217595,-0.5141082899648948,0.6981671989311982,-0.2511678797717728,-0.8102359810115112,0.10562602938358841,1.1216316314133918,0.6484764147673072,-0.08705396889331733,-1.0135380666548939,-1.0859499992219546,-0.17753015741920197,-0.15845714632442393,0.6311559473053576,0.08907401833487542,0.1359506002450972,1.0348577840930624,0.3185184933266731,0.3040084759495841,0.02849021571220305,-0.14167987188710116,-0.4840567564830236,0.46686108215276956,-0.10533164304281341,0.613796163231966,0.5617993827193318,0.30290512538453934,0.5800490006295185,0.8163686786017426,-0.20351489806422238,0.2759403501817164,-1.0588317657940254,-0.7770253605653029,0.7939095172820718,-1.0015448983781268,0.43639911334642933,0.37773711606211463,-0.5666373861112886,-0.398456977961383,0.8754716529561112,0.22529361679401588,-0.1713358135087663,-0.5481908518164701,-0.34170484842089377,-0.6332598088946934,-0.8414293125264528,-0.26652387745889555,-0.17173312010776343,0.29907309094845563,-0.17454869057910127,0.9930581363383579,0.5710709041272688,-0.2369431997850724,0.9184826481816661,0.5483207711922444,-0.20641709917694048,-0.6608618216513897,-0.14342016417967973,0.01807348861090481,0.19274871963412715,0.9498900501999662,-1.1552784033342127,0.5363903600687439,0.7164823086319381,-1.2103978984100612,-1.000470664205635,1.3815675865389563,0.3972275694955658,0.3631842799408858,-0.11154736895889043,0.39147947147739826,0.03228727418459601,1.1201999642921108,-0.4481167194062079,0.3800643937144764,0.14432354836665634,-0.06856374894615185,-0.334190100386917,-0.1696523198584141,-0.820732197847657,0.016672211530370858,0.5669062060614348,-0.44777803125712706,-0.1650169547154009,0.630075218182963,-0.49204068309672283,-0.8097172609922673,-0.3945965850377216,0.8128734634141868,0.440327742888284,-0.009686904652839484,-1.0394952118553231,0.5021051076990056,-1.0990678601996575,-0.07751420564836443,0.44820750891825656,0.6049961536314857,0.8565472636563657,0.10357111037087081,0.6046736720832155,0.16789282700084474,-0.2915355643517552,1.0702308876040578,-0.7038315001451328,-0.33892912845640766,0.19195807035296705,0.5174503178714288,-0.7309804793476793,0.29762509355984457,-0.15649721032290698,-0.693760878978476,-0.9297707618810449,0.24936266314436567,0.9077319853573013,-0.32941208753678414,0.3619632989427642,0.5460492217869217,-0.3449084395289183,-1.0425026982375856,0.45170285820180833,-0.8022330895101759,0.2780409892660337,0.2978259861011037,-0.6398192947056871,-1.2066630352157837,-0.6102424336374916,0.4712531137204573,-0.6521949356229615,-0.13911434544610832,0.9322748096532054,-0.8850155709759203,0.9720218651809487,0.6742557308172217,0.9745104454051132,-0.8656686209023384,-0.6025950389676122,0.11223820593525129,0.597841982917931,-0.855171893623284,0.49162822915683463,0.7499960200866124,0.8048486971675097,-0.5987243651389736,-0.9992814182156734,0.8460939167251315,-0.9118253166121889,0.16049124618080157,0.6842823018775435,-0.43743815249983453,0.3289168888002938,-0.11436421735850641,-1.1016649348831264,-0.07422548017822894,0.6295978971665395,-0.8277576543580215,0.5480818500155674,0.2698627497875902,-0.2864627565221384,-0.8740920420878833,0.36736849161908774,0.3818959312988412,-0.7875069785494574,1.1547905420993707,-0.5406127258051857,-0.12591261580966281,0.40688228412443633,-0.2631042957093643,-0.09749244683133965,0.40237480385905333,0.27598512819253024,-0.7158123948617826,-0.49742319702761867,0.1356712330952686,0.29555161287744997,0.841169568316056,-0.47116935222744655,0.3107510658088414,0.20632479655014596,-0.8638669637615856,0.5082179190658997,0.7844805574993771,-0.4887616485124757,0.38397242503675894,0.8097623138241639,-0.26979202559088217,0.6496449806902979,0.6307158587161551,-0.17013702366494501,-0.9520497875893649,-0.7438500039057682,-0.33673503065484095,0.6166908633320962,-0.2929771682712314,0.7369362676863473,0.37072603305981827,0.5472117157686281,-0.20603188827188204,0.18759667645901534,-0.7534418154786405,1.154062770920955,-0.2738529442546454,0.12557573799256144,0.14205068047253624,-0.5812626516183262,-0.7923178883066969,0.7732574061686612,-0.02550187015180621,-0.33025101194114276,0.5075135912669815,-0.5536268055510167,-0.5616077433416121,0.32020445226292477,-0.7132106345771122,-0.7341334600090128,0.37380765392931853,-0.212038421603817,-0.7929589200338332,0.7006007468251727,-0.324104268550943,-0.09031572782497008,0.5547496892788786,1.0153678849202166,0.8594823866916209,-0.24732068585471603,-0.6736402330370164,-0.6457453871583654,-0.9659313196189534,0.43171069697115394,-0.08807013708532391,-0.342151581118207,-0.3247503174560891,0.0015701851945171715,-0.16737354844388605,0.36181600516277806,-0.44919266869815483,-0.10295411322248503,1.043935704659503,-0.14553530541622936,0.8222557246380415,-1.1045744382559906,-0.12097516945310935,-0.20795857010791477,-0.8027603586267418,-1.0066745360014686,0.34713697713634556,-0.6883341643307123,0.5480319687537378,-0.12661617541665005,0.7016609493858438,-0.707484052784988,-0.8413421827988744,0.4139561447165133,-0.4717325560199917,-0.6540089063623273,0.3371576431846525,-0.7182481212783499,-0.46681334360623045,-0.3517162535445874,-0.6379367684201505,0.025259710915591118,1.005065064871707,-0.6053540783752345,-0.5669101029788163,0.026099650498226937,0.6037379092658867,-0.11148081146530259,-0.5738088303018082,-0.43969413516297257,0.7902355750261436,0.3020029939397608,-0.20749095206095883,0.7189602168845901,0.7441125173045845,0.41561848564786885,-0.5965056193167415,-0.22221345413211863,-0.562497705837243,-0.35621514150401884,-0.7326685065502402,-0.14834001138638456,-0.285662418656394,0.11743329401180976,0.7135928700508472,0.35052280049422785,0.19226052321022133,-0.1457901836548005,-0.5900702819118274,0.7747464951018997,-0.6984640807667268,-0.652243935328568,-0.8684834763003194,0.5400609443550757,0.7854221443311529,0.770782168608098,0.8689498452095048,0.5036677818359625,0.8800091420066423,0.5844711113609863,0.31122997918334067,0.5345424738288157,-0.6205672911340132,0.18151681830885386,-0.10508706172232989,-0.7142558277277266,-0.3559116818740882,0.8798677341084562,0.01460889324989927,0.6690994284324328,-0.39659783476104743,-0.7658737993863357,-0.3069460796137506,-0.22792246309109768,0.7924185815914166,0.5932001534517674,-0.5537734345486325,0.10474874451830136,-0.48557361760936607,-0.7327785911273339,-0.7708636833802609,0.9758196932008143,-0.876127366268151,-0.7227383329284321,-0.9584551612152151,0.7643655474777032,-0.09520753452751567,0.7756307570953916,-0.21302036616238235,-0.3536462686964584,-0.45098839075922215,0.8591015060084569,0.30531388170052726,-0.11833757908599143,-0.20775317518423936,0.29962868128724657,-0.25733154807724673,0.12875070023390878,-0.724406064053309,0.18703571705680253,0.5373709614972383,-0.05926211463429435,-0.3393484943624018,0.8556218752064023,-0.13170230854491558,0.27182406344132376,-0.7940030426925122,-0.11556108968306054,-1.0176778756739215,0.4633715870162835,-0.5250375377009533,0.3382849792316518,0.9159383620497172,0.3865460836955577,0.5620365827883345,0.8301626582308256,0.9720434380733467,-0.16064990043230531,-0.6738544434824172,0.9619240940544023,-0.3708557535482893,0.14456639574795,-0.1509969512112967,-0.6369613788099799,0.9387741673974395,-0.7063336356887749,-0.37958211911025097,0.7053237175995692,0.8974798500393049,0.8711419419361367,-0.4213213225340086,0.2195411174264511,-0.6783422395911821,0.61181895690094,-0.8068774709074941,0.11062951833323233,0.6787546413248187,-0.8307758259996079,0.6526857882448553,0.1025208516199729,0.1594804974239217,0.07488792975727475,0.9670423145417324,0.9353198607659341,0.6774777281057835,0.9582433754737594,-0.6704286267519451,0.9279522737603051,-0.5540604890091602,-0.5997225607798793,-0.06336671232986432,0.3477221466396947,-0.6706351037980609,0.8171073802093153,-0.15648086028903074,-0.19738011616029752,0.9270022123002748,0.2548740324179872,0.7071755848662085,0.22256383745414962,0.6176094976952915,-0.7972500309184629,0.156902042623147,-0.20894018321253582,0.8891251793589854,-0.048198893720806435,-0.7343117028912798,0.23939240722892907,0.7579299362014247,0.28884140358994825,0.7723122229514494,0.9228481067019496,-0.012125764632058944,0.5053127879069998,-0.5191152433275315,0.719462722991101,0.41178055554708903,0.13305605577118773,-0.676965666876874,0.32760697979325326,0.3646491616563303,0.47992144972129824,-0.44219161037936106,0.8692822030621545,-0.23571528579178813,-0.9168767379272997,0.2446251677232334,-0.38925637741149965,0.6300012009151243,0.48216147141934274,0.814412748676125,-0.2628605552679082,0.11816821634314945,-0.8285624406702226,-0.2997619181209972,0.20886481543799595,-0.7965488988322669,-0.07151537759047333,-0.16796429670857815,-0.9795353995992733,-0.9727313065837317,0.14022108095226482,0.7525451862089865,-0.2948436555820184,0.297982085232968,0.5875320911849171,0.5132794435416193,0.9104573290360569,0.3290710926874738,-0.5554315935015108,0.5873316874078574,0.9743616588265054,0.46968775767536375,-0.7204571169168612,-0.6374246091453304,0.549871905385148,-0.3626867453556817,0.6544859745288343,-0.08833364854843073,-0.0832510592492528,-0.49897872091870377,-0.5572699847825775,0.05843174773781268,0.5500292187388247,0.8879608629047522,-0.406516790484839,0.636252787804674,0.8492524998955782,0.5528253641841303,0.21496386630824493,0.48055130825703896,0.6846925095635632,0.4181697959955344,-0.07387689416377352,0.6147766736747191,-0.4107148874379678,-0.32289414223605784,-0.6508956155158268,0.5243846698821946,0.8479394163286977,0.11204011893091215,-0.4322108385868193,0.9503473023386977,-0.5261262713227908,-0.8590697725998873,0.5797034136957497,0.43662663899081133,0.6230635352340621,0.5693325747771831,-0.5761694553558914,-0.5950479526410033,0.7639884889397133,0.3033143648101382,-0.5521167453514093,-0.6177771888795791,-0.2396092362936455,0.9408185865148317,0.028152885392104476,0.470997731305113,0.6623847122192641,0.574284596240171,-0.9997475469589303,-0.7708498274468751,-0.5136550587458346,-0.5201182939617202,0.12325139200123103,0.9679986642841913,0.5329091860568282,0.40063167019262513,0.2466733641731238,0.7762487777233011,0.467597094294413,0.431148416826175,-0.09172349913212208,0.034570916425210596,0.9130913677804877,0.8665172680556388,-0.6415172894416425,-0.0377247483366836,-0.34484291248204135,0.17024855432851815,-0.4586812722386149,0.761412290601988,0.27026143569863637,0.6984047129906896,-0.3230226912052478,0.2918601513653214,-0.10332904902221277,-0.2330701769734421,-0.11296295207334241,0.527338958543351,-0.13472829736116876,0.7135579544019843,0.37419626217055557,0.1577827757615713,0.8414323061545176,-0.10621113669129219,-0.7636259414862775,-0.8054485211278056,0.7229567804843247,0.05952260385444123,0.8841481176988059,0.6469267442917316,-0.5232890744636003,0.9005739258797429,-0.6246050460532849,-0.9329776571110119,-0.9850006563926029,-0.645359766642777,-0.15160859247930644,0.32611544858778513,0.9927680455830182,-0.23309612363977394,0.04083639598248486,-0.9369192207009202,-0.3168223131976721,0.7106167928943654,0.515803995778879,-0.03038904033780335,-0.8141577353050106,0.6926921549589692,-0.7478864898082014,0.8939154077138701,-0.39344143814664573,-0.5099055346601393,0.5469942310551016,-0.13651323190940126,-0.41502681665617047,-0.2634203874267213,0.9225735928090737,0.873232057769431,0.6875118931027023,-0.9202190759884604,-0.9189333084802748,-0.8411439498129201,0.5737045519041543,-0.14235618633769317,0.18230761218086278,0.2174506130553549,0.07701661646298315,-0.4652519776635238,0.39598801840102715,-0.8351988130094449,0.4808617740733985,0.9388891975681279,0.4534256853858982,0.3688752653160588,-0.820463475387981,-0.7902605426602751,-0.5212785058948604,-0.038662476590222226,-0.049447509757788416,-0.3142059609737118,-0.15045263777294182,-0.5293946596749225,0.09026834817345677,0.4897469687151676,0.03793035269657791,0.027156732026895572,0.8618572665951911,-0.49568134836181954,0.4259583240872733,-0.6403605382467803,-0.15999560263210477,-0.41568190644327674,0.2963424304809988,-0.371009169230823,0.43712514520359524,0.31058673303017653,-0.3015484114037624,-0.6857475284433134,-0.8588266465318922,0.33457612096814865,-0.29239117492365224,0.3638252285678047,-0.5444184095957885,-0.3759828068836891,0.8030297848371591,-0.8840556555546043,-0.7711316562453624,-0.052548674603212726,-0.8919177540633335,-0.21520027691273624,0.19199873863890254,-0.9749569625628624,0.1143208856442576,0.3902694986326532,-0.8463159126090127,0.6215741136758749,0.04324730727234558,0.10549333474238048,-0.1954426553362134,