-1.1333872904595865,-0.4300659643422751,0.5651749726121881,0.9054870424792807,0.40225709309029023,-0.9539867304610079,0.633905718077832,-0.7735693013768148,-0.7771288775942243,-0.17486781644431731,-0.6246493834832173,-0.37157731778929265,0.14990623947455436,-1.0746683253027447,0.06300327692772874,-0.9831332700917915,-0.6858161607934365,0.3178610780660641,-0.6754822730758614,0.8463049365748427,-0.5731742777795711,-0.8077257052714948,-0.8895996724249664,-0.27427769647075984,0.01709497235591882,0.2402441358528289,-1.00490618263556,0.3674244274587522,1.001900046249238,0.3906304918175735,-0.1480226766349062,0.4021042479596322,0.9607900647602754,0.9528284108167633,0.23718584388070219,-0.9099679235525759,-0.48174796090986627,-0.7558799143679575,-0.7232961432494773,-0.4766082315781013,-0.2814590693400052,0.8718161123287396,-0.1996546067394105,-0.34490227734982404,-0.6795344807395187,0.5461233051353691,-0.13982940426333723,0.9555904330849285,-0.2795199511467812,0.9600311694446875,0.42368169003035416,-0.6543595379118681,-0.37377391779824487,-0.5002279350988716,-0.07852498552639409,0.5799612928674791,-0.6445847122400918,0.29136803285842383,-0.6491121811491376,-0.28360765026806667,0.31161207264321344,-0.5936456021990872,-0.2680827522654583,0.16624777199219998,-0.9617434646945411,-0.24318703584171164,0.020339718187653233,0.29225046020371837,-0.1410658192679708,-0.6182715473219516,0.5196980671723712,-0.1575433379341269,-0.7162798960718697,0.34485320479352866,0.5321774806170454,0.9953850832943445,0.05229024498305712,-0.34101093069299293,-0.7527579899117811,0.7980096981123146,0.5801940281760896,-0.6603566470169742,0.30791284662212504,-0.7668705134435967,-0.658548471571132,0.4472253964168873,-0.5774743556332735,-0.07834962694907288,0.0754197797542786,-0.10035478881752158,0.7841972216963431,0.5089553224903589,0.9442670792290717,0.9645264673880443,-0.7534071762105283,-0.2691811515454272,0.6034118592279536,0.45039850841787943,-0.43790511712958446,-0.01960882921734841,-0.4883188355398649,0.8294623329542914,0.4760033145741245,0.47847608937884023,0.2837998963641828,0.23213934672043468,-0.956304275123866,0.996743919923105,0.7579781538347579,-0.6706824430804004,0.5750632619974063,0.2636471456515672,0.9179384380848201,-0.7921188807903305,-0.4287111497421905,0.003429256366747957,-0.625235832290647,-0.38692135828386576,0.0006040968128826485,-0.3601294139117386,-0.8900627674038482,-0.9089577732542578,-0.6146054750335996,0.6707513187288754,0.7073798718983124,0.8717943989735661,-0.8641251308710072,-0.7434481018750938,-0.7958988518768131,0.40668311676437696,-0.12158889181529164,0.1732481015061107,0.07415112025782578,-0.954090659197651,0.4090422981060604,-0.239144812930302,-0.019531605968788,-0.663472955565628,0.18004015176683574,-0.8851503959036,0.24617871120779,-0.11614031200957209,0.46173709189235024,-0.8925377911074337,0.03993289467328709,-0.13561515657050505,0.4809923611689051,0.7801635946737733,0.7667985661497336,0.6133091426352342,0.642722842490584,0.8353930591257623,0.2530809695315446,0.8893380103743,0.966137644788869,-0.314017640375702,-0.706081986528033,-0.5240881207742678,0.7417473223817752,0.7989301498123156,0.26849972465515726,-0.97320964882193,0.7327280411504582,-0.9697450910085292,-0.4660507027368801,-0.10820702228296919,-0.10568154827960341,0.8621575726863544,-0.5295157628441514,0.14003433259706233,0.9510123936520742,0.7284348277847827,0.11656970530799016,0.6720660568646561,-0.4448023573552131,0.6455952912390357,0.3518654974791864,0.42832014301113186,-0.861234569766397,-0.2799767238539439,-0.3866794714496704,-0.1627490801800766,-0.2860184597159712,0.21117069424049206,0.8382173461672355,-0.1357609981910104,0.939749176074032,-0.021785046770846916,-0.4534271308430129,0.36851838038121554,-0.7014864506061327,0.698616241295025,-0.2354133279443109,-0.006727614667490611,0.8475393889020293,-0.6715458568024493,-0.3611393428855554,-0.28150948083710503,0.8616202781172146,-0.5093597374195553,-0.07081712509063443,-0.9090466297433819,0.41546062186113963,0.9906814311348036,0.4178717787010444,0.8181496567859352,-0.5822404403157362,0.22673550878045434,0.042127121637979714,0.6425086759990202,-0.4884127397911884,-0.173109476443581,-0.6453058409505155,0.257056878343648,-0.147713744454397,0.6858721163724877,-0.4568710774419218,0.8129980723689536,-0.25444378363122344,0.07357648194742983,-0.6148939472765558,0.5910929507107756,0.8043471459664999,-0.8000605837631549,0.912651736891311,0.8715470046493432,0.1880197126577936,-0.15965915199504965,0.609164945224586,0.9135292613449111,0.2621794726251183,-0.8683737769572559,-0.13641211202971637,-0.26110434287907447,0.4334496876873528,-0.5122605125373363,0.23042104705648425,-0.45650116486028836,-0.7433088142544646,-0.952930980605577,-0.3233777502187375,-0.8734766674889938,0.6254716917813548,-0.5029546729479014,-0.35121423238610006,0.2969056518256823,0.04284651554533468,-0.27378423615278397,0.5234124639266854,-0.9751810826486716,0.32218255444946475,0.7452105117661414,0.4568295994817917,0.12383017982579626,-0.3783238277621516,-0.941983520599728,-0.09553912411268381,-0.10169383649152511,-0.617828298743827,0.39188667134512656,-0.8863480272636386,0.9811637948633621,0.7356924807939106,-0.2490506337680508,-0.4083029719572367,0.4857758324494393,0.34530665627845797,0.1923305425384354,-0.4984428559562855,0.4803383995927384,-0.0864102481688226,-0.8510309559880492,-0.48626085457610985,0.8361065301982555,0.2590348688900338,0.8241102846489285,-0.6022565643070287,-0.48154694078834653,0.0733847568734876,-0.40379040786855086,-0.2886505057715627,-0.6160443790518602,-0.8090857172389262,-0.7980052639068217,-0.11744551377408127,0.9179541272929281,0.2812165117290271,-0.8871543168754289,0.37334096281351603,-0.615065717616309,-0.5677665984085386,0.2579861611957377,-0.03348845367838544,-0.30442689008737245,-1.0106052260557248,-0.49011859600201957,-0.29087691777264263,-0.42545364261188245,-0.08157991762552709,-0.7580502895957026,0.45132686091442004,-0.6437072170549838,0.6400933968375114,0.7487470127420766,0.5579414995400559,-0.039671509502502846,0.5379491575942096,0.38706059644802865,-0.47128511894782416,0.0848135369499843,-0.16270448570286888,-0.7484814618022038,-0.9718523790178857,0.7230803571117251,0.553560931901498,0.08986549688412575,0.4851201141578879,-0.9613326237091163,0.4578217489768999,-0.06923807874433932,0.2987845810726566,0.23338764018164626,-0.7987198089765524,-0.17547613075913518,-0.6842546529343007,0.4770056354018593,0.524020687496105,-1.0835987426600533,-0.03173996898745962,-0.9567532647583399,0.11610416879192369,0.40547842372282505,0.08145730566450154,-0.1831062725491394,0.0010255433771970792,-0.42211487930247393,0.22369421321747154,-0.25112155752149373,-0.04165079986335993,0.014222634721861945,0.1406930959302883,0.0009393157359279551,0.3439724437742924,0.21472272368340886,0.6401233250307848,0.09522525936163187,-0.6754282956589679,-0.28915705665088404,0.8468794843391626,0.4999524222847196,-0.2094763076328125,-0.8663308578547488,-0.15393157691631745,0.9346227665093776,0.6059234167141307,0.1820195932488457,0.048452065289388696,0.021269467224178162,-0.2755575197661164,-0.05236082342265648,0.13277761259265158,-0.9037891689515447,0.42362778298168674,-0.15109572993822445,-0.6140622411344206,-0.8949331376088654,-0.09793141770673329,0.7385225065853819,0.42161567007851897,-0.014692155251796731,0.8957546570405556,0.40481925407301056,-0.040460595415860744,-0.34391022781827524,0.09972267041304843,-0.1891126016397846,-0.01704947137479972,-0.2091106693418334,0.6724828624392698,0.7789361638371254,0.020508563969337357,-0.49882621840515873,-0.11388365659420746,-0.937314588009443,-0.07723413454788423,0.21907929028994821,-0.04078629867375628,-0.556304782401012,-0.5552552613096218,-0.9072845802362354,0.3779804392433795,-0.3975043685198729,0.3620398999027846,-0.4591629207707456,-0.6903962930473277,-0.6221571248225664,-0.7685889036264092,0.9352880751465715,0.32718299142588764,0.6700501879893574,1.0552293462925546,0.48610253452007546,-0.00015245312689744588,-0.6402316081608159,-0.35953830046699164,0.22374091249771433,0.301118394770963,0.5174867815662914,-0.02236591172236743,-0.3276380593935645,0.6097238509031134,-0.7979105821599463,0.49722632048943133,0.8381327298861425,0.06403919908998487,0.3110544405260383,-0.31554325183600035,-0.8789425406290787,0.6360699243656256,0.25151219077872106,-0.004978780353784785,-0.9971720081370551,0.7798117456747244,0.6731713409483397,-0.20083564576997132,0.19966608569011834,-0.835578416250325,0.0766574215998514,-0.7944291870740547,0.06942255538717607,-0.26416710236639374,0.8937038078308744,-0.8586466888371034,0.31167599687742864,-1.0596125510334644,0.1784991089750815,-0.742046710883165,0.5858395477474193,0.07135342583163362,0.44479740449650584,-0.1153785776631713,-0.48067988237425385,-0.1376352816251084,0.7392936398092976,0.23317324330795822,0.14587899198685392,0.7112898303273412,-0.23614061728112812,-0.8319196149283954,0.7762652112861695,0.4653063303907001,0.03671742048510787,0.827125614104325,-0.017039440074069774,0.8626449609291916,-0.5508196488560718,-0.1044759450335456,-0.7603656018315798,0.7810068244919481,0.801528432595203,-0.8741965247709722,-0.5226196192927294,0.08637476766238647,-0.16103971912093107,-0.20373238053296291,0.36724080294955863,-0.8397461412935552,-0.6831677209207062,0.3872692582148292,0.21603380588664084,-0.757790279601455,0.2290050150228631,-0.7947209802629258,-0.127185193578356,-0.3303802264574394,-0.05131421462887892,-0.6162140933868785,0.10929941637085919,-0.46860996709695535,-0.9095558921248462,-0.3531024501936596,-0.6333891475967984,0.4972675315881698,0.8152263838729896,0.3354241594369196,0.7567562284894523,0.5007569909933043,-0.8887871712413826,-0.6232117097532902,0.6936434676432066,0.7890092231506834,-0.33586413473375737,-0.7917979093690389,0.3936025747667184,0.2803420762643142,0.5951914845003123,0.9217011356532797,-1.044908971102129,-0.8169099716054578,-0.3560375743218728,-0.05267285511071167,-0.9225774480947477,-0.05063055818310045,0.503148029239635,0.10779606915929323,-0.34802684959010144,-0.9559509832055562,-0.006140467710265536,-0.9238220679684085,-0.019085735105082106,-0.9572229350732999,-0.16300005878126786,0.19400050551011958,0.5574473247595383,0.1907105947384851,-1.0316769142643591,0.6229999475240712,-0.12008656354303322,0.7342670266270332,0.6406244721838892,-0.3110532195608501,-0.6577221733831113,0.6703423743196606,0.42699579611986543,-1.1019186870828073,-0.5447776306232741,-0.4555157163791057,0.8782643990331032,1.0651553929908864,-0.8083767450309562,-0.21684266656190151,-0.48725321819496675,-0.3125514341146111,-0.9241041576212226,0.3848904892746772,-0.40435038220212777,0.05402596696647288,-0.29935214178274183,0.5298680409007461,-0.37491722253874177,-0.6365465460178055,-0.615433045829149,0.4436382336223584,0.9274672459246861,-0.1106951774289154,-0.2807979275386005,-0.25690529993919536,-0.1813596614303715,0.3410181797677979,0.9423177575922137,0.792752618401133,-0.3733580543760989,-0.5818138770440391,-0.7360909786523486,-0.768692074486689,0.18082881642922696,0.16920378576583167,0.3752208589569043,-0.3530556191969032,-0.3673811261423785,-0.718187700968424,-0.6679820148008954,-0.5592577464609015,-0.5004016030789461,0.38654349923737763,0.7194628027825416,0.5824789256053389,-0.14463475907951462,0.08694844622274392,0.7630536682529719,-0.26122920679725015,-0.21751442198051707,0.17357880080293797,0.47656139458272523,0.9703969039439655,-0.040630147137407216,0.14843772381085807,-0.9664072397048094,-0.10722797847117035,0.9223607845400852,0.5246718091363358,0.20326515991976743,0.44622826397571863,-0.14093985934276992,-0.02028466561068811,-0.9611759184591324,-0.5904717084461175,-0.83778311649422,-0.27152405878715585,0.008619359155616447,-0.9343954450115776,0.5398166385651806,0.13001437202741248,-0.7107188887874248,-0.08672602224427862,-0.6278788221242235,-0.02896520897479341,-0.83165914166382,0.30326699421535885,0.6782440378912578,0.9372463126679401,-0.2708329657705073,-0.7363297536563047,-0.9874659184773001,0.362160961685781,0.050421672526126976,0.44649708329988336,0.5448304947968569,0.5489012713419993,0.5127510615453663,-0.0034362731827128467,0.3744168717916098,0.011074093373872348,-0.25675083728044673,0.7639337457165581,-0.7653414372051849,-0.03730610606424991,-0.30644496096967233,0.2908841478317892,-0.6495057480745511,0.9821369063197497,-0.25371806914191625,0.1330368047044249,0.514747434031314,0.6180847625089321,-0.3182705461147019,-0.0811987771694039,-0.5207702709702345,0.5650645027221708,-0.7551026516237789,0.0873530413068119,0.0542588586815306,0.08260301811127928,0.293036324340578,-0.06643540596766197,0.21786030970041875,-0.015485060709145447,-0.6389979319521963,-0.822138647359713,-0.17738734123840422,0.5381415717267932,-0.12025236330630916,0.2175991279385919,-0.6080947165227854,0.8008149794930319,0.30177457749791,0.45353489000420943,-0.4056362600591966,-0.035681621349799006,-0.18114091251137143,-0.28752624579983316,0.1801131277181942,-0.9574680194290279,0.5599044069876674,-0.4646200163252497,-0.991638982359588,0.6452744165004555,-0.04307327034483345,0.3775012676759018,-0.9608007022433029,0.19057808067594603,-0.366047917448448,-0.08057079091600497,0.9536119225703013,-0.3360585666477244,0.7597889695587643,0.4191771120708335,0.47469049638923005,0.10279617353756738,-0.7901843290661623,0.10165060495134501,-0.010545533125658072,-0.8899808981529882,0.27722977168149543,-0.09152217095768865,0.8268125795218333,-0.5804919168527458,-0.35634942095808014,-0.3950263486097753,-0.6211208244288343,-0.8284479597970926,-0.708128130170654,-0.36495776095981985,0.04053288864189675,-0.550389601140075,0.44704910890323923,-0.4776675238278735,-0.05630435945678407,0.156813487184211,-0.37271222007039856,0.005104888625751229,-0.17636474375227165,0.9042900112026436,0.9559071077910126,-0.8054545612103379,-0.69797056287645,-0.5354224934275917,-0.45179157900796796,0.08463673160815241,0.5063000869222002,-0.13945192802913653,0.33689693008436766,-0.6252687963201885,0.25953064497072154,-0.9967598262241486,-0.21162478778748542,-0.7684458592865173,0.3628418874475143,-0.6174997708253245,-0.6743718877890768,0.568921765941313,0.5451051364599961,-0.4025285281276894,-0.534868950387938,0.060130368001159215,0.16878669641929356,-0.6771649553135632,-0.7054079271885939,0.2602295584085864,0.6129443199655411,0.435306231044976,0.12032091175798285,0.5848526309293047,0.7255331059425955,-0.24041962299968878,-0.19611247984332278,-0.2820187242281541,-0.13832059220907425,-0.9741695014884356,0.4742473655235084,0.7857857572040932,-0.328750748934061,0.43989365906429745,-0.586383699338044,-0.5550754444491289,-0.615096091828831,0.1763938414161473,0.8612218335660161,0.20864332210958583,-0.9727347996261927,-0.9365568990786909,-0.3061969219675126,0.2538802141186191,0.5060373687303061,-0.4808533337579549,0.35685733978114564,0.7583962338972544,-0.44632624532560344,-0.2502929326907557,-0.2908537154572232,-0.5026496821239406,0.3006688712869771,-0.20579618959908766,0.3247570665178003,0.5894939847293765,-0.28045789595083837,0.21741089662825372,-0.059661175185164304,-0.14369310321526205,0.3237526314985833,-0.027025358653325404,0.08161537374870813,-0.07444221263103941,-0.2839508989149386,-0.34608601187697113,-0.2645025134263606,0.8670201090604491,-0.42303351786871346,-0.04603804105469188,-0.5988311085851216,0.5200317701342306,0.5297232795143663,0.8295241513661243,0.3292795318152388,0.5439900471189922,-0.0853295733186796,0.6147422830382584,0.48524748343685997,0.6246169656865774,0.9590663970456985,0.742332636196803,0.3350760487028369,0.5428273272725065,0.1876123764447551,0.2819831640799943,-0.6833654260456183,0.40693929691570596,-0.6038671286379326,0.7532264493583544,-0.03070422558235462,-0.38314491079445645,0.9999829079952527,0.0718541674962611,-0.36888575898239456,-0.20949617927781228,-0.6506668804377691,-0.2039000561174427,0.9314950375215896,-0.7854432113058679,-0.9268944165062487,0.06320184955574414,-0.8947420145396334,-0.8046267587429429,-0.7916464911002506,-0.7431780066751308,0.10739663171884575,-0.27393448754680194,0.8005469905791068,-0.4527108559263904,0.5299607487270951,0.2914386105086716,0.8279507158427497,0.5368174331015374,-0.5074337374464829,0.6787725058888406,-0.9234271163621851,0.22637748775714323,-0.1748717258800456,-0.8840318631722368,0.0877335604398129,0.7027526352731203,0.3498377346642274,0.30660737623555406,0.07308186879169767,0.945970864791231,0.3688549002396073,-0.4253148074480834,0.5755928846442276,-0.6398543685587539,0.3947053559156484,0.8940948851751832,-0.2316728456316228,0.5657954907444765,-0.4914333374187232,-0.9830627850584457,-0.7413557646732588,0.49854166479956497,-0.4896309456508499,0.6719655144072905,-0.7301747654847436,-0.27270112080419084,0.99059117237451,-0.6163514757861732,-0.33724885203566507,-0.3972621494140212,0.8440896969214128,0.9889317473987679,0.038418006612402814,-0.8649324100289052,-0.9708110332794531,-0.6143152768806306,0.3938648479968052,-0.3612775183710669,0.14067384231519586,-0.34823610143661654,-0.9826275602984412,-0.7408368130415742,-0.10504813553065617,0.46699862293545935,-0.28948958041632233,0.058885417316130485,-0.030570248828632227,0.918655999001181,-0.8491958215304745,-0.859157798410435,0.9347188048057118,-0.24208587629932124,-0.741747412463719,0.9857399983897607,-0.9353819416116091,0.9811870859310837,0.10766899533838471,0.8091585127606117,0.46368487562205635,0.8663407983952437,-0.9295521358295115,-0.6247159370061657,-0.4041721960905036,-0.9810513551143963,-0.7835262664206087,1.0703892319292736,-0.6120672846705852,0.47025724030327687,-0.567853152251915,-0.08181577661612224,-0.2929621814537686,-0.14370009679148574,0.6192862767788265,0.9108227133838559,0.9449631606107552,-0.006365200318879943,0.5167322476820587,0.5424001198764785,-0.14102081106570644,0.9744217436544843,0.39396512084256746,0.937937942823845,0.918844620709416,-0.3443473748869773,0.14998608103989064,0.3868621722075448,0.748606207493183,-0.04259311347056952,0.8611106948905488,0.3765454428705851,-0.47481905732819935,0.08442293706108177,-0.04998387618399605,-0.4987096752568184,-0.9957749704819775,0.3430745650074915,0.20467892025650777,0.05236368906624853,-0.20611592645249668,0.5026325215315111,-0.8722045479575532,-0.42663141183928605,-0.3924901742017812,-0.7189754709732714,0.41960665347417264,0.4976509234437239,-0.8500169751821287,-0.9463084569655646,1.0018358774182268,0.8458035151938414,-0.8338273665592968,0.944795446138581,0.8150486406031058,0.43803390001031645,-0.06310150057204894,-0.8295869295643193,-0.2892013200302576,-0.33499092934438457,0.9831670436854048,0.3004116513732677,0.07059001917397413,-0.43702543231358076,-0.9949324061052373,-0.6621996112449566,-0.06371636707839434,-0.43237215014531927,0.36319903421626804,0.29341615587878994,0.6815756517992732,0.18624861155863565,-0.45199219157787424,0.16812015331848187,0.34214656822913625,0.7064148689685767,-0.3093668903153805,-0.021992057220267872,-0.4032419755400606,0.4444305030332443,0.22405528184193688,0.08762567403211849,-0.4215129120164973,0.10680602277363867,0.07096129972447363,0.8157665863160459,0.25410083577098236,0.7105297182698133,-0.20385321804172693,-0.9102262964442378,-0.8383160575548511,-0.6333551584603383,0.2979156787075222,-0.18299836069679376,-0.8371389341900576,0.6451934364985008,-0.2385544907319624,0.7965962362299391,0.04275818190418178,0.913132647589156,0.19663986198471914,-0.4381293422510636,0.27461627108280556,-0.7264373672785279,0.17413726088279638,-0.4453304950398944,0.36449606474226387,0.3268161769747469,-0.7869826268599008,0.7841058296346567,-0.560935696525476,-0.9002530095026748,0.4184960796331949,0.5515820566942835,-0.4505807986499515,-0.6477682312399416,0.20772861306708765,0.7405641835322969,-0.24948152656719547,0.563675612864404,0.9815009620134241,-0.9152864690201854,0.9171655271998895,-0.46108451429865416,0.8778718587728565,-0.952764223479009,-0.443769354085092,-0.571981851200267,0.8270422148959315,-0.9436711912404174,0.4896888625912543,0.8013586856489745,-0.2083132309817033,-0.8422260773961918,0.7210106101148832,-0.6887148032357706,0.01745109823237123,-0.9874395949494901,-0.44935241323795716,0.9264134833021826,0.10689687237836254,0.5516294979026362,0.5841483929341309,0.948225288834764,0.21225353369619637,0.3760645160935745,0.3014905369075389,-0.07015450777373666,-0.2507232617560129,0.9201675116645629,0.25127151161637684,-0.8654680777856045,0.3829156418131092,-0.4257376128554966,0.4024221384615396,-0.8666394344047559,0.7727769048583266,-0.8039111252767739,0.07843260902965365,0.4231051195540343,0.7583471997592415,-0.2709636432302789,-0.7728355888977887,0.20433333881281612,0.9411210868078517,-0.023203932649183967,-0.8837969968739448,-0.7759422129185503,-0.6087264008083371,-0.30543901153762687,0.7139297585772169,0.833397620199777,0.174324644484668,0.3832864827971063,-0.32294092922643336,0.21211790840914535,-0.8148960252681523,0.676269825843989,0.36987250325379106,0.19183104840084897,0.7713315947366879,-0.6129238775476831,0.7845560605963291,-0.20795503267069781,-0.6744172754083737,-0.48588562390997403,-0.24687617752878244,-0.6636407249225305,-0.29921231363109846,0.655124517218308,0.9069820862934044,0.224470576048875,0.875546407576302,-0.34792864453535643,0.5272216245104033,0.689563944551659,0.10695332210333564,-0.9454976104334045,-0.9681745592117703,0.11101755139675529,0.41544632206450816,0.2946085006632144,0.8387822145279766,-0.32063350512026667,0.4619962888506397,-0.19468105568762972,-0.9997893065993182,-0.5745240221228705,-0.5995780818935561,-0.5568152980732795,0.9398324267220879,0.6467813145782222,0.771113716229465,-0.8455534978356012,-0.7477436555424892,0.2280260298936394,-0.9012487764380557,-0.7258135966797745,-0.15828056002835056,0.05535560402204287,-0.001979063228636724,-0.7865440370648822,-0.6393350039482881,0.17621875178606294,-0.68622337460637,0.6132609885772784,0.9649420175287573,0.7609528243861052,0.41581782837495074,-0.30343717730869035,0.29936028660773073,0.5432119527642567,-0.632694399186394,0.8953358019042921,0.8630186313836374,0.21001719794199403,0.7841786299693263,0.34109328407374817,0.7047296733670354,0.3013876545635419,-0.07445376155055539,-0.057886614422172133,0.9958475170909658,-0.7035343982674558,0.7277180947969253,0.6934192606216403,-0.8446393312472646,-0.3646837085809045,-0.09944884253202102,-0.8593762293502127,0.8725486380657526,0.8060838372329469,-0.5538014469564838,0.6562489431077796,-0.11191405929171805,0.7791771735295463,-0.2086052660174973,0.8163765928892961,-0.9293210628340298,-0.9187358976566105,0.11625085869368013,0.7556136877520285,-0.10551755739412427,-0.5807635630271428,0.3603848531413685,-0.454888137686285,0.9993721851921487,0.5331762728108151,0.7918265557039819,0.4803252174916195,0.20887753977378143,0.1629653855607449,0.5251749281374267,0.5309273390623155,-0.0617361844986164,-0.20170080180234007,0.7361393367368008,-0.16097659302680478,0.15661578735877968,0.8968602150835523,0.6377882675721127,0.9973658562179,-0.8907595877374468,-0.32650088097796015,-0.38443546047150146,0.4854353344975828,-0.9188245922299694,-0.1911747076242194,-0.5051369952013118,0.4766692926605933,-0.8737328428027447,-0.19055361543346616,0.20009620032559172,-0.9937737288695674,-0.800149704909771,0.5109457491504237,0.25756822213153585,0.27670311486276356,0.4045651401171724,-0.791112263619473,-0.5442643039152634,0.31144226985863444,-0.7020568075960978,0.87787666603237,0.9496631403575013,-0.06167820944701916,-0.7386855785255112,0.21674327056152773,0.8572889550591108,-0.4940571451607445,0.3849639426470723,-0.1927631342066829,0.8335860991501671,0.27831046483926125,-0.4305718527577987,-0.8207567755299267,-0.6915252731230963,0.930244107170101,-0.014071653756867732,-0.6421497113294093,0.9136729367141505,0.176233488441803,0.21885410402207656,-0.677945518933236,0.6638555919221925,0.320570027986818,-0.47596301352647025,0.23407477782866667,-0.2629086831097648,0.7401920611035679,0.37807338483129777,0.362638988662891,0.7774611780336866,-0.0054636975905775036,0.36579437802572395,-0.24500090108099534,0.7457022250754908,-0.2541080465464413,-0.06099362412644947,0.4634637750813882,0.9798387844182587,0.6244170548536893,0.5831251786565975,1.045231643980274,0.7392365728073719,-0.08724818539977122,0.6760535732935573,-0.9121754441699036,0.590035410825673,0.12007744373491282,0.1308821002000684,-0.4600508999255314,0.5210873520323813,0.27836979931148187,0.537317687241563,0.15542318009094905,-0.33870288325759207,-0.884891139807665,0.10636159654790334,0.3832628714667456,-0.9092940901529462,0.3273978843351096,0.1775448943086354,0.05702404096394089,-0.10692340015057031,0.4145355811212979,0.7023769167379008,-0.1905078561819532,0.21084030839260212,-0.7659474774584646,0.36927219246722576,-0.24492565872097896,0.5585951260623676,0.010454383871307088,-0.3693688281396343,-1.0562117211835673,-0.807788863413108,-0.29936213470701395,-0.8485352428733026,0.20497242487310394,0.5320091283228189,0.547895013283879,0.9460514169253601,-0.4700232204350395,-0.8083882101240817,-0.5884788080668585,0.9775527299624385,0.28841300299508016,-0.45729338435101036,-0.39176989770868714,0.06220576491430981,0.708135079261282,0.6450133785377593,-0.8126609114154474,-0.6679890590773285,-0.9989772587403476,0.4330477814724788,0.13849441259537404,-0.12218384536856851,0.772065273534101,0.7832985927880292,-0.9801878718774679,-0.1895864703441713,-0.8438191954232318,0.6288528346604523,-0.30154917414695664,-1.0620137872285644,-0.16661985063590326,0.8931740319902733,-0.9331641172942957,0.5488103497758421,-0.5594010343515462,-0.8359190443264729,-0.19783927975989157,0.662867853530118,0.10898322917928051,-0.5255689772898504,-0.2586482477514809,-0.11002954198743595,-0.13865280417883713,0.08247952187358651,-0.5462986817175169,-0.31313624229760256,-0.021196176377701825,-0.8851291773397896,-0.6092746473021163,-0.8938551631276035,-0.7535541501487474,0.401252875505973,0.16033202500795649,0.7375045349155646,-0.029012003381767838,-0.3386060965852018,0.7543086143094622,-0.20198331160929373,0.8129837805680973,-0.2214654619999154,-0.25548092766779207,0.7994163704719819,-0.4490386181837168,0.37771007010062285,-0.22589447030484774,-1.0075018879568074,-0.544274472769438,0.04248708536207473,-0.6230084078593067,0.5680090673145027,0.001110609118736678,-0.005019603920926646,-0.034967477333837975,-0.9652403814239369,0.8179221874208014,0.18251741593497772,-0.36629678736752963,-0.712749943961551,-0.7747847770511692,0.5069349354937153,-0.020039161412113496,-0.0047092891017763636,-0.8898475123234211,0.01895277166140045,-0.9857552459774424,0.1251418650147787,0.40280624546009275,0.6637610831272028,-0.9934878278697873,-0.3811375277740844,-0.6836609929584199,-0.5681376173988226,0.86436758507904,-0.4319182517785072,-0.39341463943370525,-0.23775653574603334,-0.9351829239273969,-0.47819543116325386,-0.37284659440948503,0.010197307967111366,0.7308627178947305,-0.682036359413387,-0.7482579477188243,-0.39085306693332234,-0.6262388187675595,0.9108442918109492,0.8447008799739457,0.787116601162201,0.508897193209977,0.2885802840175194,0.014041453159763354,-0.6486585307253008,0.6826163143404843,-0.7364011149183499,0.13692151592301774,0.2901090593051052,-0.34408242839315634,-0.7665617140684517,-0.4092064073156686,-0.44225862438588953,-0.22394490409306825,0.7479898418301761,-0.4160277430984009,-0.37296539130396567,0.35819895887277825,-0.8743939825056167,0.22499216644588946,-0.692051180744776,0.6225241671737215,-0.5751252528618537,-0.6179996129391536,0.310853337974543,-0.2562393860167963,0.36299825966434973,0.03855888640669455,0.27031119235582635,-0.16601609812643578,-0.649924266271969,0.6190585272889897,-0.5450246293092443,0.5617772650973362,-0.3481236946384135,0.4217104109202556,0.30545384603892034,-1.1118280122681166,0.9738336166013258,0.07612778791393937,0.5164598387315542,-0.3907272994505798,0.3372569743562097,-0.14092821499818242,0.5121388074023064,0.9333405943285995,0.27379312350421564,-0.09342252673937286,0.5637144666779124,-0.31051866461592503,0.0327024638764376,-0.5452550662831548,0.5235504122963603,-0.8502958429817536,0.4056054828654489,0.0001315862409823331,0.5276396120561545,-0.25673464484568764,0.658677849390753,0.2507416390164653,-0.17714812964994134,0.19560654950150455,0.08586120267846786,-0.3855926850609765,-0.8717001636303168,-0.3284533262194973,-0.6149263387099263,0.7163273537452898,0.44341965287883645,-0.07114211156209274,-1.089982691144322,-0.8219021040237184,0.21688410915616915,0.08915833240274273,0.8079233134627367,-0.8697064965713823,-0.5487949344480662,0.9414047175982113,0.030431264319491492,-0.8712692653671339,0.2858466297658798,0.019128336889449933,-1.0560962941436063,0.5296020891998149,-0.19154267759954302,0.7012674651627312,-0.6100283693554109,0.9436884686131465,0.22028539758405738,0.5319871601476853,0.5029611811321951,0.8252184336595573,-0.7936729105985325,-0.8668450995595408,0.2212353788101173,0.39366241950128245,-0.25887417925173123,0.2623323269339458,-0.8856468576498223,0.28879669288472903,0.7210955815951778,-0.2039330620277345,-0.9227212615682278,-0.20262716546244727,0.4657067439305023,0.6929343837626679,0.28017663819099975,-0.08698342823477018,0.2783847912981455,-0.037624913791296066,0.6399319090696385,-0.9271850831648539,-0.9116395110213192,0.16020221732476997,0.27497338503877394,0.14047852739581707,-0.1709328502709998,0.7591041104963836,-0.37084669442324486,-0.36966834644266083,-0.5081654629905299,0.45130660165610714,-0.31303373407416746,-0.08448944522272145,0.5759825195618588,-1.0286015054446414,0.5430371672281712,-0.6389202715027714,-0.04791525926958684,0.041536651567165135,0.569089611552324,-0.2819395572113736,-0.32247823333354714,0.26183174007136384,-0.9374493517734371,-0.19971432399934497,-0.9087468009349929,0.8331961552684068,0.5534254033691502,0.3129394529325649,-0.5251209778514861,0.5152055944121889,-0.20357509231915843,0.7238569002290807,-0.057163461387952565,0.059302308813567656,-0.5564992867420359,-0.49856170351321333,-0.11758373928193674,0.09327471537028444,-0.21473111914564635,0.3395107792345207,-0.3327632459075408,-0.4751954203187745,-0.004053590193006509,0.11664064564042696,0.6718458523495396,-0.5945150743500327,-0.8793786464171137,-0.09242622657660957,0.598779876136196,-0.17133476738853054,0.4628856820095399,0.3374375680933086,0.6161444462162114,0.26415778116307786,0.712893236676787,-0.5329216284771248,-0.6198491329197755,-0.5383100775375639,0.03677361726220328,-0.5163998653198869,-0.7876080318624123,0.25266175846046485,-0.24005852266524086,-0.06178194881103551,0.39715691833290845,-0.5604280446394436,-0.6302990817072193,0.5608962391838355,-0.3261957853819707,-0.2049426147506848,-0.352400771947261,-0.9275071330622076,0.03055410606067248,0.6412443721619785,-1.0148112073299045,0.5738795915081726,-0.08601204922395793,0.540596842980365,-0.07585568971597555,-0.1740232979799573,0.5529737069420148,0.011779654570848067,0.8289960740474411,-0.6737729382510684,-0.8489323907739015,0.09272715596771654,-0.4079862344283627,0.5924928859160103,-0.1635591014090456,0.1344651270553843,0.7713600427439554,-0.5891816820179174,0.2959346143050672,0.8569693405604633,-0.706249426741915,0.26684776251988596,-0.8885252461486289,0.07965481740033173,0.274731051378769,0.7587486414572924,-0.8768909825305605,0.5487985719917503,-0.3247835444970567,0.284448337798359,0.279961553211366,0.4121879690823408,-0.8803326963018258,-0.37530461053805364,-0.5333646851656473,-0.5450069210729874,0.045948709190482,-0.5326335305518111,0.44666739291214863,0.6281512657220734,-0.4278062179246577,0.5056431135144349,-0.7047555975503619,-0.07395571648287738,-0.5965828168029171,-0.13329565149197345,-0.8370102637010564,0.48026038779256336,-0.7800930424110927,-0.4979118580152181,-0.6131814370367876,-0.5268608225947176,-0.3997012318515195,0.24043379166204126,0.8402056312975,0.7924952235293033,-0.5954030459546483,-0.7175577029961525,-0.7742361073178735,0.4940079071288189,0.7444983915821448,-0.05805976919901229,-0.33771639676487575,-0.5992715872808885,0.02026357717978888,-0.904661093978058,-0.28703347442958005,-0.9104699639660543,0.057061266557243064,-0.30537386489625257,-0.4367547390331971,0.6756337827275539,-0.15060562572221073,-0.3979322143553479,-0.2797530722326825,0.8948740611235515,0.8833679497104787,0.8711610499151894,0.15361719466973026,-0.7470091134651685,-0.44302447500022146,0.08597635235772412,0.3295577091732746,-0.343448823977154,-0.9175943838825634,-0.4992448471547603,-0.27922079859970156,-0.5873187992613744,0.20863937786086756,0.5325168045828026,0.7757414047317291,0.13893466089570614,0.8919050927408027,-0.254692698851177,-0.4046973403343156,-0.12041017519180491,0.73181067390968,0.546160816499406,-0.3166546961590139,0.6927018906131927,0.04904688933207805,-0.5243096563124238,-1.1583979892586371,-0.6220039211977334,0.16958851663224872,0.9086844334773617,0.7240065950888821,0.3168377520311942,-0.6911793449225564,0.9965666524255954,-0.3123872577109616,0.4938235477979083,0.8829819263126844,-0.7628702811315914,-0.003334210492768873,0.9595256086414993,-0.8199110800443951,0.6075648804517111,-0.3263931941430272,0.003049441553526687,-0.010241867691032287,0.07133838990112597,0.40151079493257297,-0.9335415366050311,0.1494425854484924,-0.33521386763527866,-0.5351295908741938,0.2521365867413619,0.7450895072967705,-0.1233146089381025,-0.7443204017467386,-0.8006963667980002,-1.240179676768141,0.0833805829013584,0.12167560004346503,-0.20287118705235826,0.009275808416296728,-0.9283862478737311,-0.41689247636720245,-0.02059058355229739,0.29436882294970546,-0.7805118723097727,-0.4434007302219861,0.10006017506136755,-0.34401675313343655,-0.1679174521476607,0.28677676066024926,0.8248314134244275,-0.8247165388605351,-0.20085497075118364,-0.3081899658296296,0.3767431092205523,-0.34864923190877617,-0.03117671144391269,-0.45866289791819204,0.28380101422168086,0.8755037348463343,0.0033270999099738593,0.0035015358412705537,-0.3145766403477726,0.8333998547950633,0.24639493343038718,0.5605561646526794,-0.17600313941691761,-0.9070738245819675,0.2743532740105038,0.02669856504930481,0.2766482917225361,0.2642757880000585,0.7887889572066599,0.05179814811299803,0.7361636558262911,0.6470274869411361,-0.5502734918697618,0.22942027629992903,0.8285439186969205,0.45054173889830834,-0.648987433490972,0.4310931374764087,0.7327500536317783,0.48091498346017,-0.7607389332790063,-0.17088242121815284,-0.9438236606338071,-0.35387795586328036,-0.3740979828936522,-0.9333792118581001,0.9754440871062258,-0.1043379698701286,-0.37377794892863936,-0.25843613602284504,0.012614696835251887,0.14128092332373182,0.9344084745918911,0.16847138157404112,0.8047865539794061,0.34978179399789916,0.146973406657472,-0.1897212394229791,-0.21984282424105814,0.2442150219657475,0.09554220229931447,-0.4777766645149192,0.851478927153932,0.025649885957406245,0.6118848968927472,0.11764608501668357,-0.5467752238645555,0.14105967523361487,0.8015646021108693,0.03625081471741555,-0.7351336512646576,-0.135200036552593,0.19771374170908565,-0.7608072301516131,-0.9410490573101341,0.8493018689079551,0.5714856753499274,0.41697704895508947,-0.8803460025990236,-0.3114751847015346,-0.45028223197343814,-0.1606225033867551,0.22554050968634065,-0.7245707275962077,0.8400172989593693,-0.13166689877567528,-0.8838103286672859,0.5267308905008911,0.24137706960789224,-0.8763978201292428,0.697171994213734,-0.8313955013446569,-0.9523310586503896,0.5044847872795467,0.793651782530225,0.8912488025642071,0.03593651537828986,-0.4214047044016135,0.46810057381966386,0.6568396098294904,0.7421604209175133,-1.0127124778551666,-0.5971245767343142,0.7403466434019724,0.5556398343406875,0.886898120986818,0.5004788464789124,-0.2446187320208402,-0.29017748026059054,-0.2656852608587393,0.7230946852389314,-0.1882544411513434,0.770421778419627,0.7044141156072531,-0.739925848646834,0.4921516120989494,-0.07506014593750482,-0.43433938330961935,-0.7574511002603055,-0.07806946678513843,0.49090992663640176,-0.3042448106857825,0.348310853286814,0.9335098999612755,0.8005718887253237,-0.12611243663934976,-0.03864148041224859,0.94500900094098,-0.9254053222844189,-0.5024891470124835,-0.59821956565758,0.8266496164748556,0.001243840035734981,-0.5813669299287012,0.16573441119941765,0.6755634827992145,0.6114394945636058,-0.7455198146343879,0.4746361116179111,0.8449439370873633,-0.16358521091013506,-0.5747166718639125,-0.7088804362712581,0.1587677976259769,-0.011752012221081591,-0.37909091992038757,-0.215551154459405,0.8921859121290987,0.44208004483838964,-0.2952087691935124,-0.11915540364436486,0.10123387778933984,0.38034166853437484,0.08617464072457667,-0.5447186787708213,-0.6318586204408577,-0.10506142075659008,0.8258112497669916,-0.34623824975790835,-0.014015262956679358,-0.15847800255502195,0.8708304830119415,0.47719762904033813,-0.4388594667505627,-0.9119193200211495,0.4760852243034688,0.3742923670691092,0.8768531464930318,-0.07965244115402688,0.06302839458453645,0.32162964231283475,0.8840384684648904,0.9012127520252081,-0.11699052256915712,0.9924748554908371,0.038298901827222044,0.841271455370084,-0.4398660813648268,-0.6864440299344822,-0.2667879447945448,0.7255304498322591,-0.2887186715694928,0.9963747106439377,-0.07218911711054664,0.02164282917056347,0.7933180678326369,-0.5964802412052361,-0.890309551238845,0.2786942895516919,-0.6119272221232821,0.8653296219600445,0.7382695318249086,-0.25694296252205434,-0.7830315876292373,0.3261717152973252,-0.7551279498501506,0.7210344686878353,0.06564073299737777,-0.8867734770317649,-0.20745050613472196,0.0699449000100215,-0.5507369952785574,0.6757873957816778,-0.010817087709633303,0.8290426606808937,-0.7985872472947901,-0.45629663931611797,0.2500692692496211,-0.2395607074807432,0.933895034035362,0.12916854065829741,0.5978364013423924,-0.9707023386216476,-0.30376741852657996,0.5595903802087274,-0.09541349791495571,-0.677184307820217,0.8922047399130033,-0.8836015025082272,0.9584123880733274,-0.3729107792208339,0.8088111335801875,-0.35619061973788024,-0.8733387468126642,-0.047047292586848914,-0.22943040614711874,-0.7790161144961735,0.5597919343354376,-0.523809178025849,-0.5927251832340922,0.42221881849907955,0.6438089393434032,0.5838612064191596,0.7058641604779015,-0.5585048993135052,-0.9320455609208284,-0.3541502923818934,0.04200997010976738,0.05530546621202464,0.4663491505077265,0.2532206311525302,0.2549145501299127,0.9956217609306883,-0.7245506930799431,-0.5042072209712187,0.5749635853983545,0.6973018786549866,-0.028974381879181693,0.7563250401782448,-0.10056451434105455,-0.11840185555661388,0.11250838255562537,0.6086737370318974,-0.21544771371986923,-0.6709626470920346,-0.6716832289246171,-0.6730235023653114,0.770649319740082,0.6403717844274549,0.7471295887302906,0.9440432792445757,0.3460418182143865,0.8164035913088086,-0.6336160023636698,0.8107891940018751,-0.5639160791515271,-0.6666567461418287,-0.16702806978963292,0.7127081279966314,0.09686535908206961,-0.8447419090189958,0.6620421113878197,0.6369547374629754,0.5095154976522118,0.36638353044151084,0.866713186579559,-0.05454873977907826,0.2944241012078621,-0.5174173761215077,0.009339672771205176,-0.8036354817557341,0.4780421101569621,0.3913357804427957,-0.976154728999225,0.4210076201966111,0.43593171788853646,0.9330352420732415,-0.5699109834671576,0.07340114268950537,0.517631694586498,0.7253845749458037,0.18768433543677676,0.9483834427162783,0.641651431915998,-0.24264120729190264,-0.2126980966226686,0.7460099685489181,0.19551810692273874,-0.9095802828041368,0.3919766902901176,-0.8736079004719497,-0.7433757538384582,0.57025837823903,0.7142810882972348,0.5659868601523017,0.9726927193226345,0.8642499998787712,-0.6222943295384391,-0.3285007403800264,0.8977633436475962,0.6743181803892475,0.85432448637689,-0.9727592375200471,0.08851624672247538,0.2352455028199374,0.01521323785601325,0.08849245836230968,-0.5426505295902861,0.4475535374582731,-0.3319367700463387,0.4076825541251372,-0.33563989877312306,0.5351446089133027,-0.6385104951528517,0.07121529097832568,-0.22371793313690258,0.9539690937676635,0.17405389086933298,-0.25142714956415313,0.901595901420138,-0.8000129688270381,-0.47719106841875325,0.6711795011921398,-0.022883061979674046,0.5081391683184517,-0.6220514703637885,0.6704230074484478,0.5545611726288253,-0.9468981539915666,0.5682334452649365,0.8976987076651917,0.5065158389670135,-0.46891031518020143,0.5504061234141837,-0.3409441498358581,-0.12101236982762709,-0.8445312740451916,-0.19136310518120525,0.030661025090505722,-0.22470308024904506,0.22599581760836274,0.49201155808089214,0.05341918708729865,0.5164135062910353,-0.4481431092122754,-0.2929248411497989,0.29855639153670377,-0.8603627919768575,0.3586200115042961,0.1433396872202206,-0.48711195117716244,-0.5439460645104,0.09564662278503522,-0.43099549375017454,0.3725028535588555,0.5840901811877084,0.9120117437465842,-0.7882528216943163,-0.19703619228076863,0.8075755392258472,-0.01848416090011984,-0.5541093745675576,-0.22768102361652853,0.11687360730029073,0.7853837335184846,0.05766676765064083,0.8335031556240089,0.9199759768445601,0.17800173659630003,0.5550312204122736,0.7919656292821184,0.5388189064684168,0.8690636976418087,-0.6923226386399775,-0.5085679891028065,0.8579570211465937,-0.679299232829566,-0.8062719732908541,0.9419995696047476,0.4505047867533305,-0.24070813397534585,0.9318655696349614,0.841293937022892,-0.21045942472065615,-0.43220075369708644,-0.1578145720024975,0.17636089514231745,0.19124192349305424,-0.03951204717554746,0.8287296912910773,0.2662507569063215,0.586993851983532,-0.26488206033219375,0.9510721447929478,-0.11005496795993475,-0.6787310878772381,-0.23757340151485096,0.28758828756551513,0.956632268206959,0.9964734484302409,0.20841132749874136,0.416906880088614,0.3013233761523819,0.4562198594265807,-0.32164953305325694,-0.49568767813325665,0.5143515722975684,0.564183214538275,0.17926283751745944,0.6755954949816269,-0.952748276196565,-0.5320106544213409,0.3134466110843085,-0.9805219351522851,0.9218184738545894,-0.3374381148610758,-0.6568004526017759,-0.863732914794959,-0.30133889764988964,0.3215615554397319,0.6687999838616933,-0.7072710435054339,0.3218502057969418,0.6859708111671611,-0.17683775053179482,-0.3619803376720748,-0.47506673997843074,-0.750076473876755,-0.5263755365435254,-0.33487082624656767,0.9039604362303629,-0.9059969334753626,-0.8033485398280014,0.6314320651494747,-0.8800792205665402,0.2306345934275934,-0.636920871741795,0.2659044760452691,0.07438427133674085,-0.3006217390648696,-0.5120854289208642,-0.8115143918058477,-0.6772321273053828,0.21116120352450626,0.9654506673307099,-0.4629472114559953,-0.1500917166604022,-0.6250631321820287,0.9313150632628094,-0.09620479776912373,-0.3737611083108524,0.034071022652034315,0.14179854852642845,-0.6275034463199771,-0.19805975036062248,0.7864296458609257,-0.5225016687751028,-0.13916086859327192,-0.760763715784527,0.46399078317227055,-0.028041597077869056,-0.4366530436315615,-0.8311609148122353,0.11594315954839429,0.8006450412184464,0.348745644081988,0.4313013944369829,0.4004270035468393,0.6262411105126039,0.9188084617106972,-0.4824557616572004,0.9770041346389227,-0.8951812367456177,-0.7341604901043286,0.7509766112188918,0.3257001741781036,0.6576441965671165,-0.5262068592554854,0.6152352796943217,-0.2966363737766054,-0.22587607184564085,-0.12538658499558708,0.4833772265857096,-0.16658531156982814,-0.06665275787309964,-0.46312581955689663,0.21442834064025768,0.893251097799227,-0.18923846735813443,0.9007267333948101,0.589610413361171,0.609255081470462,-0.6863751131762464,-0.7076924326026204,-0.0132837889966407,-0.8155869802621479,0.11346916538323122,-0.308750755441502,-0.5303568723250242,-0.4583890690160133,-0.8573765815177616,0.7184536094612871,-0.20023896945621897,0.7839707300732444,0.9254293998172325,0.3709228964614441,0.23289760857729755,0.5600144537678373,-0.5038870643718989,-0.25957102987094305,0.5148161164760189,-0.7189532039022496,0.942503731386221,0.29855196968847425,-0.0005309313443689451,-0.33025501739846813,0.9665851900805409,0.025688982464726878,-0.6180619029858972,-0.8301687451779751,-0.270054463773588,0.11572665207241135,-0.306998892323945,-0.9005287574461232,0.6798032456555245,0.7267508299206268,-0.24250674512471113,-0.6563381588608052,-0.7647988884727754,-0.1322670900426251,-0.651670906297344,0.004611376432825903,-0.026967714126269464,0.5784668363830325,-0.10828144645372377,-0.5455243449700135,0.6415903263701265,0.48871612998297465,-0.7239097923128792,-0.6130200318628053,-1.094009968768112,0.06557859444341756,0.6287182191623236,0.09661280941672386,0.510199641060847,-1.041884086084587,0.8803730699822451,-0.8786262366533095,-0.7838621283973366,-0.16434064598490072,0.7992313258177528,-0.14934382083290557,-0.24133340712890441,-0.09268420991852415,0.9473276802640141,0.027017814352199392,-0.7514822202539969,0.397660431426955,1.1011246746596495,-0.8282662128093341,0.8677694548989229,-0.044167756673745964,0.6213328315513802,-0.1657003805022912,-0.10192450265277203,-0.1509477302360409,-0.28941552876088567,0.24156427222268523,-0.34627180272138985,-0.6290914339214745,0.6398472368294048,0.07046338852957161,-0.1477046595077309,-0.7260712506294383,-1.046998334677697,-0.18673368402514443,0.7031821412364927,-0.48329839940076297,-1.0209353280279807,-0.1989119640756923,0.7583113235024136,-0.17022714175405257,-0.3778911258797769,0.2775491633996187,0.7875877612778365,-0.6957470111874953,0.4463482110696455,-0.9230048680105459,1.0179477169236903,0.007674530987964253,-0.09782474012408925,-0.7485305211485546,-1.0226669686133432,-0.42737280847316905,-0.8537873682050808,-0.9985670618452901,-0.3062176185204727,0.6689568022053262,-0.6464250076938469,-0.6579293871088624,-0.5310817441723192,-0.1447924118708479,-0.04432467457955299,-0.7668884344782044,0.23917624128770032,-0.5341973040715502,-0.03204116648335935,0.6619778466072757,-0.09729847903143071,0.5588668776187166,-1.1393893444385792,-0.0027700639593633367,-0.501129113502583,-0.36679047637567896,-0.7763345867314854,-1.0662704280006465,-1.0987428880583088,0.5812947955605892,0.19049736477694817,-0.49782545524522354,0.10592314697809219,-0.39534871538511185,0.1787249030035905,0.4531808542330475,0.41944340540744973,-0.7790329167946103,-0.5806197400075302,0.6294575060540185,0.3852734011159366,0.3584865477557109,-0.9729310864648162,-0.9782071821846419,0.053002002182671856,-0.5490792544228966,-0.7105867183802874,0.03022461844317095,-0.4563415637509512,-0.048705468975139124,0.48693212038162065,-0.4066657995114154,0.5962705471338332,-0.8455188161588032,-0.8315426619129815,0.027238304032809826,-0.35117168465003873,-0.22358922455812247,0.2899862690353465,-0.7218382754073499,0.03960545796885297,-0.2631558552106484,0.3554231915253663,0.854281468627382,0.31800876634627034,0.40895768834631213,-0.163968520111738,-0.060353455576585606,-0.47716062683881777,0.6980100539359495,-0.5027547226758842,0.6679081042760527,-1.1709178328851297,-1.056488688082858,-0.749844215075118,0.029346023394341305,-0.9059156005803632,-0.9378914135214206,0.8942562143350582,-0.9383770236721096,0.17543432753333707,-0.9324238268468437,-0.3975135240895746,0.1912229875602401,-0.2008259130782058,-0.4059417930030298,0.7456430464159856,-0.8146672363725013,0.008946990485807079,-0.47058766325192447,0.18827184342272266,-0.8554729396691544,-0.5323297735781631,-0.8746998011208547,-0.35434116799714127,-0.216029194122131,0.8275087899756002,0.7181327034723255,1.029842986568287,0.23962462256253433,-0.34201507024694017,0.45758837495625715,0.04375202526432318,-0.015818267920989018,-0.3403023347685429,0.12001901928663651,0.6007278904891911,0.7892610316020797,0.7285361339738848,-0.42143302844086644,-0.3348922982745289,0.09936741830983659,-0.03617567514146831,-0.029822090124402775,0.2606717366704663,0.20984053998298505,-0.1428140577996842,0.6484162680205542,-1.0443188343259653,0.32634241242533263,0.3853246996768723,-0.8849993649102076,0.8983773149606216,-0.2074946009625564,1.040263745048505,0.873693718608444,-0.4682648460272356,-0.5280746124124649,0.4642799291980933,0.7221500058471113,0.7435333923757187,-0.02977705360210281,0.17479843642713258,0.3363833049499269,0.18822133820321188,-0.5719392692378943,-0.5639754269932712,0.38503370102191814,0.24802942567078895,-0.22487017637536524,-0.014586738391868984,0.4314373870795407,-0.6620945177366255,0.8054801320424784,0.8951477231162678,0.24336655611280683,-0.0032246511186652337,-0.6220485343900491,-0.7447795498548414,0.16583440784943626,0.893098521359421,-0.768427067417021,0.09441424231722395,-0.7537873187177251,0.27647368388889565,-0.09475350226175544,-0.895694903307863,-0.1746763176799861,0.8755804104438162,0.15638278734739022,0.3095653867633814,-1.0669117861490431,-1.0518518224577775,0.871449350928466,0.1659936643837212,-0.6659112741993659,-0.7607290633761498,0.8775118891395457,0.6509078644092872,-0.10982501770187733,0.49701789629178295,-0.3392708545552075,-0.519699134254854,0.3771345699916031,-0.7552814252202077,-0.8583335788057997,-0.08508829366609917,-0.54855775841483,0.8243329923572135,0.3854980849257441,0.6090645016267245,0.37793477419762606,0.8064986540781001,-0.8562712977993143,-0.8198914946972945,-0.6650932139075865,-0.11278996493951567,-0.6847106001697281,-0.41195638267949847,0.5259581600257532,-1.0268245787419132,0.21529845900665004,0.7355152835859876,0.5858213052522783,0.8389290477557118,-0.8477405708304228,0.34629203399765063,-0.5897811684097113,0.32288843797820205,-0.056776158712353364,0.5367990733560388,0.173113227136454,-0.6657638915591508,-0.8439724420851685,0.20223237302025002,0.8426286915407196,0.8234758348834496,0.05711443087629213,0.3323660480520866,-0.8483504869600984,0.6197809758281054,0.37410927631842655,-0.5113699016153921,-0.6283636319724643,-0.4866506457988173,-0.6647728699196269,-0.8450863603936092,-0.520115428764203,-0.8411846819716842,0.5089715432641814,0.7922493894417154,0.04477999859761221,-0.00013473262947328668,-0.8815878445682184,-0.9934018113617142,-0.984744222021632,-0.7787167840589014,0.5719917955144626,-1.0649597090004927,0.2519727185864853,-0.5597613013813381,0.6507194886544015,-0.3992967211552989,0.7024483940876358,-1.1033574464725906,-0.42844081389595645,0.07707409336482808,-0.6563294877621261,0.29541862115850903,-0.18574836437083006,0.1484682746808775,0.9167852912410962,0.04566976557057082,0.5834716875748821,-0.05197806455159793,-0.4622125003501306,-0.688175041884428,0.09593190042411018,0.6811036568894279,-0.506313918320355,-1.0929768658276133,-0.011994132700593246,-0.7884226993144976,0.027448753703189048,-0.16621045701635678,0.2943916343221169,-0.164896011906971,-0.7659287482352956,-0.18404899920709425,0.3725987817024179,0.12067110786280476,0.5496746866759352,0.08339819813439509,0.8648362088886724,-0.7895693686086124,0.582166933240593,-0.1534078123544833,-0.6290229266663125,-0.28060248775763724,0.04945638254886453,-0.3774493001515274,-0.5632096319556149,-0.708351484331172,-0.5326809664441851,-0.6065011727430557,0.28220720666640664,-0.8203631805482672,-0.8835131321299218,0.36843639783282406,-0.5394265721921235,-1.0590562908401788,-0.8073141293702406,-1.1478189812735506,0.3400928421124883,0.5276658618353598,0.05788048185033388,0.06456761588727766,-0.6184129386037344,0.7891565994663904,0.7827507097104252,-1.160405417491342,0.8484469164992304,0.1630085706958798,-0.0017109751825166873,0.05214543067720127,-0.3585641494217738,-0.43896838478720274,-1.0295430127271283,0.28661949707698703,-0.7095964144511977,-0.21764991030915204,0.26763525221089124,0.8711330835604332,-0.896012526473239,0.7581444873637331,-0.36090516780943716,0.05422905178787174,-0.8241949783707656,-0.043217207626998086,-0.7249287136767276,0.753736942753525,0.7332629275381335,-0.8372459916485869,-0.09636957388544777,0.45400863513502226,-0.5765719348692628,0.014913938265496378,-0.37612184681206906,0.7242147682424148,0.06386102406739717,-0.11011799060409068,-0.014792910756604593,0.5722374718760866,-0.7764821418266391,0.7520648973049346,-0.3237127039402606,-0.2202803170520582,0.28073856139523123,-0.021402162093971958,-0.8009036312132585,0.8167688330449847,0.16176653955604883,-0.9760241625052369,-0.369272902276765,0.295138991980792,-0.3188970103525557,0.7851882401325745,-0.17946446338848013,0.246091651952121,-0.3868824354591783,0.3584070229874712,-0.2146997603333899,0.10016794256203192,-0.2718019638084226,-0.30634131051070523,0.7937448241883915,-0.7541817251932991,0.396482350271778,0.2593934150722169,-0.5312863104886462,-1.0888477735465618,0.7331595281720349,0.3602921656914676,0.2818872345483947,-0.7060292862009913,0.3201930561314508,0.027971576825042827,-0.3746063828472366,-0.45710391173456333,0.3554231914588977,-0.2535370436014953,-0.8553613825998612,0.2615852859109796,-0.7016831199700795,0.945592970585929,0.925797091065212,-0.8623183830449151,-0.9426918450461697,-0.9057841225411012,0.2993087584693975,0.373412839246227,-0.79200088945654,0.012083065276945778,0.8340876113518063,-0.03410327905688038,-0.02825076609115699,-0.1867024731096839,-0.00956646988719794,0.4906483758814808,0.7587036152760719,-0.4076396170163244,0.5435218487123091,0.5385273193100386,0.538100496723391,0.5680658918513517,0.4161694708475371,0.6534748117347673,0.8958650921345127,0.7683013595267184,0.9185183043522539,0.9554660205360218,-0.39892473347928425,0.8692321016374996,-0.5332906231658814,0.7279641496138025,-0.1997781484463863,0.4969875098710292,-0.6275592469139524,0.651286624257801,-0.8351706558064519,0.021677049007876446,-0.07216427930486796,-0.5133857566325996,0.8696994790003065,-0.4646311545404985,0.3380758811100021,0.6533018663023211,0.8080984027512005,0.570522500149006,0.8544759015480651,0.6025734484361357,-0.5302710359505151,-0.6616980280232474,-0.30814987262177246,-0.6395891128731682,-0.9440281606241234,-0.9410600997972061,-0.9074016224938989,-0.9543714579411581,0.26220389074261835,-0.9083199731994325,-0.3326542472622097,-0.3235997447219119,-0.352670703103909,0.22313029259799147,-1.004280337561768,0.02159345141679349,-0.2714679567397559,-0.5863809889998611,0.2905907740441345,0.07958701610444717,0.8717771681010408,-0.1745662752606167,0.4162491368183814,-0.0601698798069947,-0.11489879926839916,-0.4244712457393279,-0.4156191390115089,0.44288917343347606,-0.9497488854764137,-0.3430584907709925,-0.790760182255985,-0.737928218346656,-1.1498919078757033,-0.9868678236800853,-0.04782034748794143,-0.20444726509400252,0.16376257966814836,-0.19949535612567681,0.8805971179956069,-1.0157264747399268,0.5604129482292787,0.26060027423017806,0.9926697624236442,0.7782680524008694,0.2703698841611176,0.6082875323493505,-0.2619234375649583,0.9852739308003007,-0.12061089322201252,0.010062649478870977,-0.41338203965387094,-0.8558405464610103,0.8052553886791256,0.056378525978446455,-0.7650432588656738,-0.5576984194208746,0.5804950785926897,-0.550079598690907,-0.4849780827552302,0.3619757580116639,0.0821615973517966,-0.4786132651857187,-1.1155579641386462,-0.7961438406972439,-0.5549173075681667,0.8950810039342102,-0.958966038177741,-0.786572453245617,0.7352012263187178,0.6037268138084491,0.6017841400085189,-0.10024930978952544,0.2958743460063499,-0.8947971462205433,0.9554993949395743,-0.8489235632740285,0.39435874651743164,-0.6556807918753847,0.36622601213578665,-0.6912365502460213,-0.11796608501314744,0.7576184452822499,0.13772882683691334,-0.936232262715535,-0.12638282610147306,0.4570501993738895,0.3624072295936432,-0.9861129896641243,0.16697289215969466,-0.43811462532030826,-0.7407913707422513,0.5812984122605436,0.837918551253523,0.8516400918645756,-0.8577656643950322,0.9107776655421693,-0.5309490674900972,0.5572403021453808,-0.7414247996053972,0.5299497965502443,-0.9785703711199483,0.7072197870719437,-0.25990861283674804,-0.797453049868868,-0.7660190668425124,0.6773370526524618,0.9233877966693151,0.7939925314323975,-0.8521171931896417,-0.09712986686969749,0.25411605973383783,0.14195526079319898,-0.5363749495776118,-0.5940763939204301,-0.6011213363967478,0.37871517346975003,-0.006931865005937433,0.9208062098428343,-0.2635907808706218,0.21796598909560094,-0.737095698066984,0.13780652282721617,-0.24267375562598537,0.026517720057247243,0.5272459355402412,0.19349040102321077,0.09194464020510831,0.8584624183372411,-0.14052256544689215,-0.5700506583754307,-0.743130121425659,0.9482140361300339,0.3010476146716517,-0.8654285279669323,-0.170873507515137,0.47068721387754336,-0.6694558574625259,-0.7084068570108635,-0.8493983896257621,-0.2926157380471892,-0.5152055750573689,0.47778680337437895,0.5674630071617311,0.7527163665445241,0.1139609398558779,0.492727007915164,0.9417769263801493,0.8429051267313397,0.7932246162106247,-0.43899040109950366,0.15893523646442226,0.5055420071389125,-0.5601779604977256,0.1858314126812009,-0.5130710500899175,-0.7477704120348947,0.3557029446457428,-0.23307324080729425,0.9089491841694073,0.025980762191397517,-0.44796999095211854,0.9273790822897466,0.2900966171313108,-0.9663742579252634,0.6487091684000553,-0.45152589503243545,-0.2260794647087438,0.7218116283920933,0.16949810902609047,0.3202662941323454,0.12814051223739234,-0.05106004183877671,0.14470338639891306,-0.05368620280722905,0.9277863410829248,0.7942852337647256,-0.32079649195549154,0.2003120789619254,0.6417474902951191,-0.9100126980812534,-0.4560442673537221,-0.9554418323081938,-0.6579079776749857,0.5888636323086751,-0.4894422346676805,-0.40031919356686607,0.04958821138622367,-0.18915652338074693,0.14434580196461613,-0.8210621189030408,-0.04825484854864103,-0.07710820608870851,-0.16121803727412148,0.03876019324665837,0.6235494362713083,0.5350514126296355,-0.5394233097490478,0.20247356875875988,-0.20378824034928267,-0.4694212977494541,0.7890797871247909,0.5239339692447035,0.010175061405188328,0.04546521386091491,0.4918742413493822,-0.7023970466607756,0.28276920531609656,0.44402094262780334,-0.4975972650793692,0.08809785940068537,-0.6312093329848464,-0.4256347638607272,0.37664775304873693,-0.7651435552281546,-0.02091161172707413,0.39421400275134455,-0.7445833845388825,-0.7158823275941533,-0.537374141884003,-0.8898839702021213,0.17053776767255702,-0.6377464263670203,0.2935424091069403,0.5687401212887775,0.2517499933610525,-0.4098465754846463,0.24149098643046885,-0.6257055212082763,-0.46460186951561133,0.9600294353319803,-0.17604425242649513,0.0018828895244058508,-0.9001333340159312,0.7512823079211668,0.20585362389424255,0.3437458127887403,0.7512286595674373,0.3294254596315296,0.4945835256001434,0.9074778562996122,0.11569536806662195,-0.003363351826060512,-0.1429475685257573,-0.23347130132004312,-0.8471367467242248,0.9123341449004561,0.3147862105482191,-0.38444285029037606,0.5345261045964627,-0.3907839243953759,-0.10200704371276115,0.9869758274733986,-0.4893618176777912,0.7841695394672783,0.8588528485518772,0.24267790709378723,-0.6098447730214833,0.2762723430451235,0.05389585945091624,0.3653172750976146,-0.5362418052237976,-0.47585622922983073,0.6834029849638132,-0.34711702812284284,0.5448092022752766,-0.06617671359411581,-0.15873654053228403,-0.7710873413216286,0.5288426995161744,0.434597762657041,-0.4084362130179877,0.7009711946304609,-0.5287009914126739,0.4655189680742351,0.3391337603617195,-0.054437412006945296,-0.07519884772773522,0.4412189015684822,-0.8247061142002534,-0.2643684096303953,0.09565102634077816,0.39392644475738514,-0.27522952942454504,-0.20339535817448162,0.8347753381875045,-0.09664911949660815,0.7907989631419672,-0.29707606743647275,0.7596039404499324,-0.8369704334126948,0.8128811868023649,0.31089112746240555,-0.37994498686562794,-0.7183786078066168,-0.7000253394867049,-0.2203949046636522,0.7352911779841467,-0.9165469534107737,-0.012966410210919932,-0.7066848535723065,-0.8537171405329855,0.5724679464412634,-0.44774259211591483,-0.9817506987798827,-0.19403118449323764,0.9166796570022038,0.44768745222413897,0.6776988170589808,0.9947327728373878,0.15906577293931168,0.0407978188800453,0.9628146750641036,0.5556888048168116,-0.3519360108624696,0.819325472684792,0.9140941893025174,-0.42768376175269607,0.17994811417696743,0.029324252723879285,0.21650442249256985,-0.546869797009107,-0.6182525620427053,-0.634213133083555,0.9373595448175158,0.4404388562483146,0.29415052728481084,0.9893909538575205,0.4790629726116771,-0.9975584000569264,-0.7277398611927317,0.14793878018389583,0.5871418980229433,-0.24418538313087512,-0.4717159938837838,-0.07904506949255263,0.02521654380408256,-0.22031041057618372,0.5585744386209648,0.9438201977345284,-0.4096554766500391,-0.3145487008698862,-0.9324189548709483,-0.19454820441362997,-0.3301858730802636,0.5484831747522527,0.5237673940899426,0.9662710542811861,0.7977961135132008,-0.8196670715328627,-0.4924014520212552,-0.31681485171213253,0.3818657952734652,0.4825605677973055,0.6643751640043536,0.6711249251831755,0.8406832388480268,-0.36033325390014137,-0.5980897943063765,-0.3634355744353568,-0.3146465874245876,-0.5450262606272911,0.1969222003514246,-0.03880300088256439,0.014136319726445468,-0.9938029005589633,-0.27880924743075375,-0.31065181887465276,0.25183200666944583,-0.666796160579881,0.6279840343460936,-0.45834043522998935,-0.35592134128988245,-0.9219284452071612,0.08020855442589425,-0.6000652047761775,-0.2567558782372301,0.7491756742005491,0.8083416670713605,0.30658994692869945,-0.8803326826702872,-0.9664350082951448,-0.8918606254071249,-0.7050207134245883,-0.7975196152518863,0.522696700688247,-0.6199033023986088,-0.9545947451220139,0.9680174732672849,0.4589414617785311,0.06104758239531701,-0.4748769994198503,-0.04052401611872607,-0.13055502837129968,-0.6661560371211712,-0.5893741401399131,-0.3218297605979152,-0.07006519736974937,-0.5835591881638071,0.5552667116743835,-0.3771008323726059,0.6329654935981912,-0.28366746781711594,-0.013307814845231924,-0.3602330023573358,0.6700085166348803,-0.7549247913586216,0.0861264317782284,-0.7130047655566453,-0.5229923506523179,-0.15813473319804974,-0.32552416067504697,0.738463994034981,0.4755180076776,-0.5499259042719121,-0.3777297736625194,0.9092697525282999,-0.16961526530342036,-0.9562561937245385,-0.9936129361684524,0.7424367911142421,0.00563611787567003,-0.27687828657028585,-0.2739007967890494,1.0188707389541516,-0.5624707887384897,-0.15083658841870262,-0.06986683483585775,0.3209046549008926,0.06964616040677757,0.3945475218564896,-0.7006042044632947,0.0596770888759997,0.02733032817928903,1.0303822582625708,0.9820771011371636,0.19072160261850177,-0.784445296565242,-0.018962083175330956,-0.46365934318475294,0.698462910976436,-1.1122506252567341,0.1935102174893975,0.9020904060507707,-0.10278644394658956,-0.8236148943687414,-0.25983535958021237,0.0680785168466964,-0.31771134538735885,0.8522776826290074,0.46393835861280397,0.014223249667300694,-0.3422420208380806,0.801091432882698,-0.4394691657063661,0.6897935847066061,0.2965347261618391,-0.1821159288499849,-0.0613845690995966,0.726033071950967,0.15127266055497368,-0.4081681228218802,-0.9047609671495055,-0.8702977305889809,0.046878911266647345,0.9214037543462422,-0.9936174839110764,-0.020310642234938208,-0.05183911038078631,1.0076770897038525,-0.7141534349403384,0.7579348364502878,0.40847503868013263,0.5720873907627783,-0.7052361644320652,0.567563910200361,-0.49305612167245133,0.4373109046173208,0.3762222668838434,-0.27814701891215426,-0.7992459540901135,0.2987054595515076,0.4283873947052433,-1.0224421182419472,-0.1604786298671814,-0.5531267300946701,-0.30396101080580884,-0.5011340716034012,-0.7759347923163428,-0.5524816500696774,-0.4812243514653374,0.09188628930312782,0.5782531340767293,0.0714699467198384,-0.5623552934479195,-0.6084239724947909,-0.26202832136365567,-0.28587788482201293,0.560589309889445,0.21911424522242348,-0.786504231611202,-0.5199909580821901,-0.32082906263394406,0.41912358325719223,0.5695487594625569,0.488619743776852,0.9499809164412294,0.6468339563336531,-0.5022111742395451,-0.48174970795274913,0.17121420535583595,-0.5733538356163036,0.11626646605148429,0.7082638403898559,0.699255347921469,-0.2480492331812181,-0.7372516957402198,-0.9426584601629644,0.11824230953606156,-0.8986335978297981,-0.46347584647684764,0.9325179658082067,0.63798145541659,-0.4850453490579742,0.7197392419773039,0.0979120986917029,-0.9968790670741794,0.2827330186363356,-0.6130349705795535,0.7551688574879324,0.2773508005081875,-0.9752823484469815,-0.9321053284059514,0.5723114326499794,-0.16451239377992102,0.28462445751466847,-0.9302906184794882,-0.9403560426428456,0.8171141662515153,0.2228388708345512,0.16907116949236461,0.7183850613414013,0.8426033856411738,-0.24694917268422498,0.8326324691075192,0.21850253390003746,0.6414768392778761,-0.08040939802535299,0.4969025038720164,-0.7415645656128278,-0.6437876763780022,0.3786559339495612,-0.9718806185861474,0.48976116354945237,-0.8873908538748626,0.3587641064115537,0.0995744871828277,0.8887604407310008,0.44174179308384875,0.548667856719727,0.08507349206984412,0.7802608819302683,-0.6636363564945005,-0.2457531613412719,0.5247621881065089,-1.0934421668505092,0.7160645963758151,-0.8326723699535363,-0.6832405534491631,-0.3146253996178552,0.20943326009333246,0.1439991496924958,-0.8977129400444334,-0.518618722108503,-0.7148122863417369,-0.40732404706160147,-0.0776047622603532,-0.4267567133399239,-0.8039716058064569,0.05666376755204169,0.14110650283189213,-0.7405112937167435,-0.880003588652955,-0.3869832050502961,0.39895115890719174,-0.9606246062014858,0.5800669178222237,-0.7547530125804058,-0.16595893627177544,0.7816461713271559,-0.989066342239476,-0.657792756363141,0.7464916344817553,-0.918872563262259,-0.3532962365390358,-0.9984654860430845,-0.177950831268323,-1.0295425824210283,-0.6861599913090994,-0.06576733004351788,-0.9731537917376692,-0.6440050840209612,-0.5216052533569193,0.3008940044978652,0.8371793119969339,-0.947786599466591,0.218355529221528,-0.32535839536934263,0.46175149417762296,-1.089133167851101,-0.6226676728490118,0.6774392721288367,-0.02593008153925903,0.7724535844550913,-0.9869241105569779,-0.5207438120351199,0.6890523214514976,0.6374124925323837,0.06046558816832754,0.8612862023082515,-0.38829349395659896,0.10593022416259491,-0.2306573745679133,-0.3840280404461924,0.936773022739959,-0.3133878163425952,-0.9102063824886256,0.10293230927700175,0.14598725283621455,-0.46657619402926503,-0.847298820629137,-0.9820452846477344,-0.7550312157486476,-0.8823826237575583,-0.6016755054684145,0.18782982417626642,-0.41956101057505835,-0.6874956656802702,0.8118608943770695,-0.541013135720335,-0.7597190823384401,-0.3184828590061469,0.7499548566598572,0.7144917945462969,-0.2691348041749493,0.44972800563987203,0.8191573750076016,-0.5132181404738286,0.34350583862355855,-0.8340106262745101,-0.8784210663405148,0.7148588273826476,0.24257123889796808,0.35680530033997565,0.4687086559602631,0.07566030463901122,-0.33791530692383687,0.5186957010154193,0.2921294438968263,0.5280697983475792,0.0895609154505095,-0.7894835383243552,-0.5108434052601862,-0.6373319057830636,-0.7555996145884216,0.6547238708071271,0.38493044796023246,-1.08273211909205,-0.13502561072018274,-0.07648207991720114,-0.8154456524861229,-0.40626062193794404,0.840137820009979,0.3068248907642844,0.046928991412963326,-0.6763667747851011,-0.36817606004246356,-1.0165493189968269,0.41128846631577753,0.8906096463092874,-0.13893409417270702,-0.34482600970604904,-0.5260511736648579,0.5347281685728252,-0.18637688811016237,0.6252379331403343,-0.03537359632522621,-0.8581233153410578,-0.6948802761951537,0.6614781778793292,0.15017031220830138,0.010879086635995362,0.22265052602924998,0.18784603366149258,-0.7254129442833711,-0.38331823252312547,-0.2245312702517641,-0.6352165403352968,0.39975589525920674,-0.7240020858463039,0.6801804349251274,0.7612935791043408,-0.2895613343635,-0.0009830174094531496,0.43482687569519546,0.8899948402526098,-0.6995598433225757,-0.18581863744080684,-0.9232750953477821,0.3550148565237129,0.4176458464136105,0.19093175008643365,-0.9594230714295039,-0.9829967005582614,0.6139738004402601,0.03687564893812554,0.6514418389656741,-0.037199683077040704,0.7605506301146369,0.21918060809837697,0.8759479469647211,0.5411270882470233,0.5003990160305753,-0.024595877138836143,0.6979377130055016,0.07651841473017452,-0.21716146859668758,0.054781058642102094,-0.6153624983073119,-0.2622484068364829,0.7860405676690344,0.2747970496898048,-0.7338879673798948,-0.5613703651065736,-0.7253602669639743,0.009706792820387708,0.8724324232106614,-0.43026173653149313,-1.0202293602908006,0.12556508994126114,0.45871040159825693,-0.05057081330864477,-0.6130053038620886,-0.6006707262906338,-0.7069416876567972,-0.24369372150740068,-0.794400626775643,0.27137045615199334,0.6995806909319331,0.15249936868001493,-0.7061040920742578,-0.3114600824833224,0.33837242799206557,-0.311321618742058,-0.6423428918791138,-0.1417292369134835,0.744693475127706,0.5512954016238605,0.15449145971964034,0.4866757943870704,-0.6646747383797829,0.5796632769048594,-0.8198174631943718,-0.22734439391281216,0.21852756828230782,0.5900766441627434,-1.0020744445952587,-0.07260317501706501,-0.09225164176012365,-0.2155717328816831,-0.1101633442350426,-0.6934391072622974,-0.8802127112310989,-0.7350748047909994,-0.8516168835683103,-0.6024055086653064,0.5328159012899253,-0.17670657983573246,0.29829576660170215,-0.1104101340018782,-0.7469563201031105,-0.39527162162172147,-0.40792805189616343,-0.27272714373419416,0.30586071790931035,-0.2260231494435105,0.23094197279260906,-1.0592243888817157,0.789701407195088,0.3922287651481386,1.0124490894041347,-0.36361843999225824,-0.12265996703432573,0.38241696518351603,0.012687759544974106,-0.7459329521830764,0.021716052089709642,0.5596804158023124,-0.9561973371859646,-0.5414459493526133,0.15947694394269707,-0.910913985960515,0.5890686078973733,0.716096540468059,0.4350479058751292,-0.9494821998633431,-0.5508236126940224,-0.24810435992324817,-1.0358997429146,-0.08181081154569486,-0.00011629124482750579,0.13532988550769462,-0.7888615379697733,-1.1349871311301947,0.10480106877373202,-0.5750674110338205,0.2403349033028594,-0.060756075200842356,0.20360535536919913,-0.3354786314717267,-0.7026540030540727,0.2846713619315418,-0.5310775287736219,0.5117025452398855,0.3175274111335254,0.13538833955567256,-0.9237060039603777,0.3204279829689266,-0.2876873014710194,-0.6415331270339134,-0.7020365774514247,-0.09233173870979368,-1.1515679641868886,-0.9208678812222992,0.14456932032055061,0.3646075913199954,0.7420187518838347,0.37998389893259926,0.3176437235686353,0.0749221957318098,0.6475082082906078,0.0592887418715606,-0.7434745683544652,-0.545276023422777,-0.3016264771822558,-0.33119910419509013,-0.3019614042415127,-0.154005637099345,-0.6031526325995746,0.2695796254653957,-0.6041793655653972,-0.3238908924313437,0.045408947804786354,0.2612095021771965,0.07655047651569312,-0.7219840451947647,-0.1826422229684398,-0.5725076220800323,-0.613720467403283,0.010950418022390196,-0.7377587901081005,-0.17900530342773233,-0.6305503992208301,0.48130726316307415,-0.698026804605678,0.8539025536603464,-0.3621952418538749,-0.45411149733903056,-0.28435051162971875,-0.526039554150108,-0.5783496156842132,-0.6317780062473558,-0.317012187883878,-0.457770689766391,0.7646416011810623,-0.3740307850508751,0.19777714490095896,0.4613325824735946,-0.36002145996624557,0.6597568426287727,-0.42429534977403766,0.647511516937079,-0.7755767834535926,0.8510067704250003,1.2045585366826923,-0.9968037657656241,-0.9069393747530179,0.9507765187780366,-0.47056363272913476,0.07165386706629567,0.14427896192949166,0.11247159959645897,-0.8270096555277194,-0.33715486010435247,-0.9454565459435491,-0.6338911496717097,-1.0327020772849942,0.3896335613794431,-0.23740052627985153,-0.6228512337290311,-0.6330640378657977,-0.49301578934028545,0.44830638183583366,-0.6172737762079031,-0.9012809327797581,0.3411587536543951,0.7190502506270339,0.30386282515114693,-0.42441727741542706,-0.08346482771818413,0.5627502442857288,0.7786390583745288,0.35058218794313334,0.17672198341432171,1.0435125202346878,0.5040384337435418,-0.6076665557185439,-0.18252749702612137,0.6697879046720259,0.7234827131418687,-0.8122606318417983,0.631240644182985,0.6508082644528739,-0.12461169783408786,-0.7075473956199672,-0.4548985087674057,-0.7189075846354767,-0.9945898552932092,-0.23814255899976478,-1.121524056374033,-0.0953093915981334,-0.5039645433605705,0.0926224371039243,-0.26217059611328936,0.23722477759916907,-0.4896279810764174,-0.34309091998156704,-0.6823987436377472,0.38986011888097416,-0.9501888891863453,-0.7838836095751471,-0.3527225849764201,-0.4251210541959928,-0.903054044540719,-0.10795320575651113,0.692523851801085,-0.8833106045280833,0.1508383301639486,-0.8790313268207743,0.19568513190320938,0.41371713889950196,0.0778317299753683,-0.9659678272058801,0.7447061671572832,-0.8032609453920033,0.02665578792922294,-0.8448129648618824,-0.4884535587182759,-0.7735516801116331,-0.5060005554744402,0.03151779836041204,0.48304972628778103,0.053504161856583465,0.4670898526780771,-0.10828984540705519,-1.0449211493335848,0.7576269796459716,-0.8034118982068627,-0.9129882834359127,-0.16491480461963648,0.23407551964363751,-0.10761655096128643,-0.4190931986526571,-0.24382749649268134,-0.7159324613649464,-0.9799791736608781,0.9429294102303025,-0.21042247293652358,1.053131100219568,0.20357382469353558,0.37921311506294114,0.5761770510247192,-0.556149489871995,-0.46601895495210405,-0.6342474375177766,0.4923424221917688,0.5239634421310538,-0.5151612250785038,-1.0070056866442239,0.7700859086930115,-0.9499586321667772,-0.49725855817609194,-0.46725976618141585,0.06235927680962244,-0.9396449944323385,0.42535419183572826,-0.5111726027607857,-0.056579828705737724,-0.6317929554900381,0.32024201612413705,0.18753792169693956,-0.13852614261783772,-0.25124222538607954,-0.06345760334127362,-0.547641788697875,-0.5741665042211916,0.8411431320189983,-0.9389302872781731,0.16900092284395965,-0.865608055673399,0.6848482010659034,0.7365979782490272,0.6668035644575647,0.49866036627015675,-0.15392610843552507,-0.4359716416210893,0.676416386683187,-0.4867663572714218,0.07874014279249182,0.8543696895940509,-0.2502765970023597,-0.19780382779160927,-0.6246869823468265,-1.0264144445432695,-1.0372266158709456,0.002536784799533097,0.8504574275572836,0.8785205135997959,0.27951863262194754,-0.2801028075715755,-0.3402786410312854,0.13870487275059865,0.1616071618990027,0.7970448880902121,0.07280822338169522,0.8090046078451837,0.4464109523066675,-0.667217666657061,0.17768487351183432,0.758966424079241,-0.22640011434836688,0.15466902595339208,0.24351984291741424,0.7851502492392768,0.5720158370493906,0.2536678163066833,0.26844241896965854,-0.042028462552185876,-0.9804674813899098,-0.9380797996345313,0.19065066465759187,0.5476308390776056,0.6245363225988683,-0.9790988834255876,-0.6280790388687539,-0.6789909699833385,-0.8925686644410817,-0.6029649587156627,-0.9707803721825399,0.5104625322487607,-0.052751468942459134,-0.3627829128041583,0.85456985547527,0.9674759871801707,0.030114123472885466,0.9653896844689389,-0.8668481061637364,-0.9692172167640187,-0.24163001263679804,0.5707362545131034,0.8868635628276723,0.9055927242555939,0.15465910678584016,-0.6489614311261868,0.60884776785062,-0.05915801454958653,0.8582569187454909,0.4964651608597702,0.15519958925111854,0.8817302981140455,-0.7526839268620016,0.3474846101839175,-0.5523028025550678,0.2423214984705316,0.7175165673885747,-0.8781893791350149,-0.3724705709754485,-0.06369944008138671,0.3768091852889788,-0.8995924036576015,0.5317180427873719,-0.6605211518121539,0.31126513541926165,0.6136876107033417,-0.6494967402727865,0.13071455802921533,0.333537139207137,-0.3693994468970235,0.23275829103810697,-0.013347871903094726,-0.8770701530259332,0.7933698728687258,0.27557390028875317,-0.3816306158249907,0.544198360083705,-0.25115068339940877,0.6711868846335666,0.6233809571911929,0.1943255186394318,0.626433272984953,-0.6501995273731389,0.08925735989034,-0.3281754132036973,0.861850732433447,-0.8697405609854234,0.41736913964005745,1.021970924916555,-0.24106423026229162,0.2904407505863571,-0.502882008825318,-0.026822143028619412,0.5153290677866624,0.43396285234120446,0.9424168630549804,0.5917452983421416,0.7524232625275288,-0.8347407781804576,-0.1345960267531737,0.09816250317584149,-0.9034071338548363,-0.29262992076990957,0.6874873171346273,0.5153415662706476,0.248845933114412,-0.8502517692281746,-0.7527201059940164,-0.11564260856068563,0.7035245864613991,0.7547171818811605,-0.6540243728671927,0.9757915288198741,0.11405998680867294,0.02163481381361245,0.7310821637907994,0.827852174370926,0.20290740868810553,0.03383558371507428,0.7475696024605146,-0.5178998802685589,-0.2340781639172941,-0.2226953721290563,0.745349359727865,0.7728452347872489,-0.9408667805526797,0.22763137061772507,0.9080098336133168,0.07776328039995388,-0.4435336180308869,0.6909543129526331,-0.14845421896823996,-0.42657096391535104,0.8410681117519855,-0.9904245251290501,0.4177448022813804,0.4060362605143114,-0.6925527180010985,-0.5153614726149448,0.07119512813396188,0.6739757583113783,0.0428061077559224,-0.29720582794842143,-0.1525761550936411,0.7169935552079487,0.9861113061876379,-0.6889488953047301,0.15962463987065015,0.5188528433439475,0.9026286484346279,0.3425922247428397,-0.01888831969475735,0.5107075419345064,-0.8820662936032322,0.2735512238523463,-0.32633286326039634,0.03124418655887662,-0.7732043944726217,0.6627517349850651,-0.44406925082228055,0.482148858956406,0.32934544704868407,-0.45585729473924674,0.15785550579317942,-0.979110831623403,0.08777455031024561,-0.04175026485236066,-0.19887293548717055,0.5089277404513319,0.7686718825111984,0.9900044533133434,-0.752314701330856,0.34673005889533304,0.11441470388409014,0.020950965016457213,-0.9247877796014543,-0.052931822959855435,-0.9997797073546737,-0.09862245484603838,0.047123082407303896,0.9915405287392882,-0.4513032343053327,0.8093855415042908,-0.5135481055861999,0.9831930129478508,0.3581128375436098,0.24431775607860895,-0.7234606861322284,-0.31886886294147176,-0.19407831664928366,0.6603728919900087,-0.8232016840347853,-0.6995982623647716,0.02884589135880633,0.45230651135634026,0.3166455130875696,-0.6497636004502376,-0.4226631740046607,-0.823099965252013,0.5840813398485336,-0.7095219585810337,-0.021079660611412088,0.4940881469655223,0.3934453001795608,-0.03659243295532688,-0.439541811382792,0.24211013898617373,0.5806742948696395,0.4913873429693403,0.566356947574153,0.7308441148795868,0.9577465489141042,-0.7386612063045994,0.2952346350765733,0.6556749786124301,0.1832119500925553,0.11544557082922746,0.27609911134142906,0.017000720395965452,0.260883866082676,-0.7257298640288581,-0.8833490213193449,0.9748072862834736,-0.0382071229875276,0.9442699711936056,0.98399624086697,0.5964712506848624,-0.9676873380221236,-0.16355869637229636,-0.2445186833598323,0.060176310892573914,0.6294477004070635,0.07363584946191892,0.6526709751206266,-0.7582623547086251,0.39777893624709426,-0.3504007396020654,-0.513705970194497,0.6646761736794429,0.7159870596375042,-0.33765141616286565,0.1807253883124773,-0.49208932822634255,0.9714546964433366,0.06487156416145079,0.9138140995936486,0.0880417016604309,0.061987293548287914,-0.3261695252853747,-0.8148263765595265,0.8070653202046301,0.8882185419641946,0.5012760024589453,-0.9849921824476846,0.03767736220107265,-0.2207406384978472,0.8806579283724199,-0.41946314184920896,-0.8807628116474675,-0.8454947450626802,-0.19766123465980878,-0.7572259984205494,0.3516406363498841,0.5805782047663746,-0.41803970035704663,0.6646494955277888,-0.7645142714151505,0.30966239914354343,0.13826893776008897,-0.06781132339836349,0.3946597980828459,-0.350555357443282,-0.3123332904342028,0.9284054439151238,0.9912934418485924,-0.8898966606435414,-0.538416292305109,0.2747139541627193,0.1779503936855305,0.4570109788078237,0.9644134555767536,-0.9058322292474049,-0.5571580340895333,-0.4020923329511777,-0.33408715298741454,-0.1597398982008133,-0.32040650731773496,-0.7831609873339641,-0.3790576111283291,0.16652890866102343,-0.8758319696311629,0.0881692409888527,-0.008106680194172669,0.945150270349284,0.28462567613471773,0.28332431685741294,-0.25845129579961595,0.39163515669643345,0.9120028875858958,-0.34479488530258773,0.46639875945540865,-0.2909561221398141,-0.6371017001943221,-0.2785419978432771,0.17591557499727192,0.06844793180807938,-0.6932435993379907,-0.41852210691458297,0.6630024490270073,0.23116625126461143,0.9031761634604379,0.8381850899406225,-0.23312706211908282,0.20381699718516616,0.01180227064764389,-0.08574751102945657,-0.247448121041532,0.40302843895890017,-0.91227871466968,-0.9105249776597717,0.057473427138897075,0.3266745109993242,0.9474165456949379,0.4030305440430429,0.3302094601825305,0.7146021937918704,-0.13295434191378067,-0.6452685898858931,0.23124752316080005,0.4588807232401187,0.6377478881382006,-0.11093354384010085,0.9379289862602079,-0.6546022779235843,0.5710241746675659,0.04178844943822847,-0.7262146787041716,0.8569631638465327,-0.0176894131659058,0.24599209964356156,-0.7291221515171665,0.7820972124555592,0.846277006608664,0.49549174110870847,0.3959376146248956,0.5782101265360743,0.01682616636442663,0.005763804722417699,-0.3910418818219049,-0.00023306596728069285,0.9667941210009355,-0.30055788337025163,0.3284897832048462,-0.11928921338772544,-0.9108127757940061,-0.9755622392627467,-0.1806161085425555,-0.6238152046033973,-0.7786959351261007,0.3136086069275151,-0.637036846361215,-0.8962257076473292,0.2048093590955483,-0.06483296295206717,-0.5723099436284406,0.29177440781916636,0.06622582813905904,-0.7464296370640959,0.7873563950373516,0.5820312521171556,0.5497917461703231,-0.7077401153993103,-0.30979676825820407,0.40282519603231853,-0.10175142572504034,-0.2840246762107158,0.9250331107891977,0.28503693643831995,0.48949794327883006,0.599669790953394,-0.5674675635728834,0.053252148409151094,-0.7683362037989335,-0.24092340535938117,-0.07507387171301964,-0.5197126552483957,-0.4846634095947757,-0.5308180342125774,0.6019633571279436,-0.24222070939352616,-0.21973541925631263,0.6071744496924735,0.15630165867098472,-0.5942237576933435,-0.5062010889529265,-0.24635301020025027,-0.8923165838521046,-0.9648254467024628,-0.7812379661638841,0.3422297764742069,0.31744682020137654,0.7794313615961217,-0.2887359500966886,0.09182441899015106,-0.17335339023891713,-0.6218310025538702,-0.2850457077962207,-0.735708493510033,-0.7941748949106816,-0.8364793532714835,-0.0946420596968115,-0.38372673515892164,0.0047467276908838,0.7667866316071265,-0.5777281050476303,0.05635117803456951,0.3493539607617622,0.29313015227245226,-0.7549113337827759,-0.8079584264246001,-0.2506877430306417,-0.2245270286167229,-0.14525541795567828,-0.802352165498676,-0.6681500363962218,0.5703210312054872,-0.39918159538865833,-0.4588488598393057,0.08384865643261985,0.7498458898064241,0.4199924378544461,-0.8051173997227898,0.13663840299508725,-0.8340260480229508,-0.10688413688881139,0.2783647143410824,-0.2117893882480024,-0.5418184715980797,-0.6817853448644104,-0.9174648205672533,0.022589376912800385,-0.5902017873231328,-0.8265905024080029,0.36691507539642987,-0.5804078011590303,-1.0354318963616636,-0.3945762277249066,-0.7088278188796429,-0.807817998995711,-0.6842185851955976,-0.6177021839902135,0.08221213547818759,0.8214500987128815,-1.0362000074377327,-0.2598020243273163,-0.37607853812260994,-0.7664768816810325,-0.6963526943443117,0.8952678017966788,0.8565518245815013,-1.00132769226867,0.4176689344219257,-0.02549089225132305,-0.23871013309728234,-0.29315848331158156,0.7370790994549957,0.13357722563804078,-1.1116897691924101,0.5309026568105981,0.5745478051666618,0.5388887596801976,0.29162509105173284,-0.04071476033863232,-0.6932644019996759,0.3056205161002185,0.35091674869669537,0.3487999401313964,-0.4492981208727525,-0.2679769867034189,0.6879387192115748,0.6560839270778275,0.5293879837434987,0.34782386814824956,0.41920106442207655,-0.929975914334025,0.788620565901428,-0.052826335441941444,0.5843501437933323,0.5151690029430027,0.4558549200484014,-0.21970610593380965,0.10403308065271635,0.8805864043347199,0.519351973103982,-0.15435266586048343,-0.9914062651473837,0.5235616906152072,-0.1831043397689633,-0.9323579077528529,-0.1314630493513034,0.21680273455261156,-0.05379454299247672,0.22252832860507793,0.2738392573137509,-0.9695582692960553,0.05657009937692427,-0.2226475432543721,-0.6750038059213224,-0.25459272738799127,-0.6190826907801115,-0.5342608944965304,0.26430391164678674,0.4229265542627743,-0.8820016536896221,-0.5053207338052651,-0.14079804932017756,0.6116437360695208,-0.9618087202689617,-0.5496426240679709,-0.864268865457341,-0.4414172342441391,0.9223346799123484,0.8795325424449524,0.2784127633685693,0.6134003481928854,-0.6552761277428113,-0.2154260981126222,0.7472948081213407,-0.10618601768582318,-0.026360366940969323,-0.8125970496642437,-0.1318298637966918,-0.2117517316535882,0.44612791612774644,0.14778567576712273,-0.13491940048005374,-0.7692002224171135,0.12598854006791269,0.10321758438531635,-1.1170319959096826,0.29177212688659787,0.18199336455125031,0.04811635796698351,0.5151569790457805,-0.19053531240323482,-0.5860645769780899,-0.390489705726748,0.2889978475675047,-0.2053137124786654,0.5384081886048716,-0.14047694395101668,-0.06498384101622505,-1.0782322946051548,0.47730788971612653,0.6866002869658678,-0.17755366388972507,-0.05826001036008809,-0.1857253076223605,0.0491568239308249,-0.5472348436008153,0.2660854789416262,0.3872606527542949,-0.23238473018147923,0.5743435439689641,0.5027448334995877,-1.1097694647482552,0.3250095355702732,-0.6495948902912098,0.16358029662403173,0.215283301537081,-0.3435241756084011,-0.9178456838614886,0.09459042017467098,-0.5038291387814888,0.15328489200854487,0.12556821631401724,-1.0102550240761166,-0.7990642087371437,-1.0880202473680147,-0.7064326079543232,-0.5772612988957371,-0.20522373786598458,-0.9980158149814339,0.5269057348194192,-0.6990144811484492,0.635144159679612,0.7304002650400125,-0.42487500049460286,-0.22210816032546912,-0.2325760982891864,-0.5104113296488372,0.09038152478814318,0.027825246588604913,0.07550293936793007,-0.8827115084240701,-0.7018111099659851,-0.8364164622765041,0.2313068735577467,0.09452870512975838,-0.04926465424727425,-0.81362842450827,0.03720068711354364,0.9767761509642733,-0.991054734377693,0.46167548594740726,-0.7639320661751787,0.6825936129230998,-0.9859380689512673,-0.797565942789564,0.30067830619814695,-0.8807557692069081,-0.7366835284674726,-0.4609047304434967,-0.7855795070080909,-1.2078982501375861,-0.739482261441022,0.5781228521311176,-0.8484067155600648,0.9293513025748863,0.17631827928859878,-0.12411776064069935,0.6029491955226952,0.2512348178988409,-0.11859909865926326,0.15530186650122424,0.42141561011514017,-0.6120797855416333,-0.26760266656289805,0.11238941340704015,-0.8936224019110365,-0.9595368977428173,-1.0401952090658255,0.7420314166512851,-0.5323201901928858,0.8783193834632709,-0.618898733146037,0.2060602495306207,-0.8292983226835945,0.7405990850829492,0.8015923257228776,0.4891653185629933,-0.8626096466473261,0.07336912288361622,0.6797417309514171,-0.04820649912894208,0.18621517936953494,-0.488425151716149,-0.6257002657931902,0.30509215699113107,-0.7636991080679428,0.33337654517550586,-0.5981250457349574,-1.0191228435700492,0.6722228037458263,0.08328905173373945,-0.512613287162343,0.25108402726052964,0.422919722601915,0.5172956118401242,0.4624135886178599,-0.8271318406441138,-0.2819416633947127,-0.12818150893977062,0.3742395851610543,0.7733043899971572,0.5389565984410858,-0.12128648791291434,0.059601309201874404,0.16884817857982673,0.9103025847760593,0.9393335006314122,0.5618528717049559,-0.630931859768575,0.18537220896235224,-0.972389491476564,0.15320035545783,0.049963317815308605,0.7883056110919362,0.020257805356333137,0.576563025378026,-0.5215643942276439,0.03926686902868799,0.40992224540497446,-0.8145798959645211,0.43692190690738336,0.36905050371092935,0.5565384985099057,-0.07976899224389702,0.7195031259455693,0.7069403871538683,-0.7264122824201965,-1.0938567727887243,0.4472882297251478,0.7901661620941266,0.6558723228643275,0.4549286931728673,0.25878953799880755,-0.2595512037487167,-0.4033330684563768,0.1273834385357291,-0.842145216934108,0.6975680030725246,-0.7363894319005512,-0.988381503284935,-0.9242505549036559,-0.6392043716562786,0.607038786949027,-0.028833174993771506,0.43347526175476603,0.478729593811392,-0.07010007344399256,-0.9441422359035642,-0.41708326291861986,0.7514856414163058,0.5576993689517533,-0.11952433892994625,-0.21224525479960132,-0.6035416960975124,-0.1553468015365883,-0.7727988085239155,-1.0031164121555882,-1.0022706038612854,0.3464012668847613,-0.5425734943118417,0.018156284288668875,0.29329508571180074,0.6933323328005329,-0.32605699259447213,0.08503959202753525,0.16047391114042403,-1.074215971799077,-0.38346636623549507,0.1580103448639253,0.6732057017147897,0.3567879815115864,-0.5216588061560501,-0.20551817753475007,-0.6965252871480286,0.8586319328986064,0.4183492745949234,0.7238076618022875,-0.7948833282544177,-0.10577620949323739,-0.43169212257474043,-0.641086973581683,-0.19931527106086688,-0.8139215549803938,-0.23862702358019272,-0.2464588525937731,-0.3771421538137098,0.7926170027477407,-0.8638053850116229,0.7904613222111717,-0.5149273513802685,-0.850366791556256,0.5332082019037828,-0.7240894378295858,0.5051537660536994,0.2267783128245759,0.08304214350050254,-1.143619454136127,-0.055371692835141026,-0.12575732015175606,0.5166046855646194,0.032666922573244765,-0.5342840389027259,-0.7477210853220293,0.8301581682144613,0.5906277370718299,-1.0323611947009268,0.18368957129139052,-0.2767685604133002,0.02902264818551459,0.1828746921536637,0.8342153173277398,-0.12358380879421334,-0.03050871802420401,-0.46573810112849295,-0.13141454416162435,0.560602280845339,-0.9836350104346013,-0.9937422868704833,1.0650726786305031,0.07555443196933705,-0.27384876935194286,0.8405968537481555,0.5508504470121025,-0.20258053047911473,-0.6799522365829638,0.13101789507254646,-0.9682510357715177,0.839107194023715,-0.7999913342528355,-0.6248811974915307,-0.8973209534544351,-0.8669124494746061,0.44951907395480883,-0.009008438026111619,-0.16232353435803254,0.8074539740651895,-0.7509842390037573,0.02984917019885395,0.015081828322369407,-0.4670151941691181,0.4417407152025429,0.17537971953141337,-0.19101009764205962,-0.887171524000143,0.31729722490164153,-0.9434635391645441,-0.2595580412772729,-0.47342181074764983,-0.12259878439926188,-0.37479869576202723,0.8895136523695626,0.6166575725184628,-0.3535443851425125,-0.61548656936724,-1.0271659093332197,0.7515270358287485,-1.0723814252787514,-0.20191295986889474,0.23414250559652086,0.6694250539026332,0.4409592448392133,-0.32127907312060944,0.46376477270366523,-0.7808094136604807,0.36591970505186583,-0.995003479392514,-0.6793592204555087,0.1635106203281368,-0.7032146628335241,-0.49061243668410476,-0.13275903342185186,0.37580806066423994,0.07521787667870226,-0.7204262712115246,-1.0557331227601323,-0.5685908029112029,0.4208504948006454,-0.7221856741278337,0.7608106654691181,0.09333725434758947,0.4894624960398956,-0.5149626699944563,0.646234869624456,0.07454521374797447,-0.8352779680489434,0.954147899884979,-0.4658095517782328,-0.5954058892523925,-1.0182431872081454,-1.0258266881658142,-0.04412590123775652,-0.3590331332447252,0.24434856811950173,0.1753610446037567,-0.8835302915748983,-1.0060457067628712,0.657166626833865,0.5106581472173516,-0.0443201844462405,-0.9379009926836591,-0.33480467978995226,-1.1373641409834712,-0.12155804428190918,-0.1886042298405657,0.7389308863156929,-0.8025441367442322,-0.8933530382096642,-0.783737337729409,-0.8427048727993088,0.40077074075418356,-0.8929506809799832,0.9328839123600018,0.45726949555377305,-0.77644616489952,0.505078411966163,0.17624567289586418,0.6643836828248109,-0.5138892695936965,0.6153404587532355,-1.0122201358087441,-0.3910749225611626,0.20541244703486947,0.7760672835342378,0.4840463765842983,0.8408399550045647,-0.2714368044662004,0.2966570243042417,0.14292989462945965,0.7582458023660699,-0.9228462604145758,-0.6827392724668465,-0.8774738233293952,0.4021854997928128,-0.9303958198707446,0.7884437393802072,0.3432768992908058,0.31342569087684563,-0.2363231256914011,-0.85402091940424,-0.7712810378424312,0.6626934181304603,0.002558658495102358,0.5721941333914082,-0.30475823424174947,-0.05782952104728615,-0.09335355351575697,-0.42954112320241644,-0.459524692232259,0.6762188013126156,-0.8618080907447526,0.8552020895383722,-0.7125315976105039,-0.7259564842987727,-0.9855795384923968,0.8863256396255049,-0.6802589399217216,-0.43122995747839216,-0.5650120745112547,0.3006024288279519,0.3781346083036332,0.449109989526216,-0.5405577900782947,-0.9594820778691587,0.4145694240713891,-0.9223828847337878,0.4729901071685176,-0.3679995699839785,-0.4395698306176364,0.03782217426747586,0.6913896116682726,-0.21553162206292234,0.4851774892492323,0.19925498959928545,0.17813554854018818,-0.37333717268387123,0.3643551241183383,-0.7046936748850834,-0.024154396998952284,0.013230682243264102,-0.016293146957721383,0.9220117742570509,-0.42461622035541075,-0.38430127133180314,0.8841146768766827,0.10868052521667093,-0.9634177643231688,-0.45802633063765297,-0.41981710923506105,0.38110989842011006,-0.7960494853438322,-0.8752598110127354,-0.26036779299759427,-0.28888574983933607,0.018628794887637273,0.39848585449966983,-0.5995732710808138,-0.011038078780651833,-0.23186673399435304,-0.6528854709739044,-0.2406653386465081,0.5270582256224975,-0.1071256425242846,-0.7324307845884768,-0.31969355910369185,-0.14061716674717445,0.14140521076407458,1.0192153607589463,-0.4514139413304058,0.2608132219151383,-0.27515142671666065,-0.18057019260466575,0.03926098688047408,0.6542629290582284,-0.8169894128674541,-0.7173601694911316,-0.38476484920805015,0.4779074207676578,0.14182398048283898,0.008313503701714393,0.2973024966437126,0.07784246074062541,0.20555640799229896,-0.5772342131581579,-0.643250754530155,-0.6435434603633742,0.15019084743497477,-0.8408976990390409,0.9218054977851876,0.5674171935389434,-0.23296472718427869,-0.5873153873729107,-0.5646897837916192,-0.9823992674285124,-0.8808340102668094,0.4195729476702075,0.0026395971382860667,-0.6765028686017588,0.4826771412379294,0.6694908470441857,-0.31632417497550164,0.23820091049480943,0.5922874322169195,-0.15239462148716879,0.451636996754099,-0.42241575940077714,-0.43712369845714133,-0.334825262446292,-0.7109746616778517,0.3939720462087633,-0.7392158455977194,-0.077275438977186,0.002430895206903034,0.12540188059871987,-0.24064171466530376,0.5621850682326559,-0.04189709651695094,0.6300451317630827,0.35238984939265106,0.28643722135962274,-0.029223582714375466,-0.527488225063827,-0.41977697814954623,-0.6066404014125504,-0.04829552860711094,0.6158369452013119,0.5807838457555795,-0.6729003982720245,0.8169716921401521,-0.6099127094429687,-0.8753164868920633,0.4078390016011331,0.4980472154874603,-0.853675623100271,-0.4705442072512235,-0.5349529227393449,0.5521067598897476,-0.5897014972279406,-0.4417886468294453,-0.9875755120327755,0.2472531398894056,-0.6191403028382342,0.28312470413003216,0.5979425712337315,0.8221693676825246,0.8487187340318456,0.7109828081377768,-0.9764915715719483,0.2564302995317774,-0.6877846212472506,0.5072110754435322,-0.8073101542993145,0.8932925508614228,-0.5226357565929302,0.41625867138106437,0.5879663078398095,-0.9498353383680842,1.044147956923098,0.6254015089618093,0.6649934636175515,0.5126306899240061,0.457262462503185,0.6938170792377375,-0.6746379636323995,-0.02826239515212445,-0.31420040779191993,0.8830961588634147,0.28908614389999576,0.5645794069740335,-0.29051392026570794,0.4336756165240961,0.4299902951275819,0.29123869804260316,0.8099627546915888,0.9353513572911584,0.3062327468852813,-0.16089541358350207,-0.6712467647036863,0.6879970070223044,-0.340955630543996,0.15687759419733635,0.21684481184022208,0.8694480711184494,-0.8568865463761871,-0.13362491949514116,0.7134854149052551,0.15481206729107638,0.9367656720888339,-0.9291508108456975,-0.49748275553342625,-0.2680625741906408,-0.1210533696311039,-0.5019358127484906,-0.05808213145984669,-0.7589453365708323,0.5803961688933988,0.4437834683948401,0.8566215980611466,-0.7220980026816787,0.12913683547124793,0.27116058627329037,0.2591143051784506,0.07218101807109652,-0.8489219638498096,-0.027051292671405568,0.3140766834503991,-0.6589350643174078,0.5286200029187655,-0.871467064444011,0.0624165181715195,-0.3846854940753188,0.12993445451807673,0.513641696888028,-0.5314535522147732,-0.17182669266095618,-0.8420422058647663,-0.06473869696063983,-0.17764863867165226,-0.9043435768681969,-0.5729820738137399,0.9321043617214326,-0.7709812176252615,-0.9783983456025371,-0.40779343847492533,-0.5626419750669054,0.6737095335235175,0.23343076171191401,-0.17616323967840652,0.3791098949044598,0.1541928576599807,-0.24496551211846596,-0.4009643266327729,-0.7314546153512536,-0.9860920546220784,0.6206449838042201,-0.7392167080196868,0.7977167220583055,-0.15388729315391259,-0.5748745268045097,0.3762312175651754,-0.8258439229047969,-0.5518507700548776,-0.11351270295406368,0.7797112641466546,0.22053183847634306,-0.20160903229816252,-0.040528768573045104,-0.644581277623262,-0.09328428219936247,0.6105989270539305,0.5813382176571067,0.3954458503080953,-0.4147972403820426,0.485393953428763,0.8358985643331371,0.47795956879691404,0.37589106863185484,0.83214507079359,0.04564749531822532,-0.40702227733041463,-0.319049662506677,0.5324948980650834,0.9061183322625794,0.21925132243747436,-0.9144175867250934,0.8576696504484682,0.8764273763694927,0.3717636815795493,-0.29142325133049707,-0.8534466989726679,0.3897649213442791,-0.7131979361900851,-0.3658086707773722,0.8448570247128948,-0.7712412027230491,-0.36859896037527773,0.09737632291036702,0.1722480355315359,-0.6840993209122899,0.7077790725974473,0.00558932060866435,-0.41118933010881564,0.7791731447937817,-0.6257966264050332,0.6272311713499914,0.06940786611098804,0.1477680058692037,-0.2076821423225348,-0.8866721407919982,0.46918324660641986,-0.03753905146313241,-0.27684244960854065,0.4279882109782467,-0.3117892283686243,0.6935797194579745,0.6692624206971653,0.023317575466043072,0.38364006112747817,-0.3422231161688847,0.1548629831966002,0.9587344258431993,-0.19111413089412355,-0.6247711416319972,-0.29556532875803265,0.3530486786388205,-0.5834127719968907,-0.7865144721013162,0.7215867243811234,0.9247013788515175,0.34722295056398966,-0.4766313448765289,-0.17922728418000844,0.9986347258605102,-0.5027933617563256,0.16367396055324268,-0.4902814899698569,0.052398008492183346,0.8703398271111822,-0.3529897432657678,0.21208705224107782,-0.8596835756759873,0.24709450385872644,-0.9782410841536588,0.8835225001536011,0.4968832806824328,-0.44510731558214567,-0.8105840647736873,-0.9144748145058387,0.22908204681914365,0.9588997039682874,0.30322048190308826,0.5452870713334305,0.28886290987092694,-0.17182449779059344,-0.9569829239479936,-0.22293014018748314,0.6203094105494739,0.8870351759495463,-0.003077315526018124,-0.20024877479381037,-0.31453242441745927,0.247371106053043,0.6426646235207248,0.5395134752332692,-0.9120643491609992,1.0001599938144485,-0.5560693449653006,-0.26233668188674986,0.6496699487413343,0.7451155659026001,0.5416933132507614,-0.7495527639822916,0.7519032661474025,0.8754070197965043,-0.3164456567031372,-0.642079375848078,0.5653192478450578,0.4429162209653438,0.5919074968552326,-0.25598517072112886,-0.2569078796791083,-0.6045268491183097,0.5757432875374898,-0.8659368205443392,0.5139514391554564,-0.20262706293022126,-0.4268539120747042,0.6931257609611919,-0.486879884087767,-0.43408067069696726,-0.14935798787251706,0.15075277987814553,0.3820935840910589,-0.6772671288088088,0.5177117172576741,-0.9336349918414507,-0.24323713483339493,-0.29034348832036466,-0.2848175282161049,-0.5147071374726072,0.028981912483492602,0.525823413236403,0.2861203227401847,0.7242349189756236,0.7408896805335917,-0.6143258423304555,-0.9734885381472825,-0.4664935953874501,-0.6590891648739944,0.3124042801570282,-0.36290130241215385,0.1912313376956409,-0.13334531863652016,-0.24332052694562467,0.6017437832932815,-0.7670546078134134,0.3309172044853064,-0.056852203982364506,0.13040677687016514,0.7971017638388225,0.5376855812490309,-0.7000407956503408,0.40721259472835347,-0.3714622746837871,-0.5462714873828042,0.47448234567043457,-0.3290399110619683,-0.8022362309584499,0.710762719712031,0.004720715430861286,-0.08807593690903877,0.8970771472320057,-0.39734250596466847,0.11117179844720843,-0.17418140497886023,0.6956243790778781,-0.5328559499966279,-0.5565143025619075,-0.8805043251852106,0.5966653392340282,0.8469670599770897,-0.5240138960039178,-0.5851410889390081,-0.8278887023300661,-0.950590063309152,0.5065677019125266,-0.40608862587628924,0.6377479573675346,-0.11132734370969,-0.9693699757534359,