0.01798585477566205,0.11706272543642111,-0.6655268813452443,0.1280796874542434,0.478413817190907,-0.0686597932705014,0.24810601268966884,0.507890546395391,-0.515085017972773,0.16392630235423372,0.8382564501702722,0.4320867511963119,-0.6810098016062522,-0.17605927233402305,0.575143597635897,0.6692099634494358,0.12923216193813217,0.5680281220530637,-0.5960367998900878,0.5438602109239526,-0.75940450207587,0.1695794903971006,0.28735770075660044,-0.011796991881365524,1.0867859980037151,0.6295109080108039,0.9246640503533208,-0.26698396680195774,0.8718105372831293,0.7923504281127755,0.43364919660305223,-0.8438844374331457,-0.7650402824958497,0.28101477703577726,0.5177717515287517,0.5172682048343797,-0.9697386570282452,-0.023000248459720023,0.02742885470153036,-0.15178469825798915,0.061819033330588836,0.5526942394526179,-0.2548946130356371,-0.023575009394151993,-0.703212947193012,0.2056966306673597,-0.7621972842169651,-0.7091417266683214,-0.34516662863717595,0.20339731053679094,-0.555503320710556,-0.12117324253677095,0.07736941605324854,0.5004389328028235,-0.14261834817338176,0.46432116080049407,0.7300351744928858,-0.7256346798162353,0.586782733116701,0.5790430984757396,0.2950971777920176,0.44808082025075296,0.9427436248414965,0.8237418202599771,0.6318420525463952,-0.16538907901714292,0.04484512473028762,-0.4946888960352808,-0.7762581432837151,-0.25512559955332437,-0.747582919588926,-0.8261286680924869,-0.3839250746656919,0.19486891741936405,-0.016100007176965365,0.5357097125786031,-0.6044935309247346,0.31106657155638967,1.4143200043376738,0.7456391855142345,-1.1276317414854236,-1.1162728386279481,-0.904550312474746,0.33223403502526755,-0.6061924994555111,0.6221512234050418,0.8394693879601703,-0.42629245172240715,-0.7477660109270733,-1.0834419766484336,0.880008292195866,0.7608551343302634,-0.6303295346170694,-0.23346095040880008,-0.4540352243263783,0.5073609556469054,1.2964542023278904,0.3967783486696463,-0.5396378923989472,-0.13419776501148,0.7873697372378206,-0.657709509289045,0.6191905884596771,-0.729276218080511,-0.3797073993453296,0.09194715988143615,-0.4321265159468417,-0.2287421302977366,-0.2084598001623984,-0.47696898481258027,0.21476338229704414,-0.642551785199847,0.7611692456403971,0.42292780477016795,-0.11147013333548514,0.35717204021044474,-0.1898933806028482,0.6545610652741889,0.6098319233217069,-0.6575027710594922,-0.09136411101088038,-1.1993489955405399,0.8262676407653324,-0.1590179316491142,0.17595682660019138,-0.3757496942935041,0.19573159154853456,-0.35323512230464627,-0.478721765307489,0.08842745634095318,0.16584104727170185,0.995323951385749,-0.8095740606810632,-0.46796388723018767,-0.7713180167859477,-0.882946988922637,-0.9095318254781252,-0.2627619129276215,0.683599939819013,-0.744292934192997,2.0858056298219108,0.5402936730781922,-0.0005886153189514568,0.3305391175782665,0.5171402219391033,-0.6310032710761859,-0.30057970885178603,-0.15929666259610134,-0.09780237069767621,-0.6847138339744147,-1.3597707935493801,0.5470151092511284,0.37516393096363043,0.3781035160603921,-0.26982329333698335,-0.8769956366541867,-1.4031759742740482,1.4488662227893363,0.016520447172467815,0.9187368260890626,0.06770001826923404,0.5191221499229577,-0.6505910196765771,-0.0903174194734327,0.41912702873389807,-0.9102708924778603,-0.5930361719096402,0.8346843912122962,-1.1049694230729652,-0.17658865189474945,-0.6486921826637617,0.4951159854475475,-0.018453980611069506,-0.13189579907446114,0.8095628222941064,-0.20051982777732058,0.08816914209008907,-0.6668684607325369,-0.8325131165968701,0.3086180261928028,0.7608563189475117,-1.393379021565539,0.49835830343630033,0.5388214338456693,0.687914870229054,0.529557963067524,1.1420918974454586,0.16529331495061583,-0.9029125386920043,0.031256687867305746,0.1854807484872532,0.5050231285142183,-0.6993284855290033,-0.9666728479416022,-0.3294179469232168,0.3650003494887924,-1.1241839560065283,0.40280251369994885,0.14167936438656276,0.05304885660268368,-2.0150507339797326,1.2474630981180075,-0.10674718928458041,0.13610309176659455,0.7564025951300332,-0.9419295501157664,-1.4878442380436925,-0.36338862578066927,0.8097293345054085,-0.12404524320945698,0.6770202414632799,-1.0389517534055766,-0.7023388901011295,-0.6103894434408024,-1.2794093812693375,-0.062457788629884714,0.002996573210487476,-0.6252124382072607,0.8701804936860614,-0.8337168893615821,0.9355184012589416,-0.10710752355212969,-0.25748479368857274,-0.7782262130200145,0.8682893239857532,-0.5672578410247493,1.0154600369327595,-0.7081884138442899,0.0274002862225984,-0.7073327226140833,-0.2611227485816486,0.11908994037088237,0.7408355865088934,-0.7316811036994667,-0.3947300187760864,-1.52717789936355,0.5535382850242959,0.23159102776633766,-0.9753141681052031,0.4129214434616601,1.980414975888679,0.37016529680708904,-0.4355221476235354,-0.724024899853961,0.43662064004647105,0.4300678545128739,-0.03095306250947833,0.9782610821328241,-1.0050561147137593,0.9235655895322328,-0.15082012609369413,-0.4427073590381523,-0.49869047772368275,-1.151825583196373,-0.38648068288579274,-1.1252145729067935,-0.47551772651317825,0.758800922121741,0.029785173762035443,-0.011189561275901493,0.36992551312181887,2.181738773936335,2.492271346127156,-1.2157833113725216,0.2379019199831824,-0.14818176189426172,-2.2786413993029786,-0.2501607556631042,0.7278107125647262,-0.6732474228725449,0.32507189198666653,-1.7716573069364907,-0.09080648541955831,0.2067349699096199,-0.12364770055330083,-0.13308674779276444,0.05010770180737146,-0.07764552744712112,0.4204116620579163,-0.08610370344742133
-0.27459535799170603,-0.8904219769863659,-0.3569256274441812,-0.9352721031983415,-0.9854433752987506,-0.49766281720884,-0.9789999399581951,0.8696630766930189,0.5258116078492862,-0.12315990834564328,0.5193888720794085,-0.36287959437877554,-0.3143145311541118,0.15856903784584747,0.798914693794393,0.4321876420718269,-0.11631121515140629,0.08078512731961308,0.595635973383818,-0.4789334949046741,-1.5592208184879104,0.8439723450207556,-1.0378974130212844,0.2799716741915493,-0.925465593111121,0.21971832312672995,-0.23197673862004964,-0.09904629359465617,-0.7387023604058018,-0.31336655950344244,-1.4916140914249973,1.8154865866392758,1.6797526526910407,1.658745089535953,-1.2918871020034628,0.4824243076580212,-0.863086550656347,-0.294473759049353,1.733215017501201,0.6426630170152463,-0.17162811348080517,0.43547040664277087,0.9742528200495679,0.8872657912122055,-0.4216087353600507,-0.8423998914852583,1.5266324543630987,-0.6677423105539178,-0.6274280686727852,-0.8130414176749821,-0.6004581428467477,-0.05981733357569496,-0.12215312970185344,-0.36532764712533333,1.3042620757310275,-0.47318105271410926,-1.3606436953232217,1.0227672730650452,-0.47850508046967527,0.5399112112615235,0.4461982901517357,0.5203494891906383,0.6370693106228513,0.8892614279414561,-0.3104144702826455,-0.6216888897205832,1.4910452799844043,-1.3604398685464578,0.01915117379764705,0.44478336580831423,-1.318726774790526,0.4736721880029928,1.2411299845163217,-0.23417329670342812,-0.11661912096164224,0.27012686479794246,-0.798366942936801,0.7404412845677443,-0.5003352302562568,0.14774408678862902,0.4193437809743194,0.10051990670746808,-0.05828575744483334,-0.17935419763530597,0.04176644223595742,0.2645767536673098,0.08938180374162948,-0.34099415200100874,-0.7746649512123405,-0.19124159701787144,-0.30602194334418514,-0.37356466974252933,-1.323703388422051,0.7277362518444787,-0.8919907983081263,-0.804792605278661,1.16863928805839,0.07507687554737662,-0.3625919362574203,-0.9719535473727337,0.4289627617103515,-0.7430349771963726,0.7851604360912454,0.7871943928474064,-0.28311690702280334,0.5612770680987234,0.8350495535367339,0.9125100060982363,-0.21147675491694193,-0.6985257892240206,0.8120441546451876,0.02612446706058754,0.4572690725446305,-0.44293691739266045,0.4932278317886784,-0.8687198497754617,1.106083747162281,-0.54455280745973,-0.034396741251508905,0.731042710819037,-0.016556952048789795,0.9576262638587999,-1.015489939758787,0.24156269948290024,-0.7149151499775871,-0.358116235758081,0.03895895427610309,0.39387057703288514,0.16190945872430879,-0.6177146159366856,0.7720825103708537,-0.5936415086870188,0.13964212084543118,0.9369352240636049,0.0853593771768317,-0.14658408555713093,1.1670319141202719,0.1755339368034998,-0.27395789220383193,-0.36776717237756174,0.7732159949424405,-0.08872371161226215,-1.4345625213067774,-0.3149912142121038,-0.39328258003119854,-0.8688552566784563,-1.2526777954033175,0.25487575866382667,-0.9104329328705217,0.4634202000166619,1.4086868749710122,0.5625523717679438,0.10239665657670124,0.19292583929894486,-1.4396161196803257,0.6214721158180505,1.5839595330628744,-1.5173615225977242,0.3592421366420681,0.8955006844973321,-0.17680251561022314,-0.598504883186727,-0.1728271986286049,0.6672335629998164,0.548877790713577,-0.5812101256375891,0.49626519224415816,0.38952570364423983,-0.5710167049294699,-0.0722373161202467,-0.11005048340830613,0.5218594381898449,-0.4111635373144555,-0.7077640394779848,0.37657931802456285,0.9702286619634056,1.015791803832253,-0.8698901413351054,0.5235884557886199,-0.1745606352828595,0.4643411447821845,0.5338392723645673,-0.3252450030937784,0.9992376062554187,-0.09008915324235789,0.5429194601497309,0.7734528802383632,0.8066845633807003,0.4492940514852459,0.24078739802645563,0.9730351601678814,0.451649351255746,0.29315314357599176,0.29692841007632986,-0.4508641557457136,0.8557714231185503,0.05769640676782964,-0.9607146818735844,0.735999031434576,0.25265711095253224,0.26039514520920404,-0.47888592155212045,0.34313420737357914,-0.6818769927527434,-0.7467561675901051,0.21217593849067662,0.09915542821009594,0.40801204344002606,0.33707318487743543,-0.7602347848000134,-0.14334201784403133,0.4198693643631192,-0.16726473056381994,-0.6257407317358467,-0.3507554982445478,-0.6042990753763525,-0.7810677771675352,-0.10213936986362633,1.0008046316556731,0.40680272698892256,1.0210453940865531,0.927718590778,-0.257176820225434,-1.0150744790703798,-0.3599432412792083,-0.20890505295507267,-0.9182542248903114,1.0398026547425998,-0.5084029257897688,-0.4538305281367081,0.5948802947170291,-0.4031882302411661,-1.052049548338753,-1.0237920863248176,0.8931908181771031,-0.39510339220088275,-0.39536372606875586,-0.43125016510025316,-1.178298411916237,-0.6651590237650278,0.9119631142502581,-0.7798693971200096,-0.17654961918507728,0.5588207202586548,0.12597174222044333,-0.13319841518628112,-1.590269252051884,1.4196943522305951,-0.640341347045362,0.5389738842222606,-0.11153185430392037,0.18531115690196281,-0.6861911362554036,0.9007870184808551,-0.5504479308321186,0.45310670561933336,1.1984571409056737,-0.7941884374336805,0.8861645827522002,-0.8602959838004478,-0.37685705972614253,-0.26180185287969543,0.28151999161658037,-0.3805420631073896,0.6708136991063793,-0.19980179260754186,0.003556038977342315,-0.3771762463171629,-0.49604633455131397,0.25726267688955545,0.5530158918686221,-0.26371226867124087,0.6396341957302456,0.0018098372893566997,-0.9344328224792579,-0.714455694402436,0.39241702253257615,0.25727443794691596,-0.759543734803355,-0.04722259125714728,-0.404897455239601,-0.26331978730553457,0.13356656334391864,0.0901188856149721,-0.961866826011822,0.6558206072066194,-0.25311526468576784,-0.39958469185880147,0.12808897420435109,-0.29241462770090676,0.7101048328748781,-0.9325829984767675,-0.5359272016483058,-0.5618565629709862,-0.3185011480234115,-0.5997437548632675,-0.3108236239897698,-0.7735835693735499,-0.35669911840095336,0.8137314111027378,0.5274659137215708,-0.842599107641865,-0.814117349094158,-0.30376822920866686,-0.7539732081100189,0.172630914656895,-0.6868151009321752,-0.6015480905709913,0.4432900883943411,-0.9682614930184393,0.8160763010068385,0.8919152874430156,0.6494072307318066,-0.4101073136350642,-0.8922027620103774,-0.11048078380568074,0.8992807779210527,-0.8915279455009927,-0.6139077225049967,0.3896649733686189,-0.43261350743913096,-1.0624332684591575,0.7005679460456483,-0.4688157045577775,-0.046568823777274324,-0.2806051309624151,-0.2690597773217998,-0.5214549207513637,1.1212372548274052,-0.26909522052998264,0.9605488594018332,-0.6929702668141831,-1.2355186117632437,-0.7242266536451644,-0.25676350922654406,0.8834234399959648,-0.4644739128510259,-0.5199942515392766,-1.0672109811588084,0.15787501447708954,0.8288057520398695,-0.10289874685960813,0.772945025743325,-0.5965474709305241,0.8374137809084964,-0.5241049477708407,-0.4185505289784765,0.28145033555133186,-0.14700676618861613,-0.2996567762718353,1.39377944434763,-0.5951080734287163,-1.3984651067846383,-0.3282923776643057,-0.2739608568599409,-0.7127344884955871,-0.01705238054238151,-0.3309584086681325,0.636236594723214,-0.9973910629485199,-0.5295718023507447,0.7381637995526024,-0.17149993335669864,-0.036642008530881655,-0.12904131303064567,0.6085245143224758,0.046529721918891605,-0.8929884012313762,-0.05282936111564678,-0.9025484348493301,0.37704297181679797,1.4125298033103455,0.10859999774268939,0.9016865530716203,0.684062379319793,-0.2734096381320136,0.5350073570834764,0.20558158381223807,0.8714436603633865,1.0761648178175742,-0.942487020910961,-0.3455433042749525,0.8084145518640068,-0.830087453565453,0.9818008304429398,0.5523097041649901,1.0927115088407722,-0.9616197406896778,0.8468687684525501,0.8110113678818438,-0.6033235441704552,-0.6977088859053819,0.19644072246340388,-0.641607568247462,-0.22717643104433188,-0.9053868694325234,-0.77310611976255,0.8724740963868133,-0.4802687871221609,-0.906852497019676,0.7496643113841339,0.41195398292695456,-0.7190506666016914,0.499560020106942,-0.041059501753947715,0.07693913593055113,-0.7665363752978913,-0.07619790418896966,-0.0720717493671175,0.7928335188288962,-0.6631817065487274,-0.3434846949133198,0.5806626897105904,0.719291643530997,-0.7497402927597048,-0.8236430221178284,-0.4028915861314583,0.712134136441476,-0.5277210393079335,0.07060257117264013
-0.06745930407345421,-0.8417016739316848,-1.1676049596623876,-0.6834801802515263,-0.08056216277360873,-0.006146752670796218,-0.6811120133487184,0.060762955399196794,0.1048429084909119,-1.196424005434868,1.0581467755281864,-0.870761225190069,-0.2954706333678869,0.40915060562830113,-0.6747350484622326,-1.172207787738774,-0.41887999888568495,-0.1744747008034342,0.0045571294135157234,-1.8290500934070042,0.21081423371868907,1.141204068339435,1.1324736859039168,0.39544890903076196,0.6375458357731094,-0.23748207950131095,-1.0146718605011382,0.10130453587539127,-0.394165091024285,-0.0023596223195491255,1.2860083499961277,-1.2910854486166168,0.8824224682932975,-0.9606169690709709,1.061310358440962,-0.3627558523614395,0.35497761945029743,-1.334381326611689,-0.13304984503847764,0.5496022454407031,0.1305172974254982,0.7408741398984532,0.9438015516748417,-0.1060227242776012,0.2235802105860609,-0.12405342648817026,0.16406545213900303,0.6559551228747575,-0.6834563203022861,0.5559061425631695,0.22062938463242818,-0.3063994223512402,-0.2783453764516385,-0.3136614004154847,0.5471922860220011,0.8528337377230721,-0.4819152279367452,0.8719300261391223,0.8098658443233023,-0.6629283221824849,-0.36164858224989477,-0.019102514351867585,-0.8539857070393682,-0.8040054106407204,-0.2776073143088776,0.4017385184859855,0.2845797186066065,-0.9582594046840829,-0.24039209864715402,-0.07390361927325047,0.5788198613586745,-0.6720376165573371,1.5918186294906438,-1.670923041578817,-0.5027199364895462,-0.441886022666746,-0.14384473329854267,-0.4253429845115432,-0.26773269935690214,1.7771101360237962,-0.4197166407622083,-0.030570913458558637,-1.67359950179139,0.8405898229580074,-0.07256099632280706,-0.6963919963573005,-0.12900947759970552,0.9540804619174147,0.27652638162586013,-0.9330537796326444,0.7368192849425288,0.3604933920790323,-0.5402080560463973,-0.22874856996883025,0.6367467450752158,-1.0154810963794658,0.6047866768579122,-1.024590729562502,-0.8688573366575053,0.81220997695909,-0.7078621856732055,-0.7143054979429706,0.12547635081138986,-0.2653854113206528,-0.5540232280539011,-0.24081666743657842,0.8034431246072643,-0.008444917414827809,0.9393640774259503,0.03715434113548553,0.15794403409606617,-1.3685247288052158,-1.0482754437830444,0.7670286109309415,-0.468560723253738,-1.6012494717266503,-0.19550735565942726,0.10045878113198796,1.0020574173099352,-2.26253462920002,-1.4034176758047325,1.6042814737457947,-0.3103274482270594,0.5350116337834099,-1.00404603654885,1.0560029109036433,0.288110710400863,-0.036842682402941536,-0.6215655331387692,0.7911045984260053,-1.6558187412072252,0.7603375531524519,1.3367903106477057,0.2745486237881212,0.8968435128422714,1.1497697722929212,-0.8510222303836397,0.6691231388350339,-0.7193910540342517,1.571558275219046,-1.4694781144113687,1.221581548586435,0.31998509063768965,0.9141425210960205,0.027560512429650498,1.187721409179666,0.4810125225741157,0.6455787196854188,0.11685765571146917,-0.1550402332071288,0.9478072895223263,-1.1651765056082037,0.16117177327936053,-1.1228914303931432,-0.6846932586371718,-0.17981879323598157,-0.25717606846718777,-1.3420335342387741,0.7064826598165663,0.8424227578976295,0.18530900095504718,-0.03158093681749764,-1.0366919823320024,1.0084540376145017,0.9388622356792498,-0.28498772341074696,-0.9400544930561102,0.5060998598033463,-0.8142041307704382,-0.8199313238025209,0.5357959035605082,1.2839039975747872,-1.8292753077810804,1.3186787406401546,0.2956133191323024,-0.25219130487476776,0.819386653923131,1.2178525654153423,0.7803210923515089,-1.8335199976097436,0.3250409852355831,-0.9940504647322531,1.6675520701814635,-1.2223609907709758,-0.8746864970300524,0.40156132732530053,0.6899039364838836,-1.141597210393191,0.2790871069182755,0.7743079727599699,-0.8344658747768543,1.9242663329847276,-0.3725002895225663,1.230827371302149,0.07836752227427737,1.125918696265397,-0.171369098701608,1.1178780615482842,0.9124424402292437,0.001966157809206239,-0.11157174226685314,1.2595105543178977,-0.1225400407884102,-0.7594014701413283,0.14571545470110212,0.9337559264936258,-0.4817495326284562,-0.8709433564510373,-0.5197611369011423,0.15594385894352833
-2.120531927124879,-0.5878105696371146,1.3978984650127138,-2.2686902959799444,-2.7161118920206118,2.159352438250538,1.1970133509923784,2.5309888099519524,-3.1507472103611196,2.8407899479671768,-3.1421404076353388,-0.5275696191059854,-2.519362404699512,1.9473896786240097,-1.462593077906221,-0.758126472517376,-0.731462889766122,-0.24972274656952934,0.812064100622067,-0.2134866530316612,-2.523672390999615,-0.20643134049312642,0.2254372057526526,1.0756101244840464,-1.233888626141765,1.4085367509865983,-1.3312984423033791,-1.1786662989982162,0.5108940727896369,1.1303191254108245,3.4960167898367214,-3.0330664605147946,-0.9592737164448659
